-17 35 -94 -63 -38 
-27 -8 -36 -17 81 
93 -52 67 97 -2 
116 -88 121 10 90 
44 -81 -87 109 123 

-111 -111 22 29 -29 
118 -95 -72 6 62 
-102 62 -57 -77 -92 
-116 33 81 56 -122 
107 20 -14 120 30 

114 59 -89 78 -22 
122 -77 72 34 57 
-56 44 67 3 27 
52 0 100 43 -65 
-12 -104 124 -94 14 

9 27 -1 -68 -80 
-76 38 61 86 -79 
-96 8 -20 -15 -80 
-44 -114 -16 88 10 
32 -125 -39 36 5 

-86 114 0 95 13 
-61 -2 -96 56 -74 
-21 49 -72 29 12 
-112 53 -6 -120 -71 
-2 57 -15 -20 -38 

32 66 -58 -11 113 
-98 -79 44 -6 -105 
30 -16 113 37 -3 
-48 63 -36 -13 25 
-64 58 -50 -20 68 

-126 30 -44 47 -34 
75 47 62 -58 -13 
-41 -76 80 -78 -94 
120 -107 43 59 58 
84 -70 73 -88 91 

57 -79 -123 -117 -12 
-93 31 -100 8 -50 
106 -101 -58 -106 41 
61 43 63 63 -44 
-80 -25 -80 28 -123 


-17 35 -94 -63 -38 
-27 -8 -36 -17 81 
93 -52 67 97 -2 
116 -88 121 10 90 
44 -81 -87 109 123 

-111 -111 22 29 -29 
118 -95 -72 6 62 
-102 62 -57 -77 -92 
-116 33 81 56 -122 
107 20 -14 120 30 

114 59 -89 78 -22 
122 -77 72 34 57 
-56 44 67 3 27 
52 0 100 43 -65 
-12 -104 124 -94 14 

9 27 -1 -68 -80 
-76 38 61 86 -79 
-96 8 -20 -15 -80 
-44 -114 -16 88 10 
32 -125 -39 36 5 

-86 114 0 95 13 
-61 -2 -96 56 -74 
-21 49 -72 29 12 
-112 53 -6 -120 -71 
-2 57 -15 -20 -38 

32 66 -58 -11 113 
-98 -79 44 -6 -105 
30 -16 113 37 -3 
-48 63 -36 -13 25 
-64 58 -50 -20 68 

-126 30 -44 47 -34 
75 47 62 -58 -13 
-41 -76 80 -78 -94 
120 -107 43 59 58 
84 -70 73 -88 91 

57 -79 -123 -117 -12 
-93 31 -100 8 -50 
106 -101 -58 -106 41 
61 43 63 63 -44 
-80 -25 -80 28 -123 


-17 35 -94 -63 -38 
-27 -8 -36 -17 81 
93 -52 67 97 -2 
116 -88 121 10 90 
44 -81 -87 109 123 

-111 -111 22 29 -29 
118 -95 -72 6 62 
-102 62 -57 -77 -92 
-116 33 81 56 -122 
107 20 -14 120 30 

114 59 -89 78 -22 
122 -77 72 34 57 
-56 44 67 3 27 
52 0 100 43 -65 
-12 -104 124 -94 14 

9 27 -1 -68 -80 
-76 38 61 86 -79 
-96 8 -20 -15 -80 
-44 -114 -16 88 10 
32 -125 -39 36 5 

-86 114 0 95 13 
-61 -2 -96 56 -74 
-21 49 -72 29 12 
-112 53 -6 -120 -71 
-2 57 -15 -20 -38 

32 66 -58 -11 113 
-98 -79 44 -6 -105 
30 -16 113 37 -3 
-48 63 -36 -13 25 
-64 58 -50 -20 68 

-126 30 -44 47 -34 
75 47 62 -58 -13 
-41 -76 80 -78 -94 
120 -107 43 59 58 
84 -70 73 -88 91 

57 -79 -123 -117 -12 
-93 31 -100 8 -50 
106 -101 -58 -106 41 
61 43 63 63 -44 
-80 -25 -80 28 -123 


-17 35 -94 -63 -38 
-27 -8 -36 -17 81 
93 -52 67 97 -2 
116 -88 121 10 90 
44 -81 -87 109 123 

-111 -111 22 29 -29 
118 -95 -72 6 62 
-102 62 -57 -77 -92 
-116 33 81 56 -122 
107 20 -14 120 30 

114 59 -89 78 -22 
122 -77 72 34 57 
-56 44 67 3 27 
52 0 100 43 -65 
-12 -104 124 -94 14 

9 27 -1 -68 -80 
-76 38 61 86 -79 
-96 8 -20 -15 -80 
-44 -114 -16 88 10 
32 -125 -39 36 5 

-86 114 0 95 13 
-61 -2 -96 56 -74 
-21 49 -72 29 12 
-112 53 -6 -120 -71 
-2 57 -15 -20 -38 

32 66 -58 -11 113 
-98 -79 44 -6 -105 
30 -16 113 37 -3 
-48 63 -36 -13 25 
-64 58 -50 -20 68 

-126 30 -44 47 -34 
75 47 62 -58 -13 
-41 -76 80 -78 -94 
120 -107 43 59 58 
84 -70 73 -88 91 

57 -79 -123 -117 -12 
-93 31 -100 8 -50 
106 -101 -58 -106 41 
61 43 63 63 -44 
-80 -25 -80 28 -123 



-17 35 -94 -63 -38 
-27 -8 -36 -17 81 
93 -52 67 97 -2 
116 -88 121 10 90 
44 -81 -87 109 123 

-111 -111 22 29 -29 
118 -95 -72 6 62 
-102 62 -57 -77 -92 
-116 33 81 56 -122 
107 20 -14 120 30 

114 59 -89 78 -22 
122 -77 72 34 57 
-56 44 67 3 27 
52 0 100 43 -65 
-12 -104 124 -94 14 

9 27 -1 -68 -80 
-76 38 61 86 -79 
-96 8 -20 -15 -80 
-44 -114 -16 88 10 
32 -125 -39 36 5 

-86 114 0 95 13 
-61 -2 -96 56 -74 
-21 49 -72 29 12 
-112 53 -6 -120 -71 
-2 57 -15 -20 -38 

32 66 -58 -11 113 
-98 -79 44 -6 -105 
30 -16 113 37 -3 
-48 63 -36 -13 25 
-64 58 -50 -20 68 

-126 30 -44 47 -34 
75 47 62 -58 -13 
-41 -76 80 -78 -94 
120 -107 43 59 58 
84 -70 73 -88 91 

57 -79 -123 -117 -12 
-93 31 -100 8 -50 
106 -101 -58 -106 41 
61 43 63 63 -44 
-80 -25 -80 28 -123 


-17 35 -94 -63 -38 
-27 -8 -36 -17 81 
93 -52 67 97 -2 
116 -88 121 10 90 
44 -81 -87 109 123 

-111 -111 22 29 -29 
118 -95 -72 6 62 
-102 62 -57 -77 -92 
-116 33 81 56 -122 
107 20 -14 120 30 

114 59 -89 78 -22 
122 -77 72 34 57 
-56 44 67 3 27 
52 0 100 43 -65 
-12 -104 124 -94 14 

9 27 -1 -68 -80 
-76 38 61 86 -79 
-96 8 -20 -15 -80 
-44 -114 -16 88 10 
32 -125 -39 36 5 

-86 114 0 95 13 
-61 -2 -96 56 -74 
-21 49 -72 29 12 
-112 53 -6 -120 -71 
-2 57 -15 -20 -38 

32 66 -58 -11 113 
-98 -79 44 -6 -105 
30 -16 113 37 -3 
-48 63 -36 -13 25 
-64 58 -50 -20 68 

-126 30 -44 47 -34 
75 47 62 -58 -13 
-41 -76 80 -78 -94 
120 -107 43 59 58 
84 -70 73 -88 91 

57 -79 -123 -117 -12 
-93 31 -100 8 -50 
106 -101 -58 -106 41 
61 43 63 63 -44 
-80 -25 -80 28 -123 


-17 35 -94 -63 -38 
-27 -8 -36 -17 81 
93 -52 67 97 -2 
116 -88 121 10 90 
44 -81 -87 109 123 

-111 -111 22 29 -29 
118 -95 -72 6 62 
-102 62 -57 -77 -92 
-116 33 81 56 -122 
107 20 -14 120 30 

114 59 -89 78 -22 
122 -77 72 34 57 
-56 44 67 3 27 
52 0 100 43 -65 
-12 -104 124 -94 14 

9 27 -1 -68 -80 
-76 38 61 86 -79 
-96 8 -20 -15 -80 
-44 -114 -16 88 10 
32 -125 -39 36 5 

-86 114 0 95 13 
-61 -2 -96 56 -74 
-21 49 -72 29 12 
-112 53 -6 -120 -71 
-2 57 -15 -20 -38 

32 66 -58 -11 113 
-98 -79 44 -6 -105 
30 -16 113 37 -3 
-48 63 -36 -13 25 
-64 58 -50 -20 68 

-126 30 -44 47 -34 
75 47 62 -58 -13 
-41 -76 80 -78 -94 
120 -107 43 59 58 
84 -70 73 -88 91 

57 -79 -123 -117 -12 
-93 31 -100 8 -50 
106 -101 -58 -106 41 
61 43 63 63 -44 
-80 -25 -80 28 -123 


-17 35 -94 -63 -38 
-27 -8 -36 -17 81 
93 -52 67 97 -2 
116 -88 121 10 90 
44 -81 -87 109 123 

-111 -111 22 29 -29 
118 -95 -72 6 62 
-102 62 -57 -77 -92 
-116 33 81 56 -122 
107 20 -14 120 30 

114 59 -89 78 -22 
122 -77 72 34 57 
-56 44 67 3 27 
52 0 100 43 -65 
-12 -104 124 -94 14 

9 27 -1 -68 -80 
-76 38 61 86 -79 
-96 8 -20 -15 -80 
-44 -114 -16 88 10 
32 -125 -39 36 5 

-86 114 0 95 13 
-61 -2 -96 56 -74 
-21 49 -72 29 12 
-112 53 -6 -120 -71 
-2 57 -15 -20 -38 

32 66 -58 -11 113 
-98 -79 44 -6 -105 
30 -16 113 37 -3 
-48 63 -36 -13 25 
-64 58 -50 -20 68 

-126 30 -44 47 -34 
75 47 62 -58 -13 
-41 -76 80 -78 -94 
120 -107 43 59 58 
84 -70 73 -88 91 

57 -79 -123 -117 -12 
-93 31 -100 8 -50 
106 -101 -58 -106 41 
61 43 63 63 -44 
-80 -25 -80 28 -123 



-17 35 -94 -63 -38 
-27 -8 -36 -17 81 
93 -52 67 97 -2 
116 -88 121 10 90 
44 -81 -87 109 123 

-111 -111 22 29 -29 
118 -95 -72 6 62 
-102 62 -57 -77 -92 
-116 33 81 56 -122 
107 20 -14 120 30 

114 59 -89 78 -22 
122 -77 72 34 57 
-56 44 67 3 27 
52 0 100 43 -65 
-12 -104 124 -94 14 

9 27 -1 -68 -80 
-76 38 61 86 -79 
-96 8 -20 -15 -80 
-44 -114 -16 88 10 
32 -125 -39 36 5 

-86 114 0 95 13 
-61 -2 -96 56 -74 
-21 49 -72 29 12 
-112 53 -6 -120 -71 
-2 57 -15 -20 -38 

32 66 -58 -11 113 
-98 -79 44 -6 -105 
30 -16 113 37 -3 
-48 63 -36 -13 25 
-64 58 -50 -20 68 

-126 30 -44 47 -34 
75 47 62 -58 -13 
-41 -76 80 -78 -94 
120 -107 43 59 58 
84 -70 73 -88 91 

57 -79 -123 -117 -12 
-93 31 -100 8 -50 
106 -101 -58 -106 41 
61 43 63 63 -44 
-80 -25 -80 28 -123 


-17 35 -94 -63 -38 
-27 -8 -36 -17 81 
93 -52 67 97 -2 
116 -88 121 10 90 
44 -81 -87 109 123 

-111 -111 22 29 -29 
118 -95 -72 6 62 
-102 62 -57 -77 -92 
-116 33 81 56 -122 
107 20 -14 120 30 

114 59 -89 78 -22 
122 -77 72 34 57 
-56 44 67 3 27 
52 0 100 43 -65 
-12 -104 124 -94 14 

9 27 -1 -68 -80 
-76 38 61 86 -79 
-96 8 -20 -15 -80 
-44 -114 -16 88 10 
32 -125 -39 36 5 

-86 114 0 95 13 
-61 -2 -96 56 -74 
-21 49 -72 29 12 
-112 53 -6 -120 -71 
-2 57 -15 -20 -38 

32 66 -58 -11 113 
-98 -79 44 -6 -105 
30 -16 113 37 -3 
-48 63 -36 -13 25 
-64 58 -50 -20 68 

-126 30 -44 47 -34 
75 47 62 -58 -13 
-41 -76 80 -78 -94 
120 -107 43 59 58 
84 -70 73 -88 91 

57 -79 -123 -117 -12 
-93 31 -100 8 -50 
106 -101 -58 -106 41 
61 43 63 63 -44 
-80 -25 -80 28 -123 


-17 35 -94 -63 -38 
-27 -8 -36 -17 81 
93 -52 67 97 -2 
116 -88 121 10 90 
44 -81 -87 109 123 

-111 -111 22 29 -29 
118 -95 -72 6 62 
-102 62 -57 -77 -92 
-116 33 81 56 -122 
107 20 -14 120 30 

114 59 -89 78 -22 
122 -77 72 34 57 
-56 44 67 3 27 
52 0 100 43 -65 
-12 -104 124 -94 14 

9 27 -1 -68 -80 
-76 38 61 86 -79 
-96 8 -20 -15 -80 
-44 -114 -16 88 10 
32 -125 -39 36 5 

-86 114 0 95 13 
-61 -2 -96 56 -74 
-21 49 -72 29 12 
-112 53 -6 -120 -71 
-2 57 -15 -20 -38 

32 66 -58 -11 113 
-98 -79 44 -6 -105 
30 -16 113 37 -3 
-48 63 -36 -13 25 
-64 58 -50 -20 68 

-126 30 -44 47 -34 
75 47 62 -58 -13 
-41 -76 80 -78 -94 
120 -107 43 59 58 
84 -70 73 -88 91 

57 -79 -123 -117 -12 
-93 31 -100 8 -50 
106 -101 -58 -106 41 
61 43 63 63 -44 
-80 -25 -80 28 -123 


-17 35 -94 -63 -38 
-27 -8 -36 -17 81 
93 -52 67 97 -2 
116 -88 121 10 90 
44 -81 -87 109 123 

-111 -111 22 29 -29 
118 -95 -72 6 62 
-102 62 -57 -77 -92 
-116 33 81 56 -122 
107 20 -14 120 30 

114 59 -89 78 -22 
122 -77 72 34 57 
-56 44 67 3 27 
52 0 100 43 -65 
-12 -104 124 -94 14 

9 27 -1 -68 -80 
-76 38 61 86 -79 
-96 8 -20 -15 -80 
-44 -114 -16 88 10 
32 -125 -39 36 5 

-86 114 0 95 13 
-61 -2 -96 56 -74 
-21 49 -72 29 12 
-112 53 -6 -120 -71 
-2 57 -15 -20 -38 

32 66 -58 -11 113 
-98 -79 44 -6 -105 
30 -16 113 37 -3 
-48 63 -36 -13 25 
-64 58 -50 -20 68 

-126 30 -44 47 -34 
75 47 62 -58 -13 
-41 -76 80 -78 -94 
120 -107 43 59 58 
84 -70 73 -88 91 

57 -79 -123 -117 -12 
-93 31 -100 8 -50 
106 -101 -58 -106 41 
61 43 63 63 -44 
-80 -25 -80 28 -123 



-17 35 -94 -63 -38 
-27 -8 -36 -17 81 
93 -52 67 97 -2 
116 -88 121 10 90 
44 -81 -87 109 123 

-111 -111 22 29 -29 
118 -95 -72 6 62 
-102 62 -57 -77 -92 
-116 33 81 56 -122 
107 20 -14 120 30 

114 59 -89 78 -22 
122 -77 72 34 57 
-56 44 67 3 27 
52 0 100 43 -65 
-12 -104 124 -94 14 

9 27 -1 -68 -80 
-76 38 61 86 -79 
-96 8 -20 -15 -80 
-44 -114 -16 88 10 
32 -125 -39 36 5 

-86 114 0 95 13 
-61 -2 -96 56 -74 
-21 49 -72 29 12 
-112 53 -6 -120 -71 
-2 57 -15 -20 -38 

32 66 -58 -11 113 
-98 -79 44 -6 -105 
30 -16 113 37 -3 
-48 63 -36 -13 25 
-64 58 -50 -20 68 

-126 30 -44 47 -34 
75 47 62 -58 -13 
-41 -76 80 -78 -94 
120 -107 43 59 58 
84 -70 73 -88 91 

57 -79 -123 -117 -12 
-93 31 -100 8 -50 
106 -101 -58 -106 41 
61 43 63 63 -44 
-80 -25 -80 28 -123 


-17 35 -94 -63 -38 
-27 -8 -36 -17 81 
93 -52 67 97 -2 
116 -88 121 10 90 
44 -81 -87 109 123 

-111 -111 22 29 -29 
118 -95 -72 6 62 
-102 62 -57 -77 -92 
-116 33 81 56 -122 
107 20 -14 120 30 

114 59 -89 78 -22 
122 -77 72 34 57 
-56 44 67 3 27 
52 0 100 43 -65 
-12 -104 124 -94 14 

9 27 -1 -68 -80 
-76 38 61 86 -79 
-96 8 -20 -15 -80 
-44 -114 -16 88 10 
32 -125 -39 36 5 

-86 114 0 95 13 
-61 -2 -96 56 -74 
-21 49 -72 29 12 
-112 53 -6 -120 -71 
-2 57 -15 -20 -38 

32 66 -58 -11 113 
-98 -79 44 -6 -105 
30 -16 113 37 -3 
-48 63 -36 -13 25 
-64 58 -50 -20 68 

-126 30 -44 47 -34 
75 47 62 -58 -13 
-41 -76 80 -78 -94 
120 -107 43 59 58 
84 -70 73 -88 91 

57 -79 -123 -117 -12 
-93 31 -100 8 -50 
106 -101 -58 -106 41 
61 43 63 63 -44 
-80 -25 -80 28 -123 


-17 35 -94 -63 -38 
-27 -8 -36 -17 81 
93 -52 67 97 -2 
116 -88 121 10 90 
44 -81 -87 109 123 

-111 -111 22 29 -29 
118 -95 -72 6 62 
-102 62 -57 -77 -92 
-116 33 81 56 -122 
107 20 -14 120 30 

114 59 -89 78 -22 
122 -77 72 34 57 
-56 44 67 3 27 
52 0 100 43 -65 
-12 -104 124 -94 14 

9 27 -1 -68 -80 
-76 38 61 86 -79 
-96 8 -20 -15 -80 
-44 -114 -16 88 10 
32 -125 -39 36 5 

-86 114 0 95 13 
-61 -2 -96 56 -74 
-21 49 -72 29 12 
-112 53 -6 -120 -71 
-2 57 -15 -20 -38 

32 66 -58 -11 113 
-98 -79 44 -6 -105 
30 -16 113 37 -3 
-48 63 -36 -13 25 
-64 58 -50 -20 68 

-126 30 -44 47 -34 
75 47 62 -58 -13 
-41 -76 80 -78 -94 
120 -107 43 59 58 
84 -70 73 -88 91 

57 -79 -123 -117 -12 
-93 31 -100 8 -50 
106 -101 -58 -106 41 
61 43 63 63 -44 
-80 -25 -80 28 -123 


-17 35 -94 -63 -38 
-27 -8 -36 -17 81 
93 -52 67 97 -2 
116 -88 121 10 90 
44 -81 -87 109 123 

-111 -111 22 29 -29 
118 -95 -72 6 62 
-102 62 -57 -77 -92 
-116 33 81 56 -122 
107 20 -14 120 30 

114 59 -89 78 -22 
122 -77 72 34 57 
-56 44 67 3 27 
52 0 100 43 -65 
-12 -104 124 -94 14 

9 27 -1 -68 -80 
-76 38 61 86 -79 
-96 8 -20 -15 -80 
-44 -114 -16 88 10 
32 -125 -39 36 5 

-86 114 0 95 13 
-61 -2 -96 56 -74 
-21 49 -72 29 12 
-112 53 -6 -120 -71 
-2 57 -15 -20 -38 

32 66 -58 -11 113 
-98 -79 44 -6 -105 
30 -16 113 37 -3 
-48 63 -36 -13 25 
-64 58 -50 -20 68 

-126 30 -44 47 -34 
75 47 62 -58 -13 
-41 -76 80 -78 -94 
120 -107 43 59 58 
84 -70 73 -88 91 

57 -79 -123 -117 -12 
-93 31 -100 8 -50 
106 -101 -58 -106 41 
61 43 63 63 -44 
-80 -25 -80 28 -123 



-17 35 -94 -63 -38 
-27 -8 -36 -17 81 
93 -52 67 97 -2 
116 -88 121 10 90 
44 -81 -87 109 123 

-111 -111 22 29 -29 
118 -95 -72 6 62 
-102 62 -57 -77 -92 
-116 33 81 56 -122 
107 20 -14 120 30 

114 59 -89 78 -22 
122 -77 72 34 57 
-56 44 67 3 27 
52 0 100 43 -65 
-12 -104 124 -94 14 

9 27 -1 -68 -80 
-76 38 61 86 -79 
-96 8 -20 -15 -80 
-44 -114 -16 88 10 
32 -125 -39 36 5 

-86 114 0 95 13 
-61 -2 -96 56 -74 
-21 49 -72 29 12 
-112 53 -6 -120 -71 
-2 57 -15 -20 -38 

32 66 -58 -11 113 
-98 -79 44 -6 -105 
30 -16 113 37 -3 
-48 63 -36 -13 25 
-64 58 -50 -20 68 

-126 30 -44 47 -34 
75 47 62 -58 -13 
-41 -76 80 -78 -94 
120 -107 43 59 58 
84 -70 73 -88 91 

57 -79 -123 -117 -12 
-93 31 -100 8 -50 
106 -101 -58 -106 41 
61 43 63 63 -44 
-80 -25 -80 28 -123 


-17 35 -94 -63 -38 
-27 -8 -36 -17 81 
93 -52 67 97 -2 
116 -88 121 10 90 
44 -81 -87 109 123 

-111 -111 22 29 -29 
118 -95 -72 6 62 
-102 62 -57 -77 -92 
-116 33 81 56 -122 
107 20 -14 120 30 

114 59 -89 78 -22 
122 -77 72 34 57 
-56 44 67 3 27 
52 0 100 43 -65 
-12 -104 124 -94 14 

9 27 -1 -68 -80 
-76 38 61 86 -79 
-96 8 -20 -15 -80 
-44 -114 -16 88 10 
32 -125 -39 36 5 

-86 114 0 95 13 
-61 -2 -96 56 -74 
-21 49 -72 29 12 
-112 53 -6 -120 -71 
-2 57 -15 -20 -38 

32 66 -58 -11 113 
-98 -79 44 -6 -105 
30 -16 113 37 -3 
-48 63 -36 -13 25 
-64 58 -50 -20 68 

-126 30 -44 47 -34 
75 47 62 -58 -13 
-41 -76 80 -78 -94 
120 -107 43 59 58 
84 -70 73 -88 91 

57 -79 -123 -117 -12 
-93 31 -100 8 -50 
106 -101 -58 -106 41 
61 43 63 63 -44 
-80 -25 -80 28 -123 


-17 35 -94 -63 -38 
-27 -8 -36 -17 81 
93 -52 67 97 -2 
116 -88 121 10 90 
44 -81 -87 109 123 

-111 -111 22 29 -29 
118 -95 -72 6 62 
-102 62 -57 -77 -92 
-116 33 81 56 -122 
107 20 -14 120 30 

114 59 -89 78 -22 
122 -77 72 34 57 
-56 44 67 3 27 
52 0 100 43 -65 
-12 -104 124 -94 14 

9 27 -1 -68 -80 
-76 38 61 86 -79 
-96 8 -20 -15 -80 
-44 -114 -16 88 10 
32 -125 -39 36 5 

-86 114 0 95 13 
-61 -2 -96 56 -74 
-21 49 -72 29 12 
-112 53 -6 -120 -71 
-2 57 -15 -20 -38 

32 66 -58 -11 113 
-98 -79 44 -6 -105 
30 -16 113 37 -3 
-48 63 -36 -13 25 
-64 58 -50 -20 68 

-126 30 -44 47 -34 
75 47 62 -58 -13 
-41 -76 80 -78 -94 
120 -107 43 59 58 
84 -70 73 -88 91 

57 -79 -123 -117 -12 
-93 31 -100 8 -50 
106 -101 -58 -106 41 
61 43 63 63 -44 
-80 -25 -80 28 -123 


-17 35 -94 -63 -38 
-27 -8 -36 -17 81 
93 -52 67 97 -2 
116 -88 121 10 90 
44 -81 -87 109 123 

-111 -111 22 29 -29 
118 -95 -72 6 62 
-102 62 -57 -77 -92 
-116 33 81 56 -122 
107 20 -14 120 30 

114 59 -89 78 -22 
122 -77 72 34 57 
-56 44 67 3 27 
52 0 100 43 -65 
-12 -104 124 -94 14 

9 27 -1 -68 -80 
-76 38 61 86 -79 
-96 8 -20 -15 -80 
-44 -114 -16 88 10 
32 -125 -39 36 5 

-86 114 0 95 13 
-61 -2 -96 56 -74 
-21 49 -72 29 12 
-112 53 -6 -120 -71 
-2 57 -15 -20 -38 

32 66 -58 -11 113 
-98 -79 44 -6 -105 
30 -16 113 37 -3 
-48 63 -36 -13 25 
-64 58 -50 -20 68 

-126 30 -44 47 -34 
75 47 62 -58 -13 
-41 -76 80 -78 -94 
120 -107 43 59 58 
84 -70 73 -88 91 

57 -79 -123 -117 -12 
-93 31 -100 8 -50 
106 -101 -58 -106 41 
61 43 63 63 -44 
-80 -25 -80 28 -123 



-17 35 -94 -63 -38 
-27 -8 -36 -17 81 
93 -52 67 97 -2 
116 -88 121 10 90 
44 -81 -87 109 123 

-111 -111 22 29 -29 
118 -95 -72 6 62 
-102 62 -57 -77 -92 
-116 33 81 56 -122 
107 20 -14 120 30 

114 59 -89 78 -22 
122 -77 72 34 57 
-56 44 67 3 27 
52 0 100 43 -65 
-12 -104 124 -94 14 

9 27 -1 -68 -80 
-76 38 61 86 -79 
-96 8 -20 -15 -80 
-44 -114 -16 88 10 
32 -125 -39 36 5 

-86 114 0 95 13 
-61 -2 -96 56 -74 
-21 49 -72 29 12 
-112 53 -6 -120 -71 
-2 57 -15 -20 -38 

32 66 -58 -11 113 
-98 -79 44 -6 -105 
30 -16 113 37 -3 
-48 63 -36 -13 25 
-64 58 -50 -20 68 

-126 30 -44 47 -34 
75 47 62 -58 -13 
-41 -76 80 -78 -94 
120 -107 43 59 58 
84 -70 73 -88 91 

57 -79 -123 -117 -12 
-93 31 -100 8 -50 
106 -101 -58 -106 41 
61 43 63 63 -44 
-80 -25 -80 28 -123 


-17 35 -94 -63 -38 
-27 -8 -36 -17 81 
93 -52 67 97 -2 
116 -88 121 10 90 
44 -81 -87 109 123 

-111 -111 22 29 -29 
118 -95 -72 6 62 
-102 62 -57 -77 -92 
-116 33 81 56 -122 
107 20 -14 120 30 

114 59 -89 78 -22 
122 -77 72 34 57 
-56 44 67 3 27 
52 0 100 43 -65 
-12 -104 124 -94 14 

9 27 -1 -68 -80 
-76 38 61 86 -79 
-96 8 -20 -15 -80 
-44 -114 -16 88 10 
32 -125 -39 36 5 

-86 114 0 95 13 
-61 -2 -96 56 -74 
-21 49 -72 29 12 
-112 53 -6 -120 -71 
-2 57 -15 -20 -38 

32 66 -58 -11 113 
-98 -79 44 -6 -105 
30 -16 113 37 -3 
-48 63 -36 -13 25 
-64 58 -50 -20 68 

-126 30 -44 47 -34 
75 47 62 -58 -13 
-41 -76 80 -78 -94 
120 -107 43 59 58 
84 -70 73 -88 91 

57 -79 -123 -117 -12 
-93 31 -100 8 -50 
106 -101 -58 -106 41 
61 43 63 63 -44 
-80 -25 -80 28 -123 


-17 35 -94 -63 -38 
-27 -8 -36 -17 81 
93 -52 67 97 -2 
116 -88 121 10 90 
44 -81 -87 109 123 

-111 -111 22 29 -29 
118 -95 -72 6 62 
-102 62 -57 -77 -92 
-116 33 81 56 -122 
107 20 -14 120 30 

114 59 -89 78 -22 
122 -77 72 34 57 
-56 44 67 3 27 
52 0 100 43 -65 
-12 -104 124 -94 14 

9 27 -1 -68 -80 
-76 38 61 86 -79 
-96 8 -20 -15 -80 
-44 -114 -16 88 10 
32 -125 -39 36 5 

-86 114 0 95 13 
-61 -2 -96 56 -74 
-21 49 -72 29 12 
-112 53 -6 -120 -71 
-2 57 -15 -20 -38 

32 66 -58 -11 113 
-98 -79 44 -6 -105 
30 -16 113 37 -3 
-48 63 -36 -13 25 
-64 58 -50 -20 68 

-126 30 -44 47 -34 
75 47 62 -58 -13 
-41 -76 80 -78 -94 
120 -107 43 59 58 
84 -70 73 -88 91 

57 -79 -123 -117 -12 
-93 31 -100 8 -50 
106 -101 -58 -106 41 
61 43 63 63 -44 
-80 -25 -80 28 -123 


-17 35 -94 -63 -38 
-27 -8 -36 -17 81 
93 -52 67 97 -2 
116 -88 121 10 90 
44 -81 -87 109 123 

-111 -111 22 29 -29 
118 -95 -72 6 62 
-102 62 -57 -77 -92 
-116 33 81 56 -122 
107 20 -14 120 30 

114 59 -89 78 -22 
122 -77 72 34 57 
-56 44 67 3 27 
52 0 100 43 -65 
-12 -104 124 -94 14 

9 27 -1 -68 -80 
-76 38 61 86 -79 
-96 8 -20 -15 -80 
-44 -114 -16 88 10 
32 -125 -39 36 5 

-86 114 0 95 13 
-61 -2 -96 56 -74 
-21 49 -72 29 12 
-112 53 -6 -120 -71 
-2 57 -15 -20 -38 

32 66 -58 -11 113 
-98 -79 44 -6 -105 
30 -16 113 37 -3 
-48 63 -36 -13 25 
-64 58 -50 -20 68 

-126 30 -44 47 -34 
75 47 62 -58 -13 
-41 -76 80 -78 -94 
120 -107 43 59 58 
84 -70 73 -88 91 

57 -79 -123 -117 -12 
-93 31 -100 8 -50 
106 -101 -58 -106 41 
61 43 63 63 -44 
-80 -25 -80 28 -123 



-17 35 -94 -63 -38 
-27 -8 -36 -17 81 
93 -52 67 97 -2 
116 -88 121 10 90 
44 -81 -87 109 123 

-111 -111 22 29 -29 
118 -95 -72 6 62 
-102 62 -57 -77 -92 
-116 33 81 56 -122 
107 20 -14 120 30 

114 59 -89 78 -22 
122 -77 72 34 57 
-56 44 67 3 27 
52 0 100 43 -65 
-12 -104 124 -94 14 

9 27 -1 -68 -80 
-76 38 61 86 -79 
-96 8 -20 -15 -80 
-44 -114 -16 88 10 
32 -125 -39 36 5 

-86 114 0 95 13 
-61 -2 -96 56 -74 
-21 49 -72 29 12 
-112 53 -6 -120 -71 
-2 57 -15 -20 -38 

32 66 -58 -11 113 
-98 -79 44 -6 -105 
30 -16 113 37 -3 
-48 63 -36 -13 25 
-64 58 -50 -20 68 

-126 30 -44 47 -34 
75 47 62 -58 -13 
-41 -76 80 -78 -94 
120 -107 43 59 58 
84 -70 73 -88 91 

57 -79 -123 -117 -12 
-93 31 -100 8 -50 
106 -101 -58 -106 41 
61 43 63 63 -44 
-80 -25 -80 28 -123 


-17 35 -94 -63 -38 
-27 -8 -36 -17 81 
93 -52 67 97 -2 
116 -88 121 10 90 
44 -81 -87 109 123 

-111 -111 22 29 -29 
118 -95 -72 6 62 
-102 62 -57 -77 -92 
-116 33 81 56 -122 
107 20 -14 120 30 

114 59 -89 78 -22 
122 -77 72 34 57 
-56 44 67 3 27 
52 0 100 43 -65 
-12 -104 124 -94 14 

9 27 -1 -68 -80 
-76 38 61 86 -79 
-96 8 -20 -15 -80 
-44 -114 -16 88 10 
32 -125 -39 36 5 

-86 114 0 95 13 
-61 -2 -96 56 -74 
-21 49 -72 29 12 
-112 53 -6 -120 -71 
-2 57 -15 -20 -38 

32 66 -58 -11 113 
-98 -79 44 -6 -105 
30 -16 113 37 -3 
-48 63 -36 -13 25 
-64 58 -50 -20 68 

-126 30 -44 47 -34 
75 47 62 -58 -13 
-41 -76 80 -78 -94 
120 -107 43 59 58 
84 -70 73 -88 91 

57 -79 -123 -117 -12 
-93 31 -100 8 -50 
106 -101 -58 -106 41 
61 43 63 63 -44 
-80 -25 -80 28 -123 


-17 35 -94 -63 -38 
-27 -8 -36 -17 81 
93 -52 67 97 -2 
116 -88 121 10 90 
44 -81 -87 109 123 

-111 -111 22 29 -29 
118 -95 -72 6 62 
-102 62 -57 -77 -92 
-116 33 81 56 -122 
107 20 -14 120 30 

114 59 -89 78 -22 
122 -77 72 34 57 
-56 44 67 3 27 
52 0 100 43 -65 
-12 -104 124 -94 14 

9 27 -1 -68 -80 
-76 38 61 86 -79 
-96 8 -20 -15 -80 
-44 -114 -16 88 10 
32 -125 -39 36 5 

-86 114 0 95 13 
-61 -2 -96 56 -74 
-21 49 -72 29 12 
-112 53 -6 -120 -71 
-2 57 -15 -20 -38 

32 66 -58 -11 113 
-98 -79 44 -6 -105 
30 -16 113 37 -3 
-48 63 -36 -13 25 
-64 58 -50 -20 68 

-126 30 -44 47 -34 
75 47 62 -58 -13 
-41 -76 80 -78 -94 
120 -107 43 59 58 
84 -70 73 -88 91 

57 -79 -123 -117 -12 
-93 31 -100 8 -50 
106 -101 -58 -106 41 
61 43 63 63 -44 
-80 -25 -80 28 -123 


-17 35 -94 -63 -38 
-27 -8 -36 -17 81 
93 -52 67 97 -2 
116 -88 121 10 90 
44 -81 -87 109 123 

-111 -111 22 29 -29 
118 -95 -72 6 62 
-102 62 -57 -77 -92 
-116 33 81 56 -122 
107 20 -14 120 30 

114 59 -89 78 -22 
122 -77 72 34 57 
-56 44 67 3 27 
52 0 100 43 -65 
-12 -104 124 -94 14 

9 27 -1 -68 -80 
-76 38 61 86 -79 
-96 8 -20 -15 -80 
-44 -114 -16 88 10 
32 -125 -39 36 5 

-86 114 0 95 13 
-61 -2 -96 56 -74 
-21 49 -72 29 12 
-112 53 -6 -120 -71 
-2 57 -15 -20 -38 

32 66 -58 -11 113 
-98 -79 44 -6 -105 
30 -16 113 37 -3 
-48 63 -36 -13 25 
-64 58 -50 -20 68 

-126 30 -44 47 -34 
75 47 62 -58 -13 
-41 -76 80 -78 -94 
120 -107 43 59 58 
84 -70 73 -88 91 

57 -79 -123 -117 -12 
-93 31 -100 8 -50 
106 -101 -58 -106 41 
61 43 63 63 -44 
-80 -25 -80 28 -123 



-17 35 -94 -63 -38 
-27 -8 -36 -17 81 
93 -52 67 97 -2 
116 -88 121 10 90 
44 -81 -87 109 123 

-111 -111 22 29 -29 
118 -95 -72 6 62 
-102 62 -57 -77 -92 
-116 33 81 56 -122 
107 20 -14 120 30 

114 59 -89 78 -22 
122 -77 72 34 57 
-56 44 67 3 27 
52 0 100 43 -65 
-12 -104 124 -94 14 

9 27 -1 -68 -80 
-76 38 61 86 -79 
-96 8 -20 -15 -80 
-44 -114 -16 88 10 
32 -125 -39 36 5 

-86 114 0 95 13 
-61 -2 -96 56 -74 
-21 49 -72 29 12 
-112 53 -6 -120 -71 
-2 57 -15 -20 -38 

32 66 -58 -11 113 
-98 -79 44 -6 -105 
30 -16 113 37 -3 
-48 63 -36 -13 25 
-64 58 -50 -20 68 

-126 30 -44 47 -34 
75 47 62 -58 -13 
-41 -76 80 -78 -94 
120 -107 43 59 58 
84 -70 73 -88 91 

57 -79 -123 -117 -12 
-93 31 -100 8 -50 
106 -101 -58 -106 41 
61 43 63 63 -44 
-80 -25 -80 28 -123 


-17 35 -94 -63 -38 
-27 -8 -36 -17 81 
93 -52 67 97 -2 
116 -88 121 10 90 
44 -81 -87 109 123 

-111 -111 22 29 -29 
118 -95 -72 6 62 
-102 62 -57 -77 -92 
-116 33 81 56 -122 
107 20 -14 120 30 

114 59 -89 78 -22 
122 -77 72 34 57 
-56 44 67 3 27 
52 0 100 43 -65 
-12 -104 124 -94 14 

9 27 -1 -68 -80 
-76 38 61 86 -79 
-96 8 -20 -15 -80 
-44 -114 -16 88 10 
32 -125 -39 36 5 

-86 114 0 95 13 
-61 -2 -96 56 -74 
-21 49 -72 29 12 
-112 53 -6 -120 -71 
-2 57 -15 -20 -38 

32 66 -58 -11 113 
-98 -79 44 -6 -105 
30 -16 113 37 -3 
-48 63 -36 -13 25 
-64 58 -50 -20 68 

-126 30 -44 47 -34 
75 47 62 -58 -13 
-41 -76 80 -78 -94 
120 -107 43 59 58 
84 -70 73 -88 91 

57 -79 -123 -117 -12 
-93 31 -100 8 -50 
106 -101 -58 -106 41 
61 43 63 63 -44 
-80 -25 -80 28 -123 


-17 35 -94 -63 -38 
-27 -8 -36 -17 81 
93 -52 67 97 -2 
116 -88 121 10 90 
44 -81 -87 109 123 

-111 -111 22 29 -29 
118 -95 -72 6 62 
-102 62 -57 -77 -92 
-116 33 81 56 -122 
107 20 -14 120 30 

114 59 -89 78 -22 
122 -77 72 34 57 
-56 44 67 3 27 
52 0 100 43 -65 
-12 -104 124 -94 14 

9 27 -1 -68 -80 
-76 38 61 86 -79 
-96 8 -20 -15 -80 
-44 -114 -16 88 10 
32 -125 -39 36 5 

-86 114 0 95 13 
-61 -2 -96 56 -74 
-21 49 -72 29 12 
-112 53 -6 -120 -71 
-2 57 -15 -20 -38 

32 66 -58 -11 113 
-98 -79 44 -6 -105 
30 -16 113 37 -3 
-48 63 -36 -13 25 
-64 58 -50 -20 68 

-126 30 -44 47 -34 
75 47 62 -58 -13 
-41 -76 80 -78 -94 
120 -107 43 59 58 
84 -70 73 -88 91 

57 -79 -123 -117 -12 
-93 31 -100 8 -50 
106 -101 -58 -106 41 
61 43 63 63 -44 
-80 -25 -80 28 -123 


-17 35 -94 -63 -38 
-27 -8 -36 -17 81 
93 -52 67 97 -2 
116 -88 121 10 90 
44 -81 -87 109 123 

-111 -111 22 29 -29 
118 -95 -72 6 62 
-102 62 -57 -77 -92 
-116 33 81 56 -122 
107 20 -14 120 30 

114 59 -89 78 -22 
122 -77 72 34 57 
-56 44 67 3 27 
52 0 100 43 -65 
-12 -104 124 -94 14 

9 27 -1 -68 -80 
-76 38 61 86 -79 
-96 8 -20 -15 -80 
-44 -114 -16 88 10 
32 -125 -39 36 5 

-86 114 0 95 13 
-61 -2 -96 56 -74 
-21 49 -72 29 12 
-112 53 -6 -120 -71 
-2 57 -15 -20 -38 

32 66 -58 -11 113 
-98 -79 44 -6 -105 
30 -16 113 37 -3 
-48 63 -36 -13 25 
-64 58 -50 -20 68 

-126 30 -44 47 -34 
75 47 62 -58 -13 
-41 -76 80 -78 -94 
120 -107 43 59 58 
84 -70 73 -88 91 

57 -79 -123 -117 -12 
-93 31 -100 8 -50 
106 -101 -58 -106 41 
61 43 63 63 -44 
-80 -25 -80 28 -123 



-17 35 -94 -63 -38 
-27 -8 -36 -17 81 
93 -52 67 97 -2 
116 -88 121 10 90 
44 -81 -87 109 123 

-111 -111 22 29 -29 
118 -95 -72 6 62 
-102 62 -57 -77 -92 
-116 33 81 56 -122 
107 20 -14 120 30 

114 59 -89 78 -22 
122 -77 72 34 57 
-56 44 67 3 27 
52 0 100 43 -65 
-12 -104 124 -94 14 

9 27 -1 -68 -80 
-76 38 61 86 -79 
-96 8 -20 -15 -80 
-44 -114 -16 88 10 
32 -125 -39 36 5 

-86 114 0 95 13 
-61 -2 -96 56 -74 
-21 49 -72 29 12 
-112 53 -6 -120 -71 
-2 57 -15 -20 -38 

32 66 -58 -11 113 
-98 -79 44 -6 -105 
30 -16 113 37 -3 
-48 63 -36 -13 25 
-64 58 -50 -20 68 

-126 30 -44 47 -34 
75 47 62 -58 -13 
-41 -76 80 -78 -94 
120 -107 43 59 58 
84 -70 73 -88 91 

57 -79 -123 -117 -12 
-93 31 -100 8 -50 
106 -101 -58 -106 41 
61 43 63 63 -44 
-80 -25 -80 28 -123 


-17 35 -94 -63 -38 
-27 -8 -36 -17 81 
93 -52 67 97 -2 
116 -88 121 10 90 
44 -81 -87 109 123 

-111 -111 22 29 -29 
118 -95 -72 6 62 
-102 62 -57 -77 -92 
-116 33 81 56 -122 
107 20 -14 120 30 

114 59 -89 78 -22 
122 -77 72 34 57 
-56 44 67 3 27 
52 0 100 43 -65 
-12 -104 124 -94 14 

9 27 -1 -68 -80 
-76 38 61 86 -79 
-96 8 -20 -15 -80 
-44 -114 -16 88 10 
32 -125 -39 36 5 

-86 114 0 95 13 
-61 -2 -96 56 -74 
-21 49 -72 29 12 
-112 53 -6 -120 -71 
-2 57 -15 -20 -38 

32 66 -58 -11 113 
-98 -79 44 -6 -105 
30 -16 113 37 -3 
-48 63 -36 -13 25 
-64 58 -50 -20 68 

-126 30 -44 47 -34 
75 47 62 -58 -13 
-41 -76 80 -78 -94 
120 -107 43 59 58 
84 -70 73 -88 91 

57 -79 -123 -117 -12 
-93 31 -100 8 -50 
106 -101 -58 -106 41 
61 43 63 63 -44 
-80 -25 -80 28 -123 


-17 35 -94 -63 -38 
-27 -8 -36 -17 81 
93 -52 67 97 -2 
116 -88 121 10 90 
44 -81 -87 109 123 

-111 -111 22 29 -29 
118 -95 -72 6 62 
-102 62 -57 -77 -92 
-116 33 81 56 -122 
107 20 -14 120 30 

114 59 -89 78 -22 
122 -77 72 34 57 
-56 44 67 3 27 
52 0 100 43 -65 
-12 -104 124 -94 14 

9 27 -1 -68 -80 
-76 38 61 86 -79 
-96 8 -20 -15 -80 
-44 -114 -16 88 10 
32 -125 -39 36 5 

-86 114 0 95 13 
-61 -2 -96 56 -74 
-21 49 -72 29 12 
-112 53 -6 -120 -71 
-2 57 -15 -20 -38 

32 66 -58 -11 113 
-98 -79 44 -6 -105 
30 -16 113 37 -3 
-48 63 -36 -13 25 
-64 58 -50 -20 68 

-126 30 -44 47 -34 
75 47 62 -58 -13 
-41 -76 80 -78 -94 
120 -107 43 59 58 
84 -70 73 -88 91 

57 -79 -123 -117 -12 
-93 31 -100 8 -50 
106 -101 -58 -106 41 
61 43 63 63 -44 
-80 -25 -80 28 -123 


-17 35 -94 -63 -38 
-27 -8 -36 -17 81 
93 -52 67 97 -2 
116 -88 121 10 90 
44 -81 -87 109 123 

-111 -111 22 29 -29 
118 -95 -72 6 62 
-102 62 -57 -77 -92 
-116 33 81 56 -122 
107 20 -14 120 30 

114 59 -89 78 -22 
122 -77 72 34 57 
-56 44 67 3 27 
52 0 100 43 -65 
-12 -104 124 -94 14 

9 27 -1 -68 -80 
-76 38 61 86 -79 
-96 8 -20 -15 -80 
-44 -114 -16 88 10 
32 -125 -39 36 5 

-86 114 0 95 13 
-61 -2 -96 56 -74 
-21 49 -72 29 12 
-112 53 -6 -120 -71 
-2 57 -15 -20 -38 

32 66 -58 -11 113 
-98 -79 44 -6 -105 
30 -16 113 37 -3 
-48 63 -36 -13 25 
-64 58 -50 -20 68 

-126 30 -44 47 -34 
75 47 62 -58 -13 
-41 -76 80 -78 -94 
120 -107 43 59 58 
84 -70 73 -88 91 

57 -79 -123 -117 -12 
-93 31 -100 8 -50 
106 -101 -58 -106 41 
61 43 63 63 -44 
-80 -25 -80 28 -123 



-17 35 -94 -63 -38 
-27 -8 -36 -17 81 
93 -52 67 97 -2 
116 -88 121 10 90 
44 -81 -87 109 123 

-111 -111 22 29 -29 
118 -95 -72 6 62 
-102 62 -57 -77 -92 
-116 33 81 56 -122 
107 20 -14 120 30 

114 59 -89 78 -22 
122 -77 72 34 57 
-56 44 67 3 27 
52 0 100 43 -65 
-12 -104 124 -94 14 

9 27 -1 -68 -80 
-76 38 61 86 -79 
-96 8 -20 -15 -80 
-44 -114 -16 88 10 
32 -125 -39 36 5 

-86 114 0 95 13 
-61 -2 -96 56 -74 
-21 49 -72 29 12 
-112 53 -6 -120 -71 
-2 57 -15 -20 -38 

32 66 -58 -11 113 
-98 -79 44 -6 -105 
30 -16 113 37 -3 
-48 63 -36 -13 25 
-64 58 -50 -20 68 

-126 30 -44 47 -34 
75 47 62 -58 -13 
-41 -76 80 -78 -94 
120 -107 43 59 58 
84 -70 73 -88 91 

57 -79 -123 -117 -12 
-93 31 -100 8 -50 
106 -101 -58 -106 41 
61 43 63 63 -44 
-80 -25 -80 28 -123 


-17 35 -94 -63 -38 
-27 -8 -36 -17 81 
93 -52 67 97 -2 
116 -88 121 10 90 
44 -81 -87 109 123 

-111 -111 22 29 -29 
118 -95 -72 6 62 
-102 62 -57 -77 -92 
-116 33 81 56 -122 
107 20 -14 120 30 

114 59 -89 78 -22 
122 -77 72 34 57 
-56 44 67 3 27 
52 0 100 43 -65 
-12 -104 124 -94 14 

9 27 -1 -68 -80 
-76 38 61 86 -79 
-96 8 -20 -15 -80 
-44 -114 -16 88 10 
32 -125 -39 36 5 

-86 114 0 95 13 
-61 -2 -96 56 -74 
-21 49 -72 29 12 
-112 53 -6 -120 -71 
-2 57 -15 -20 -38 

32 66 -58 -11 113 
-98 -79 44 -6 -105 
30 -16 113 37 -3 
-48 63 -36 -13 25 
-64 58 -50 -20 68 

-126 30 -44 47 -34 
75 47 62 -58 -13 
-41 -76 80 -78 -94 
120 -107 43 59 58 
84 -70 73 -88 91 

57 -79 -123 -117 -12 
-93 31 -100 8 -50 
106 -101 -58 -106 41 
61 43 63 63 -44 
-80 -25 -80 28 -123 


-17 35 -94 -63 -38 
-27 -8 -36 -17 81 
93 -52 67 97 -2 
116 -88 121 10 90 
44 -81 -87 109 123 

-111 -111 22 29 -29 
118 -95 -72 6 62 
-102 62 -57 -77 -92 
-116 33 81 56 -122 
107 20 -14 120 30 

114 59 -89 78 -22 
122 -77 72 34 57 
-56 44 67 3 27 
52 0 100 43 -65 
-12 -104 124 -94 14 

9 27 -1 -68 -80 
-76 38 61 86 -79 
-96 8 -20 -15 -80 
-44 -114 -16 88 10 
32 -125 -39 36 5 

-86 114 0 95 13 
-61 -2 -96 56 -74 
-21 49 -72 29 12 
-112 53 -6 -120 -71 
-2 57 -15 -20 -38 

32 66 -58 -11 113 
-98 -79 44 -6 -105 
30 -16 113 37 -3 
-48 63 -36 -13 25 
-64 58 -50 -20 68 

-126 30 -44 47 -34 
75 47 62 -58 -13 
-41 -76 80 -78 -94 
120 -107 43 59 58 
84 -70 73 -88 91 

57 -79 -123 -117 -12 
-93 31 -100 8 -50 
106 -101 -58 -106 41 
61 43 63 63 -44 
-80 -25 -80 28 -123 


-17 35 -94 -63 -38 
-27 -8 -36 -17 81 
93 -52 67 97 -2 
116 -88 121 10 90 
44 -81 -87 109 123 

-111 -111 22 29 -29 
118 -95 -72 6 62 
-102 62 -57 -77 -92 
-116 33 81 56 -122 
107 20 -14 120 30 

114 59 -89 78 -22 
122 -77 72 34 57 
-56 44 67 3 27 
52 0 100 43 -65 
-12 -104 124 -94 14 

9 27 -1 -68 -80 
-76 38 61 86 -79 
-96 8 -20 -15 -80 
-44 -114 -16 88 10 
32 -125 -39 36 5 

-86 114 0 95 13 
-61 -2 -96 56 -74 
-21 49 -72 29 12 
-112 53 -6 -120 -71 
-2 57 -15 -20 -38 

32 66 -58 -11 113 
-98 -79 44 -6 -105 
30 -16 113 37 -3 
-48 63 -36 -13 25 
-64 58 -50 -20 68 

-126 30 -44 47 -34 
75 47 62 -58 -13 
-41 -76 80 -78 -94 
120 -107 43 59 58 
84 -70 73 -88 91 

57 -79 -123 -117 -12 
-93 31 -100 8 -50 
106 -101 -58 -106 41 
61 43 63 63 -44 
-80 -25 -80 28 -123 



-17 35 -94 -63 -38 
-27 -8 -36 -17 81 
93 -52 67 97 -2 
116 -88 121 10 90 
44 -81 -87 109 123 

-111 -111 22 29 -29 
118 -95 -72 6 62 
-102 62 -57 -77 -92 
-116 33 81 56 -122 
107 20 -14 120 30 

114 59 -89 78 -22 
122 -77 72 34 57 
-56 44 67 3 27 
52 0 100 43 -65 
-12 -104 124 -94 14 

9 27 -1 -68 -80 
-76 38 61 86 -79 
-96 8 -20 -15 -80 
-44 -114 -16 88 10 
32 -125 -39 36 5 

-86 114 0 95 13 
-61 -2 -96 56 -74 
-21 49 -72 29 12 
-112 53 -6 -120 -71 
-2 57 -15 -20 -38 

32 66 -58 -11 113 
-98 -79 44 -6 -105 
30 -16 113 37 -3 
-48 63 -36 -13 25 
-64 58 -50 -20 68 

-126 30 -44 47 -34 
75 47 62 -58 -13 
-41 -76 80 -78 -94 
120 -107 43 59 58 
84 -70 73 -88 91 

57 -79 -123 -117 -12 
-93 31 -100 8 -50 
106 -101 -58 -106 41 
61 43 63 63 -44 
-80 -25 -80 28 -123 


-17 35 -94 -63 -38 
-27 -8 -36 -17 81 
93 -52 67 97 -2 
116 -88 121 10 90 
44 -81 -87 109 123 

-111 -111 22 29 -29 
118 -95 -72 6 62 
-102 62 -57 -77 -92 
-116 33 81 56 -122 
107 20 -14 120 30 

114 59 -89 78 -22 
122 -77 72 34 57 
-56 44 67 3 27 
52 0 100 43 -65 
-12 -104 124 -94 14 

9 27 -1 -68 -80 
-76 38 61 86 -79 
-96 8 -20 -15 -80 
-44 -114 -16 88 10 
32 -125 -39 36 5 

-86 114 0 95 13 
-61 -2 -96 56 -74 
-21 49 -72 29 12 
-112 53 -6 -120 -71 
-2 57 -15 -20 -38 

32 66 -58 -11 113 
-98 -79 44 -6 -105 
30 -16 113 37 -3 
-48 63 -36 -13 25 
-64 58 -50 -20 68 

-126 30 -44 47 -34 
75 47 62 -58 -13 
-41 -76 80 -78 -94 
120 -107 43 59 58 
84 -70 73 -88 91 

57 -79 -123 -117 -12 
-93 31 -100 8 -50 
106 -101 -58 -106 41 
61 43 63 63 -44 
-80 -25 -80 28 -123 


-17 35 -94 -63 -38 
-27 -8 -36 -17 81 
93 -52 67 97 -2 
116 -88 121 10 90 
44 -81 -87 109 123 

-111 -111 22 29 -29 
118 -95 -72 6 62 
-102 62 -57 -77 -92 
-116 33 81 56 -122 
107 20 -14 120 30 

114 59 -89 78 -22 
122 -77 72 34 57 
-56 44 67 3 27 
52 0 100 43 -65 
-12 -104 124 -94 14 

9 27 -1 -68 -80 
-76 38 61 86 -79 
-96 8 -20 -15 -80 
-44 -114 -16 88 10 
32 -125 -39 36 5 

-86 114 0 95 13 
-61 -2 -96 56 -74 
-21 49 -72 29 12 
-112 53 -6 -120 -71 
-2 57 -15 -20 -38 

32 66 -58 -11 113 
-98 -79 44 -6 -105 
30 -16 113 37 -3 
-48 63 -36 -13 25 
-64 58 -50 -20 68 

-126 30 -44 47 -34 
75 47 62 -58 -13 
-41 -76 80 -78 -94 
120 -107 43 59 58 
84 -70 73 -88 91 

57 -79 -123 -117 -12 
-93 31 -100 8 -50 
106 -101 -58 -106 41 
61 43 63 63 -44 
-80 -25 -80 28 -123 


-17 35 -94 -63 -38 
-27 -8 -36 -17 81 
93 -52 67 97 -2 
116 -88 121 10 90 
44 -81 -87 109 123 

-111 -111 22 29 -29 
118 -95 -72 6 62 
-102 62 -57 -77 -92 
-116 33 81 56 -122 
107 20 -14 120 30 

114 59 -89 78 -22 
122 -77 72 34 57 
-56 44 67 3 27 
52 0 100 43 -65 
-12 -104 124 -94 14 

9 27 -1 -68 -80 
-76 38 61 86 -79 
-96 8 -20 -15 -80 
-44 -114 -16 88 10 
32 -125 -39 36 5 

-86 114 0 95 13 
-61 -2 -96 56 -74 
-21 49 -72 29 12 
-112 53 -6 -120 -71 
-2 57 -15 -20 -38 

32 66 -58 -11 113 
-98 -79 44 -6 -105 
30 -16 113 37 -3 
-48 63 -36 -13 25 
-64 58 -50 -20 68 

-126 30 -44 47 -34 
75 47 62 -58 -13 
-41 -76 80 -78 -94 
120 -107 43 59 58 
84 -70 73 -88 91 

57 -79 -123 -117 -12 
-93 31 -100 8 -50 
106 -101 -58 -106 41 
61 43 63 63 -44 
-80 -25 -80 28 -123 



-17 35 -94 -63 -38 
-27 -8 -36 -17 81 
93 -52 67 97 -2 
116 -88 121 10 90 
44 -81 -87 109 123 

-111 -111 22 29 -29 
118 -95 -72 6 62 
-102 62 -57 -77 -92 
-116 33 81 56 -122 
107 20 -14 120 30 

114 59 -89 78 -22 
122 -77 72 34 57 
-56 44 67 3 27 
52 0 100 43 -65 
-12 -104 124 -94 14 

9 27 -1 -68 -80 
-76 38 61 86 -79 
-96 8 -20 -15 -80 
-44 -114 -16 88 10 
32 -125 -39 36 5 

-86 114 0 95 13 
-61 -2 -96 56 -74 
-21 49 -72 29 12 
-112 53 -6 -120 -71 
-2 57 -15 -20 -38 

32 66 -58 -11 113 
-98 -79 44 -6 -105 
30 -16 113 37 -3 
-48 63 -36 -13 25 
-64 58 -50 -20 68 

-126 30 -44 47 -34 
75 47 62 -58 -13 
-41 -76 80 -78 -94 
120 -107 43 59 58 
84 -70 73 -88 91 

57 -79 -123 -117 -12 
-93 31 -100 8 -50 
106 -101 -58 -106 41 
61 43 63 63 -44 
-80 -25 -80 28 -123 


-17 35 -94 -63 -38 
-27 -8 -36 -17 81 
93 -52 67 97 -2 
116 -88 121 10 90 
44 -81 -87 109 123 

-111 -111 22 29 -29 
118 -95 -72 6 62 
-102 62 -57 -77 -92 
-116 33 81 56 -122 
107 20 -14 120 30 

114 59 -89 78 -22 
122 -77 72 34 57 
-56 44 67 3 27 
52 0 100 43 -65 
-12 -104 124 -94 14 

9 27 -1 -68 -80 
-76 38 61 86 -79 
-96 8 -20 -15 -80 
-44 -114 -16 88 10 
32 -125 -39 36 5 

-86 114 0 95 13 
-61 -2 -96 56 -74 
-21 49 -72 29 12 
-112 53 -6 -120 -71 
-2 57 -15 -20 -38 

32 66 -58 -11 113 
-98 -79 44 -6 -105 
30 -16 113 37 -3 
-48 63 -36 -13 25 
-64 58 -50 -20 68 

-126 30 -44 47 -34 
75 47 62 -58 -13 
-41 -76 80 -78 -94 
120 -107 43 59 58 
84 -70 73 -88 91 

57 -79 -123 -117 -12 
-93 31 -100 8 -50 
106 -101 -58 -106 41 
61 43 63 63 -44 
-80 -25 -80 28 -123 


-17 35 -94 -63 -38 
-27 -8 -36 -17 81 
93 -52 67 97 -2 
116 -88 121 10 90 
44 -81 -87 109 123 

-111 -111 22 29 -29 
118 -95 -72 6 62 
-102 62 -57 -77 -92 
-116 33 81 56 -122 
107 20 -14 120 30 

114 59 -89 78 -22 
122 -77 72 34 57 
-56 44 67 3 27 
52 0 100 43 -65 
-12 -104 124 -94 14 

9 27 -1 -68 -80 
-76 38 61 86 -79 
-96 8 -20 -15 -80 
-44 -114 -16 88 10 
32 -125 -39 36 5 

-86 114 0 95 13 
-61 -2 -96 56 -74 
-21 49 -72 29 12 
-112 53 -6 -120 -71 
-2 57 -15 -20 -38 

32 66 -58 -11 113 
-98 -79 44 -6 -105 
30 -16 113 37 -3 
-48 63 -36 -13 25 
-64 58 -50 -20 68 

-126 30 -44 47 -34 
75 47 62 -58 -13 
-41 -76 80 -78 -94 
120 -107 43 59 58 
84 -70 73 -88 91 

57 -79 -123 -117 -12 
-93 31 -100 8 -50 
106 -101 -58 -106 41 
61 43 63 63 -44 
-80 -25 -80 28 -123 


-17 35 -94 -63 -38 
-27 -8 -36 -17 81 
93 -52 67 97 -2 
116 -88 121 10 90 
44 -81 -87 109 123 

-111 -111 22 29 -29 
118 -95 -72 6 62 
-102 62 -57 -77 -92 
-116 33 81 56 -122 
107 20 -14 120 30 

114 59 -89 78 -22 
122 -77 72 34 57 
-56 44 67 3 27 
52 0 100 43 -65 
-12 -104 124 -94 14 

9 27 -1 -68 -80 
-76 38 61 86 -79 
-96 8 -20 -15 -80 
-44 -114 -16 88 10 
32 -125 -39 36 5 

-86 114 0 95 13 
-61 -2 -96 56 -74 
-21 49 -72 29 12 
-112 53 -6 -120 -71 
-2 57 -15 -20 -38 

32 66 -58 -11 113 
-98 -79 44 -6 -105 
30 -16 113 37 -3 
-48 63 -36 -13 25 
-64 58 -50 -20 68 

-126 30 -44 47 -34 
75 47 62 -58 -13 
-41 -76 80 -78 -94 
120 -107 43 59 58 
84 -70 73 -88 91 

57 -79 -123 -117 -12 
-93 31 -100 8 -50 
106 -101 -58 -106 41 
61 43 63 63 -44 
-80 -25 -80 28 -123 



-17 35 -94 -63 -38 
-27 -8 -36 -17 81 
93 -52 67 97 -2 
116 -88 121 10 90 
44 -81 -87 109 123 

-111 -111 22 29 -29 
118 -95 -72 6 62 
-102 62 -57 -77 -92 
-116 33 81 56 -122 
107 20 -14 120 30 

114 59 -89 78 -22 
122 -77 72 34 57 
-56 44 67 3 27 
52 0 100 43 -65 
-12 -104 124 -94 14 

9 27 -1 -68 -80 
-76 38 61 86 -79 
-96 8 -20 -15 -80 
-44 -114 -16 88 10 
32 -125 -39 36 5 

-86 114 0 95 13 
-61 -2 -96 56 -74 
-21 49 -72 29 12 
-112 53 -6 -120 -71 
-2 57 -15 -20 -38 

32 66 -58 -11 113 
-98 -79 44 -6 -105 
30 -16 113 37 -3 
-48 63 -36 -13 25 
-64 58 -50 -20 68 

-126 30 -44 47 -34 
75 47 62 -58 -13 
-41 -76 80 -78 -94 
120 -107 43 59 58 
84 -70 73 -88 91 

57 -79 -123 -117 -12 
-93 31 -100 8 -50 
106 -101 -58 -106 41 
61 43 63 63 -44 
-80 -25 -80 28 -123 


-17 35 -94 -63 -38 
-27 -8 -36 -17 81 
93 -52 67 97 -2 
116 -88 121 10 90 
44 -81 -87 109 123 

-111 -111 22 29 -29 
118 -95 -72 6 62 
-102 62 -57 -77 -92 
-116 33 81 56 -122 
107 20 -14 120 30 

114 59 -89 78 -22 
122 -77 72 34 57 
-56 44 67 3 27 
52 0 100 43 -65 
-12 -104 124 -94 14 

9 27 -1 -68 -80 
-76 38 61 86 -79 
-96 8 -20 -15 -80 
-44 -114 -16 88 10 
32 -125 -39 36 5 

-86 114 0 95 13 
-61 -2 -96 56 -74 
-21 49 -72 29 12 
-112 53 -6 -120 -71 
-2 57 -15 -20 -38 

32 66 -58 -11 113 
-98 -79 44 -6 -105 
30 -16 113 37 -3 
-48 63 -36 -13 25 
-64 58 -50 -20 68 

-126 30 -44 47 -34 
75 47 62 -58 -13 
-41 -76 80 -78 -94 
120 -107 43 59 58 
84 -70 73 -88 91 

57 -79 -123 -117 -12 
-93 31 -100 8 -50 
106 -101 -58 -106 41 
61 43 63 63 -44 
-80 -25 -80 28 -123 


-17 35 -94 -63 -38 
-27 -8 -36 -17 81 
93 -52 67 97 -2 
116 -88 121 10 90 
44 -81 -87 109 123 

-111 -111 22 29 -29 
118 -95 -72 6 62 
-102 62 -57 -77 -92 
-116 33 81 56 -122 
107 20 -14 120 30 

114 59 -89 78 -22 
122 -77 72 34 57 
-56 44 67 3 27 
52 0 100 43 -65 
-12 -104 124 -94 14 

9 27 -1 -68 -80 
-76 38 61 86 -79 
-96 8 -20 -15 -80 
-44 -114 -16 88 10 
32 -125 -39 36 5 

-86 114 0 95 13 
-61 -2 -96 56 -74 
-21 49 -72 29 12 
-112 53 -6 -120 -71 
-2 57 -15 -20 -38 

32 66 -58 -11 113 
-98 -79 44 -6 -105 
30 -16 113 37 -3 
-48 63 -36 -13 25 
-64 58 -50 -20 68 

-126 30 -44 47 -34 
75 47 62 -58 -13 
-41 -76 80 -78 -94 
120 -107 43 59 58 
84 -70 73 -88 91 

57 -79 -123 -117 -12 
-93 31 -100 8 -50 
106 -101 -58 -106 41 
61 43 63 63 -44 
-80 -25 -80 28 -123 


-17 35 -94 -63 -38 
-27 -8 -36 -17 81 
93 -52 67 97 -2 
116 -88 121 10 90 
44 -81 -87 109 123 

-111 -111 22 29 -29 
118 -95 -72 6 62 
-102 62 -57 -77 -92 
-116 33 81 56 -122 
107 20 -14 120 30 

114 59 -89 78 -22 
122 -77 72 34 57 
-56 44 67 3 27 
52 0 100 43 -65 
-12 -104 124 -94 14 

9 27 -1 -68 -80 
-76 38 61 86 -79 
-96 8 -20 -15 -80 
-44 -114 -16 88 10 
32 -125 -39 36 5 

-86 114 0 95 13 
-61 -2 -96 56 -74 
-21 49 -72 29 12 
-112 53 -6 -120 -71 
-2 57 -15 -20 -38 

32 66 -58 -11 113 
-98 -79 44 -6 -105 
30 -16 113 37 -3 
-48 63 -36 -13 25 
-64 58 -50 -20 68 

-126 30 -44 47 -34 
75 47 62 -58 -13 
-41 -76 80 -78 -94 
120 -107 43 59 58 
84 -70 73 -88 91 

57 -79 -123 -117 -12 
-93 31 -100 8 -50 
106 -101 -58 -106 41 
61 43 63 63 -44 
-80 -25 -80 28 -123 




-25 76 88 -115 -97 
-40 76 -83 -93 107 
83 94 -87 115 -109 
125 19 -2 99 -115 
57 20 -121 -24 44 

62 72 46 40 -118 
72 83 -113 -64 88 
124 10 -51 -88 -30 
34 -10 109 54 -41 
-18 -118 93 60 -51 

25 -124 -36 -4 96 
22 -64 -115 -9 1 
27 -19 -77 61 10 
2 -52 -81 33 -122 
61 -124 32 66 34 

86 103 15 -106 42 
-90 -111 -18 -73 -47 
3 60 30 23 76 
-36 -46 13 16 33 
3 -23 87 123 109 

-68 66 -92 -84 -20 
99 -115 -40 18 83 
-51 50 67 -91 89 
-60 76 -13 116 -113 
88 37 5 -6 -55 

-28 15 -95 -47 18 
88 4 -74 115 123 
84 -37 -59 -14 106 
-28 18 -123 -17 -9 
-89 -11 -115 104 -117 

71 -70 34 -15 42 
-9 34 -73 -117 -55 
-43 4 -54 41 6 
-77 26 57 21 -32 
93 81 70 117 -96 

11 -26 -75 17 94 
8 -75 15 92 73 
8 -80 76 76 -80 
-59 68 -88 124 77 
-24 -65 -117 38 60 


-25 76 88 -115 -97 
-40 76 -83 -93 107 
83 94 -87 115 -109 
125 19 -2 99 -115 
57 20 -121 -24 44 

62 72 46 40 -118 
72 83 -113 -64 88 
124 10 -51 -88 -30 
34 -10 109 54 -41 
-18 -118 93 60 -51 

25 -124 -36 -4 96 
22 -64 -115 -9 1 
27 -19 -77 61 10 
2 -52 -81 33 -122 
61 -124 32 66 34 

86 103 15 -106 42 
-90 -111 -18 -73 -47 
3 60 30 23 76 
-36 -46 13 16 33 
3 -23 87 123 109 

-68 66 -92 -84 -20 
99 -115 -40 18 83 
-51 50 67 -91 89 
-60 76 -13 116 -113 
88 37 5 -6 -55 

-28 15 -95 -47 18 
88 4 -74 115 123 
84 -37 -59 -14 106 
-28 18 -123 -17 -9 
-89 -11 -115 104 -117 

71 -70 34 -15 42 
-9 34 -73 -117 -55 
-43 4 -54 41 6 
-77 26 57 21 -32 
93 81 70 117 -96 

11 -26 -75 17 94 
8 -75 15 92 73 
8 -80 76 76 -80 
-59 68 -88 124 77 
-24 -65 -117 38 60 


-25 76 88 -115 -97 
-40 76 -83 -93 107 
83 94 -87 115 -109 
125 19 -2 99 -115 
57 20 -121 -24 44 

62 72 46 40 -118 
72 83 -113 -64 88 
124 10 -51 -88 -30 
34 -10 109 54 -41 
-18 -118 93 60 -51 

25 -124 -36 -4 96 
22 -64 -115 -9 1 
27 -19 -77 61 10 
2 -52 -81 33 -122 
61 -124 32 66 34 

86 103 15 -106 42 
-90 -111 -18 -73 -47 
3 60 30 23 76 
-36 -46 13 16 33 
3 -23 87 123 109 

-68 66 -92 -84 -20 
99 -115 -40 18 83 
-51 50 67 -91 89 
-60 76 -13 116 -113 
88 37 5 -6 -55 

-28 15 -95 -47 18 
88 4 -74 115 123 
84 -37 -59 -14 106 
-28 18 -123 -17 -9 
-89 -11 -115 104 -117 

71 -70 34 -15 42 
-9 34 -73 -117 -55 
-43 4 -54 41 6 
-77 26 57 21 -32 
93 81 70 117 -96 

11 -26 -75 17 94 
8 -75 15 92 73 
8 -80 76 76 -80 
-59 68 -88 124 77 
-24 -65 -117 38 60 


-25 76 88 -115 -97 
-40 76 -83 -93 107 
83 94 -87 115 -109 
125 19 -2 99 -115 
57 20 -121 -24 44 

62 72 46 40 -118 
72 83 -113 -64 88 
124 10 -51 -88 -30 
34 -10 109 54 -41 
-18 -118 93 60 -51 

25 -124 -36 -4 96 
22 -64 -115 -9 1 
27 -19 -77 61 10 
2 -52 -81 33 -122 
61 -124 32 66 34 

86 103 15 -106 42 
-90 -111 -18 -73 -47 
3 60 30 23 76 
-36 -46 13 16 33 
3 -23 87 123 109 

-68 66 -92 -84 -20 
99 -115 -40 18 83 
-51 50 67 -91 89 
-60 76 -13 116 -113 
88 37 5 -6 -55 

-28 15 -95 -47 18 
88 4 -74 115 123 
84 -37 -59 -14 106 
-28 18 -123 -17 -9 
-89 -11 -115 104 -117 

71 -70 34 -15 42 
-9 34 -73 -117 -55 
-43 4 -54 41 6 
-77 26 57 21 -32 
93 81 70 117 -96 

11 -26 -75 17 94 
8 -75 15 92 73 
8 -80 76 76 -80 
-59 68 -88 124 77 
-24 -65 -117 38 60 



-25 76 88 -115 -97 
-40 76 -83 -93 107 
83 94 -87 115 -109 
125 19 -2 99 -115 
57 20 -121 -24 44 

62 72 46 40 -118 
72 83 -113 -64 88 
124 10 -51 -88 -30 
34 -10 109 54 -41 
-18 -118 93 60 -51 

25 -124 -36 -4 96 
22 -64 -115 -9 1 
27 -19 -77 61 10 
2 -52 -81 33 -122 
61 -124 32 66 34 

86 103 15 -106 42 
-90 -111 -18 -73 -47 
3 60 30 23 76 
-36 -46 13 16 33 
3 -23 87 123 109 

-68 66 -92 -84 -20 
99 -115 -40 18 83 
-51 50 67 -91 89 
-60 76 -13 116 -113 
88 37 5 -6 -55 

-28 15 -95 -47 18 
88 4 -74 115 123 
84 -37 -59 -14 106 
-28 18 -123 -17 -9 
-89 -11 -115 104 -117 

71 -70 34 -15 42 
-9 34 -73 -117 -55 
-43 4 -54 41 6 
-77 26 57 21 -32 
93 81 70 117 -96 

11 -26 -75 17 94 
8 -75 15 92 73 
8 -80 76 76 -80 
-59 68 -88 124 77 
-24 -65 -117 38 60 


-25 76 88 -115 -97 
-40 76 -83 -93 107 
83 94 -87 115 -109 
125 19 -2 99 -115 
57 20 -121 -24 44 

62 72 46 40 -118 
72 83 -113 -64 88 
124 10 -51 -88 -30 
34 -10 109 54 -41 
-18 -118 93 60 -51 

25 -124 -36 -4 96 
22 -64 -115 -9 1 
27 -19 -77 61 10 
2 -52 -81 33 -122 
61 -124 32 66 34 

86 103 15 -106 42 
-90 -111 -18 -73 -47 
3 60 30 23 76 
-36 -46 13 16 33 
3 -23 87 123 109 

-68 66 -92 -84 -20 
99 -115 -40 18 83 
-51 50 67 -91 89 
-60 76 -13 116 -113 
88 37 5 -6 -55 

-28 15 -95 -47 18 
88 4 -74 115 123 
84 -37 -59 -14 106 
-28 18 -123 -17 -9 
-89 -11 -115 104 -117 

71 -70 34 -15 42 
-9 34 -73 -117 -55 
-43 4 -54 41 6 
-77 26 57 21 -32 
93 81 70 117 -96 

11 -26 -75 17 94 
8 -75 15 92 73 
8 -80 76 76 -80 
-59 68 -88 124 77 
-24 -65 -117 38 60 


-25 76 88 -115 -97 
-40 76 -83 -93 107 
83 94 -87 115 -109 
125 19 -2 99 -115 
57 20 -121 -24 44 

62 72 46 40 -118 
72 83 -113 -64 88 
124 10 -51 -88 -30 
34 -10 109 54 -41 
-18 -118 93 60 -51 

25 -124 -36 -4 96 
22 -64 -115 -9 1 
27 -19 -77 61 10 
2 -52 -81 33 -122 
61 -124 32 66 34 

86 103 15 -106 42 
-90 -111 -18 -73 -47 
3 60 30 23 76 
-36 -46 13 16 33 
3 -23 87 123 109 

-68 66 -92 -84 -20 
99 -115 -40 18 83 
-51 50 67 -91 89 
-60 76 -13 116 -113 
88 37 5 -6 -55 

-28 15 -95 -47 18 
88 4 -74 115 123 
84 -37 -59 -14 106 
-28 18 -123 -17 -9 
-89 -11 -115 104 -117 

71 -70 34 -15 42 
-9 34 -73 -117 -55 
-43 4 -54 41 6 
-77 26 57 21 -32 
93 81 70 117 -96 

11 -26 -75 17 94 
8 -75 15 92 73 
8 -80 76 76 -80 
-59 68 -88 124 77 
-24 -65 -117 38 60 


-25 76 88 -115 -97 
-40 76 -83 -93 107 
83 94 -87 115 -109 
125 19 -2 99 -115 
57 20 -121 -24 44 

62 72 46 40 -118 
72 83 -113 -64 88 
124 10 -51 -88 -30 
34 -10 109 54 -41 
-18 -118 93 60 -51 

25 -124 -36 -4 96 
22 -64 -115 -9 1 
27 -19 -77 61 10 
2 -52 -81 33 -122 
61 -124 32 66 34 

86 103 15 -106 42 
-90 -111 -18 -73 -47 
3 60 30 23 76 
-36 -46 13 16 33 
3 -23 87 123 109 

-68 66 -92 -84 -20 
99 -115 -40 18 83 
-51 50 67 -91 89 
-60 76 -13 116 -113 
88 37 5 -6 -55 

-28 15 -95 -47 18 
88 4 -74 115 123 
84 -37 -59 -14 106 
-28 18 -123 -17 -9 
-89 -11 -115 104 -117 

71 -70 34 -15 42 
-9 34 -73 -117 -55 
-43 4 -54 41 6 
-77 26 57 21 -32 
93 81 70 117 -96 

11 -26 -75 17 94 
8 -75 15 92 73 
8 -80 76 76 -80 
-59 68 -88 124 77 
-24 -65 -117 38 60 



-25 76 88 -115 -97 
-40 76 -83 -93 107 
83 94 -87 115 -109 
125 19 -2 99 -115 
57 20 -121 -24 44 

62 72 46 40 -118 
72 83 -113 -64 88 
124 10 -51 -88 -30 
34 -10 109 54 -41 
-18 -118 93 60 -51 

25 -124 -36 -4 96 
22 -64 -115 -9 1 
27 -19 -77 61 10 
2 -52 -81 33 -122 
61 -124 32 66 34 

86 103 15 -106 42 
-90 -111 -18 -73 -47 
3 60 30 23 76 
-36 -46 13 16 33 
3 -23 87 123 109 

-68 66 -92 -84 -20 
99 -115 -40 18 83 
-51 50 67 -91 89 
-60 76 -13 116 -113 
88 37 5 -6 -55 

-28 15 -95 -47 18 
88 4 -74 115 123 
84 -37 -59 -14 106 
-28 18 -123 -17 -9 
-89 -11 -115 104 -117 

71 -70 34 -15 42 
-9 34 -73 -117 -55 
-43 4 -54 41 6 
-77 26 57 21 -32 
93 81 70 117 -96 

11 -26 -75 17 94 
8 -75 15 92 73 
8 -80 76 76 -80 
-59 68 -88 124 77 
-24 -65 -117 38 60 


-25 76 88 -115 -97 
-40 76 -83 -93 107 
83 94 -87 115 -109 
125 19 -2 99 -115 
57 20 -121 -24 44 

62 72 46 40 -118 
72 83 -113 -64 88 
124 10 -51 -88 -30 
34 -10 109 54 -41 
-18 -118 93 60 -51 

25 -124 -36 -4 96 
22 -64 -115 -9 1 
27 -19 -77 61 10 
2 -52 -81 33 -122 
61 -124 32 66 34 

86 103 15 -106 42 
-90 -111 -18 -73 -47 
3 60 30 23 76 
-36 -46 13 16 33 
3 -23 87 123 109 

-68 66 -92 -84 -20 
99 -115 -40 18 83 
-51 50 67 -91 89 
-60 76 -13 116 -113 
88 37 5 -6 -55 

-28 15 -95 -47 18 
88 4 -74 115 123 
84 -37 -59 -14 106 
-28 18 -123 -17 -9 
-89 -11 -115 104 -117 

71 -70 34 -15 42 
-9 34 -73 -117 -55 
-43 4 -54 41 6 
-77 26 57 21 -32 
93 81 70 117 -96 

11 -26 -75 17 94 
8 -75 15 92 73 
8 -80 76 76 -80 
-59 68 -88 124 77 
-24 -65 -117 38 60 


-25 76 88 -115 -97 
-40 76 -83 -93 107 
83 94 -87 115 -109 
125 19 -2 99 -115 
57 20 -121 -24 44 

62 72 46 40 -118 
72 83 -113 -64 88 
124 10 -51 -88 -30 
34 -10 109 54 -41 
-18 -118 93 60 -51 

25 -124 -36 -4 96 
22 -64 -115 -9 1 
27 -19 -77 61 10 
2 -52 -81 33 -122 
61 -124 32 66 34 

86 103 15 -106 42 
-90 -111 -18 -73 -47 
3 60 30 23 76 
-36 -46 13 16 33 
3 -23 87 123 109 

-68 66 -92 -84 -20 
99 -115 -40 18 83 
-51 50 67 -91 89 
-60 76 -13 116 -113 
88 37 5 -6 -55 

-28 15 -95 -47 18 
88 4 -74 115 123 
84 -37 -59 -14 106 
-28 18 -123 -17 -9 
-89 -11 -115 104 -117 

71 -70 34 -15 42 
-9 34 -73 -117 -55 
-43 4 -54 41 6 
-77 26 57 21 -32 
93 81 70 117 -96 

11 -26 -75 17 94 
8 -75 15 92 73 
8 -80 76 76 -80 
-59 68 -88 124 77 
-24 -65 -117 38 60 


-25 76 88 -115 -97 
-40 76 -83 -93 107 
83 94 -87 115 -109 
125 19 -2 99 -115 
57 20 -121 -24 44 

62 72 46 40 -118 
72 83 -113 -64 88 
124 10 -51 -88 -30 
34 -10 109 54 -41 
-18 -118 93 60 -51 

25 -124 -36 -4 96 
22 -64 -115 -9 1 
27 -19 -77 61 10 
2 -52 -81 33 -122 
61 -124 32 66 34 

86 103 15 -106 42 
-90 -111 -18 -73 -47 
3 60 30 23 76 
-36 -46 13 16 33 
3 -23 87 123 109 

-68 66 -92 -84 -20 
99 -115 -40 18 83 
-51 50 67 -91 89 
-60 76 -13 116 -113 
88 37 5 -6 -55 

-28 15 -95 -47 18 
88 4 -74 115 123 
84 -37 -59 -14 106 
-28 18 -123 -17 -9 
-89 -11 -115 104 -117 

71 -70 34 -15 42 
-9 34 -73 -117 -55 
-43 4 -54 41 6 
-77 26 57 21 -32 
93 81 70 117 -96 

11 -26 -75 17 94 
8 -75 15 92 73 
8 -80 76 76 -80 
-59 68 -88 124 77 
-24 -65 -117 38 60 



-25 76 88 -115 -97 
-40 76 -83 -93 107 
83 94 -87 115 -109 
125 19 -2 99 -115 
57 20 -121 -24 44 

62 72 46 40 -118 
72 83 -113 -64 88 
124 10 -51 -88 -30 
34 -10 109 54 -41 
-18 -118 93 60 -51 

25 -124 -36 -4 96 
22 -64 -115 -9 1 
27 -19 -77 61 10 
2 -52 -81 33 -122 
61 -124 32 66 34 

86 103 15 -106 42 
-90 -111 -18 -73 -47 
3 60 30 23 76 
-36 -46 13 16 33 
3 -23 87 123 109 

-68 66 -92 -84 -20 
99 -115 -40 18 83 
-51 50 67 -91 89 
-60 76 -13 116 -113 
88 37 5 -6 -55 

-28 15 -95 -47 18 
88 4 -74 115 123 
84 -37 -59 -14 106 
-28 18 -123 -17 -9 
-89 -11 -115 104 -117 

71 -70 34 -15 42 
-9 34 -73 -117 -55 
-43 4 -54 41 6 
-77 26 57 21 -32 
93 81 70 117 -96 

11 -26 -75 17 94 
8 -75 15 92 73 
8 -80 76 76 -80 
-59 68 -88 124 77 
-24 -65 -117 38 60 


-25 76 88 -115 -97 
-40 76 -83 -93 107 
83 94 -87 115 -109 
125 19 -2 99 -115 
57 20 -121 -24 44 

62 72 46 40 -118 
72 83 -113 -64 88 
124 10 -51 -88 -30 
34 -10 109 54 -41 
-18 -118 93 60 -51 

25 -124 -36 -4 96 
22 -64 -115 -9 1 
27 -19 -77 61 10 
2 -52 -81 33 -122 
61 -124 32 66 34 

86 103 15 -106 42 
-90 -111 -18 -73 -47 
3 60 30 23 76 
-36 -46 13 16 33 
3 -23 87 123 109 

-68 66 -92 -84 -20 
99 -115 -40 18 83 
-51 50 67 -91 89 
-60 76 -13 116 -113 
88 37 5 -6 -55 

-28 15 -95 -47 18 
88 4 -74 115 123 
84 -37 -59 -14 106 
-28 18 -123 -17 -9 
-89 -11 -115 104 -117 

71 -70 34 -15 42 
-9 34 -73 -117 -55 
-43 4 -54 41 6 
-77 26 57 21 -32 
93 81 70 117 -96 

11 -26 -75 17 94 
8 -75 15 92 73 
8 -80 76 76 -80 
-59 68 -88 124 77 
-24 -65 -117 38 60 


-25 76 88 -115 -97 
-40 76 -83 -93 107 
83 94 -87 115 -109 
125 19 -2 99 -115 
57 20 -121 -24 44 

62 72 46 40 -118 
72 83 -113 -64 88 
124 10 -51 -88 -30 
34 -10 109 54 -41 
-18 -118 93 60 -51 

25 -124 -36 -4 96 
22 -64 -115 -9 1 
27 -19 -77 61 10 
2 -52 -81 33 -122 
61 -124 32 66 34 

86 103 15 -106 42 
-90 -111 -18 -73 -47 
3 60 30 23 76 
-36 -46 13 16 33 
3 -23 87 123 109 

-68 66 -92 -84 -20 
99 -115 -40 18 83 
-51 50 67 -91 89 
-60 76 -13 116 -113 
88 37 5 -6 -55 

-28 15 -95 -47 18 
88 4 -74 115 123 
84 -37 -59 -14 106 
-28 18 -123 -17 -9 
-89 -11 -115 104 -117 

71 -70 34 -15 42 
-9 34 -73 -117 -55 
-43 4 -54 41 6 
-77 26 57 21 -32 
93 81 70 117 -96 

11 -26 -75 17 94 
8 -75 15 92 73 
8 -80 76 76 -80 
-59 68 -88 124 77 
-24 -65 -117 38 60 


-25 76 88 -115 -97 
-40 76 -83 -93 107 
83 94 -87 115 -109 
125 19 -2 99 -115 
57 20 -121 -24 44 

62 72 46 40 -118 
72 83 -113 -64 88 
124 10 -51 -88 -30 
34 -10 109 54 -41 
-18 -118 93 60 -51 

25 -124 -36 -4 96 
22 -64 -115 -9 1 
27 -19 -77 61 10 
2 -52 -81 33 -122 
61 -124 32 66 34 

86 103 15 -106 42 
-90 -111 -18 -73 -47 
3 60 30 23 76 
-36 -46 13 16 33 
3 -23 87 123 109 

-68 66 -92 -84 -20 
99 -115 -40 18 83 
-51 50 67 -91 89 
-60 76 -13 116 -113 
88 37 5 -6 -55 

-28 15 -95 -47 18 
88 4 -74 115 123 
84 -37 -59 -14 106 
-28 18 -123 -17 -9 
-89 -11 -115 104 -117 

71 -70 34 -15 42 
-9 34 -73 -117 -55 
-43 4 -54 41 6 
-77 26 57 21 -32 
93 81 70 117 -96 

11 -26 -75 17 94 
8 -75 15 92 73 
8 -80 76 76 -80 
-59 68 -88 124 77 
-24 -65 -117 38 60 



-25 76 88 -115 -97 
-40 76 -83 -93 107 
83 94 -87 115 -109 
125 19 -2 99 -115 
57 20 -121 -24 44 

62 72 46 40 -118 
72 83 -113 -64 88 
124 10 -51 -88 -30 
34 -10 109 54 -41 
-18 -118 93 60 -51 

25 -124 -36 -4 96 
22 -64 -115 -9 1 
27 -19 -77 61 10 
2 -52 -81 33 -122 
61 -124 32 66 34 

86 103 15 -106 42 
-90 -111 -18 -73 -47 
3 60 30 23 76 
-36 -46 13 16 33 
3 -23 87 123 109 

-68 66 -92 -84 -20 
99 -115 -40 18 83 
-51 50 67 -91 89 
-60 76 -13 116 -113 
88 37 5 -6 -55 

-28 15 -95 -47 18 
88 4 -74 115 123 
84 -37 -59 -14 106 
-28 18 -123 -17 -9 
-89 -11 -115 104 -117 

71 -70 34 -15 42 
-9 34 -73 -117 -55 
-43 4 -54 41 6 
-77 26 57 21 -32 
93 81 70 117 -96 

11 -26 -75 17 94 
8 -75 15 92 73 
8 -80 76 76 -80 
-59 68 -88 124 77 
-24 -65 -117 38 60 


-25 76 88 -115 -97 
-40 76 -83 -93 107 
83 94 -87 115 -109 
125 19 -2 99 -115 
57 20 -121 -24 44 

62 72 46 40 -118 
72 83 -113 -64 88 
124 10 -51 -88 -30 
34 -10 109 54 -41 
-18 -118 93 60 -51 

25 -124 -36 -4 96 
22 -64 -115 -9 1 
27 -19 -77 61 10 
2 -52 -81 33 -122 
61 -124 32 66 34 

86 103 15 -106 42 
-90 -111 -18 -73 -47 
3 60 30 23 76 
-36 -46 13 16 33 
3 -23 87 123 109 

-68 66 -92 -84 -20 
99 -115 -40 18 83 
-51 50 67 -91 89 
-60 76 -13 116 -113 
88 37 5 -6 -55 

-28 15 -95 -47 18 
88 4 -74 115 123 
84 -37 -59 -14 106 
-28 18 -123 -17 -9 
-89 -11 -115 104 -117 

71 -70 34 -15 42 
-9 34 -73 -117 -55 
-43 4 -54 41 6 
-77 26 57 21 -32 
93 81 70 117 -96 

11 -26 -75 17 94 
8 -75 15 92 73 
8 -80 76 76 -80 
-59 68 -88 124 77 
-24 -65 -117 38 60 


-25 76 88 -115 -97 
-40 76 -83 -93 107 
83 94 -87 115 -109 
125 19 -2 99 -115 
57 20 -121 -24 44 

62 72 46 40 -118 
72 83 -113 -64 88 
124 10 -51 -88 -30 
34 -10 109 54 -41 
-18 -118 93 60 -51 

25 -124 -36 -4 96 
22 -64 -115 -9 1 
27 -19 -77 61 10 
2 -52 -81 33 -122 
61 -124 32 66 34 

86 103 15 -106 42 
-90 -111 -18 -73 -47 
3 60 30 23 76 
-36 -46 13 16 33 
3 -23 87 123 109 

-68 66 -92 -84 -20 
99 -115 -40 18 83 
-51 50 67 -91 89 
-60 76 -13 116 -113 
88 37 5 -6 -55 

-28 15 -95 -47 18 
88 4 -74 115 123 
84 -37 -59 -14 106 
-28 18 -123 -17 -9 
-89 -11 -115 104 -117 

71 -70 34 -15 42 
-9 34 -73 -117 -55 
-43 4 -54 41 6 
-77 26 57 21 -32 
93 81 70 117 -96 

11 -26 -75 17 94 
8 -75 15 92 73 
8 -80 76 76 -80 
-59 68 -88 124 77 
-24 -65 -117 38 60 


-25 76 88 -115 -97 
-40 76 -83 -93 107 
83 94 -87 115 -109 
125 19 -2 99 -115 
57 20 -121 -24 44 

62 72 46 40 -118 
72 83 -113 -64 88 
124 10 -51 -88 -30 
34 -10 109 54 -41 
-18 -118 93 60 -51 

25 -124 -36 -4 96 
22 -64 -115 -9 1 
27 -19 -77 61 10 
2 -52 -81 33 -122 
61 -124 32 66 34 

86 103 15 -106 42 
-90 -111 -18 -73 -47 
3 60 30 23 76 
-36 -46 13 16 33 
3 -23 87 123 109 

-68 66 -92 -84 -20 
99 -115 -40 18 83 
-51 50 67 -91 89 
-60 76 -13 116 -113 
88 37 5 -6 -55 

-28 15 -95 -47 18 
88 4 -74 115 123 
84 -37 -59 -14 106 
-28 18 -123 -17 -9 
-89 -11 -115 104 -117 

71 -70 34 -15 42 
-9 34 -73 -117 -55 
-43 4 -54 41 6 
-77 26 57 21 -32 
93 81 70 117 -96 

11 -26 -75 17 94 
8 -75 15 92 73 
8 -80 76 76 -80 
-59 68 -88 124 77 
-24 -65 -117 38 60 



-25 76 88 -115 -97 
-40 76 -83 -93 107 
83 94 -87 115 -109 
125 19 -2 99 -115 
57 20 -121 -24 44 

62 72 46 40 -118 
72 83 -113 -64 88 
124 10 -51 -88 -30 
34 -10 109 54 -41 
-18 -118 93 60 -51 

25 -124 -36 -4 96 
22 -64 -115 -9 1 
27 -19 -77 61 10 
2 -52 -81 33 -122 
61 -124 32 66 34 

86 103 15 -106 42 
-90 -111 -18 -73 -47 
3 60 30 23 76 
-36 -46 13 16 33 
3 -23 87 123 109 

-68 66 -92 -84 -20 
99 -115 -40 18 83 
-51 50 67 -91 89 
-60 76 -13 116 -113 
88 37 5 -6 -55 

-28 15 -95 -47 18 
88 4 -74 115 123 
84 -37 -59 -14 106 
-28 18 -123 -17 -9 
-89 -11 -115 104 -117 

71 -70 34 -15 42 
-9 34 -73 -117 -55 
-43 4 -54 41 6 
-77 26 57 21 -32 
93 81 70 117 -96 

11 -26 -75 17 94 
8 -75 15 92 73 
8 -80 76 76 -80 
-59 68 -88 124 77 
-24 -65 -117 38 60 


-25 76 88 -115 -97 
-40 76 -83 -93 107 
83 94 -87 115 -109 
125 19 -2 99 -115 
57 20 -121 -24 44 

62 72 46 40 -118 
72 83 -113 -64 88 
124 10 -51 -88 -30 
34 -10 109 54 -41 
-18 -118 93 60 -51 

25 -124 -36 -4 96 
22 -64 -115 -9 1 
27 -19 -77 61 10 
2 -52 -81 33 -122 
61 -124 32 66 34 

86 103 15 -106 42 
-90 -111 -18 -73 -47 
3 60 30 23 76 
-36 -46 13 16 33 
3 -23 87 123 109 

-68 66 -92 -84 -20 
99 -115 -40 18 83 
-51 50 67 -91 89 
-60 76 -13 116 -113 
88 37 5 -6 -55 

-28 15 -95 -47 18 
88 4 -74 115 123 
84 -37 -59 -14 106 
-28 18 -123 -17 -9 
-89 -11 -115 104 -117 

71 -70 34 -15 42 
-9 34 -73 -117 -55 
-43 4 -54 41 6 
-77 26 57 21 -32 
93 81 70 117 -96 

11 -26 -75 17 94 
8 -75 15 92 73 
8 -80 76 76 -80 
-59 68 -88 124 77 
-24 -65 -117 38 60 


-25 76 88 -115 -97 
-40 76 -83 -93 107 
83 94 -87 115 -109 
125 19 -2 99 -115 
57 20 -121 -24 44 

62 72 46 40 -118 
72 83 -113 -64 88 
124 10 -51 -88 -30 
34 -10 109 54 -41 
-18 -118 93 60 -51 

25 -124 -36 -4 96 
22 -64 -115 -9 1 
27 -19 -77 61 10 
2 -52 -81 33 -122 
61 -124 32 66 34 

86 103 15 -106 42 
-90 -111 -18 -73 -47 
3 60 30 23 76 
-36 -46 13 16 33 
3 -23 87 123 109 

-68 66 -92 -84 -20 
99 -115 -40 18 83 
-51 50 67 -91 89 
-60 76 -13 116 -113 
88 37 5 -6 -55 

-28 15 -95 -47 18 
88 4 -74 115 123 
84 -37 -59 -14 106 
-28 18 -123 -17 -9 
-89 -11 -115 104 -117 

71 -70 34 -15 42 
-9 34 -73 -117 -55 
-43 4 -54 41 6 
-77 26 57 21 -32 
93 81 70 117 -96 

11 -26 -75 17 94 
8 -75 15 92 73 
8 -80 76 76 -80 
-59 68 -88 124 77 
-24 -65 -117 38 60 


-25 76 88 -115 -97 
-40 76 -83 -93 107 
83 94 -87 115 -109 
125 19 -2 99 -115 
57 20 -121 -24 44 

62 72 46 40 -118 
72 83 -113 -64 88 
124 10 -51 -88 -30 
34 -10 109 54 -41 
-18 -118 93 60 -51 

25 -124 -36 -4 96 
22 -64 -115 -9 1 
27 -19 -77 61 10 
2 -52 -81 33 -122 
61 -124 32 66 34 

86 103 15 -106 42 
-90 -111 -18 -73 -47 
3 60 30 23 76 
-36 -46 13 16 33 
3 -23 87 123 109 

-68 66 -92 -84 -20 
99 -115 -40 18 83 
-51 50 67 -91 89 
-60 76 -13 116 -113 
88 37 5 -6 -55 

-28 15 -95 -47 18 
88 4 -74 115 123 
84 -37 -59 -14 106 
-28 18 -123 -17 -9 
-89 -11 -115 104 -117 

71 -70 34 -15 42 
-9 34 -73 -117 -55 
-43 4 -54 41 6 
-77 26 57 21 -32 
93 81 70 117 -96 

11 -26 -75 17 94 
8 -75 15 92 73 
8 -80 76 76 -80 
-59 68 -88 124 77 
-24 -65 -117 38 60 



-25 76 88 -115 -97 
-40 76 -83 -93 107 
83 94 -87 115 -109 
125 19 -2 99 -115 
57 20 -121 -24 44 

62 72 46 40 -118 
72 83 -113 -64 88 
124 10 -51 -88 -30 
34 -10 109 54 -41 
-18 -118 93 60 -51 

25 -124 -36 -4 96 
22 -64 -115 -9 1 
27 -19 -77 61 10 
2 -52 -81 33 -122 
61 -124 32 66 34 

86 103 15 -106 42 
-90 -111 -18 -73 -47 
3 60 30 23 76 
-36 -46 13 16 33 
3 -23 87 123 109 

-68 66 -92 -84 -20 
99 -115 -40 18 83 
-51 50 67 -91 89 
-60 76 -13 116 -113 
88 37 5 -6 -55 

-28 15 -95 -47 18 
88 4 -74 115 123 
84 -37 -59 -14 106 
-28 18 -123 -17 -9 
-89 -11 -115 104 -117 

71 -70 34 -15 42 
-9 34 -73 -117 -55 
-43 4 -54 41 6 
-77 26 57 21 -32 
93 81 70 117 -96 

11 -26 -75 17 94 
8 -75 15 92 73 
8 -80 76 76 -80 
-59 68 -88 124 77 
-24 -65 -117 38 60 


-25 76 88 -115 -97 
-40 76 -83 -93 107 
83 94 -87 115 -109 
125 19 -2 99 -115 
57 20 -121 -24 44 

62 72 46 40 -118 
72 83 -113 -64 88 
124 10 -51 -88 -30 
34 -10 109 54 -41 
-18 -118 93 60 -51 

25 -124 -36 -4 96 
22 -64 -115 -9 1 
27 -19 -77 61 10 
2 -52 -81 33 -122 
61 -124 32 66 34 

86 103 15 -106 42 
-90 -111 -18 -73 -47 
3 60 30 23 76 
-36 -46 13 16 33 
3 -23 87 123 109 

-68 66 -92 -84 -20 
99 -115 -40 18 83 
-51 50 67 -91 89 
-60 76 -13 116 -113 
88 37 5 -6 -55 

-28 15 -95 -47 18 
88 4 -74 115 123 
84 -37 -59 -14 106 
-28 18 -123 -17 -9 
-89 -11 -115 104 -117 

71 -70 34 -15 42 
-9 34 -73 -117 -55 
-43 4 -54 41 6 
-77 26 57 21 -32 
93 81 70 117 -96 

11 -26 -75 17 94 
8 -75 15 92 73 
8 -80 76 76 -80 
-59 68 -88 124 77 
-24 -65 -117 38 60 


-25 76 88 -115 -97 
-40 76 -83 -93 107 
83 94 -87 115 -109 
125 19 -2 99 -115 
57 20 -121 -24 44 

62 72 46 40 -118 
72 83 -113 -64 88 
124 10 -51 -88 -30 
34 -10 109 54 -41 
-18 -118 93 60 -51 

25 -124 -36 -4 96 
22 -64 -115 -9 1 
27 -19 -77 61 10 
2 -52 -81 33 -122 
61 -124 32 66 34 

86 103 15 -106 42 
-90 -111 -18 -73 -47 
3 60 30 23 76 
-36 -46 13 16 33 
3 -23 87 123 109 

-68 66 -92 -84 -20 
99 -115 -40 18 83 
-51 50 67 -91 89 
-60 76 -13 116 -113 
88 37 5 -6 -55 

-28 15 -95 -47 18 
88 4 -74 115 123 
84 -37 -59 -14 106 
-28 18 -123 -17 -9 
-89 -11 -115 104 -117 

71 -70 34 -15 42 
-9 34 -73 -117 -55 
-43 4 -54 41 6 
-77 26 57 21 -32 
93 81 70 117 -96 

11 -26 -75 17 94 
8 -75 15 92 73 
8 -80 76 76 -80 
-59 68 -88 124 77 
-24 -65 -117 38 60 


-25 76 88 -115 -97 
-40 76 -83 -93 107 
83 94 -87 115 -109 
125 19 -2 99 -115 
57 20 -121 -24 44 

62 72 46 40 -118 
72 83 -113 -64 88 
124 10 -51 -88 -30 
34 -10 109 54 -41 
-18 -118 93 60 -51 

25 -124 -36 -4 96 
22 -64 -115 -9 1 
27 -19 -77 61 10 
2 -52 -81 33 -122 
61 -124 32 66 34 

86 103 15 -106 42 
-90 -111 -18 -73 -47 
3 60 30 23 76 
-36 -46 13 16 33 
3 -23 87 123 109 

-68 66 -92 -84 -20 
99 -115 -40 18 83 
-51 50 67 -91 89 
-60 76 -13 116 -113 
88 37 5 -6 -55 

-28 15 -95 -47 18 
88 4 -74 115 123 
84 -37 -59 -14 106 
-28 18 -123 -17 -9 
-89 -11 -115 104 -117 

71 -70 34 -15 42 
-9 34 -73 -117 -55 
-43 4 -54 41 6 
-77 26 57 21 -32 
93 81 70 117 -96 

11 -26 -75 17 94 
8 -75 15 92 73 
8 -80 76 76 -80 
-59 68 -88 124 77 
-24 -65 -117 38 60 



-25 76 88 -115 -97 
-40 76 -83 -93 107 
83 94 -87 115 -109 
125 19 -2 99 -115 
57 20 -121 -24 44 

62 72 46 40 -118 
72 83 -113 -64 88 
124 10 -51 -88 -30 
34 -10 109 54 -41 
-18 -118 93 60 -51 

25 -124 -36 -4 96 
22 -64 -115 -9 1 
27 -19 -77 61 10 
2 -52 -81 33 -122 
61 -124 32 66 34 

86 103 15 -106 42 
-90 -111 -18 -73 -47 
3 60 30 23 76 
-36 -46 13 16 33 
3 -23 87 123 109 

-68 66 -92 -84 -20 
99 -115 -40 18 83 
-51 50 67 -91 89 
-60 76 -13 116 -113 
88 37 5 -6 -55 

-28 15 -95 -47 18 
88 4 -74 115 123 
84 -37 -59 -14 106 
-28 18 -123 -17 -9 
-89 -11 -115 104 -117 

71 -70 34 -15 42 
-9 34 -73 -117 -55 
-43 4 -54 41 6 
-77 26 57 21 -32 
93 81 70 117 -96 

11 -26 -75 17 94 
8 -75 15 92 73 
8 -80 76 76 -80 
-59 68 -88 124 77 
-24 -65 -117 38 60 


-25 76 88 -115 -97 
-40 76 -83 -93 107 
83 94 -87 115 -109 
125 19 -2 99 -115 
57 20 -121 -24 44 

62 72 46 40 -118 
72 83 -113 -64 88 
124 10 -51 -88 -30 
34 -10 109 54 -41 
-18 -118 93 60 -51 

25 -124 -36 -4 96 
22 -64 -115 -9 1 
27 -19 -77 61 10 
2 -52 -81 33 -122 
61 -124 32 66 34 

86 103 15 -106 42 
-90 -111 -18 -73 -47 
3 60 30 23 76 
-36 -46 13 16 33 
3 -23 87 123 109 

-68 66 -92 -84 -20 
99 -115 -40 18 83 
-51 50 67 -91 89 
-60 76 -13 116 -113 
88 37 5 -6 -55 

-28 15 -95 -47 18 
88 4 -74 115 123 
84 -37 -59 -14 106 
-28 18 -123 -17 -9 
-89 -11 -115 104 -117 

71 -70 34 -15 42 
-9 34 -73 -117 -55 
-43 4 -54 41 6 
-77 26 57 21 -32 
93 81 70 117 -96 

11 -26 -75 17 94 
8 -75 15 92 73 
8 -80 76 76 -80 
-59 68 -88 124 77 
-24 -65 -117 38 60 


-25 76 88 -115 -97 
-40 76 -83 -93 107 
83 94 -87 115 -109 
125 19 -2 99 -115 
57 20 -121 -24 44 

62 72 46 40 -118 
72 83 -113 -64 88 
124 10 -51 -88 -30 
34 -10 109 54 -41 
-18 -118 93 60 -51 

25 -124 -36 -4 96 
22 -64 -115 -9 1 
27 -19 -77 61 10 
2 -52 -81 33 -122 
61 -124 32 66 34 

86 103 15 -106 42 
-90 -111 -18 -73 -47 
3 60 30 23 76 
-36 -46 13 16 33 
3 -23 87 123 109 

-68 66 -92 -84 -20 
99 -115 -40 18 83 
-51 50 67 -91 89 
-60 76 -13 116 -113 
88 37 5 -6 -55 

-28 15 -95 -47 18 
88 4 -74 115 123 
84 -37 -59 -14 106 
-28 18 -123 -17 -9 
-89 -11 -115 104 -117 

71 -70 34 -15 42 
-9 34 -73 -117 -55 
-43 4 -54 41 6 
-77 26 57 21 -32 
93 81 70 117 -96 

11 -26 -75 17 94 
8 -75 15 92 73 
8 -80 76 76 -80 
-59 68 -88 124 77 
-24 -65 -117 38 60 


-25 76 88 -115 -97 
-40 76 -83 -93 107 
83 94 -87 115 -109 
125 19 -2 99 -115 
57 20 -121 -24 44 

62 72 46 40 -118 
72 83 -113 -64 88 
124 10 -51 -88 -30 
34 -10 109 54 -41 
-18 -118 93 60 -51 

25 -124 -36 -4 96 
22 -64 -115 -9 1 
27 -19 -77 61 10 
2 -52 -81 33 -122 
61 -124 32 66 34 

86 103 15 -106 42 
-90 -111 -18 -73 -47 
3 60 30 23 76 
-36 -46 13 16 33 
3 -23 87 123 109 

-68 66 -92 -84 -20 
99 -115 -40 18 83 
-51 50 67 -91 89 
-60 76 -13 116 -113 
88 37 5 -6 -55 

-28 15 -95 -47 18 
88 4 -74 115 123 
84 -37 -59 -14 106 
-28 18 -123 -17 -9 
-89 -11 -115 104 -117 

71 -70 34 -15 42 
-9 34 -73 -117 -55 
-43 4 -54 41 6 
-77 26 57 21 -32 
93 81 70 117 -96 

11 -26 -75 17 94 
8 -75 15 92 73 
8 -80 76 76 -80 
-59 68 -88 124 77 
-24 -65 -117 38 60 



-25 76 88 -115 -97 
-40 76 -83 -93 107 
83 94 -87 115 -109 
125 19 -2 99 -115 
57 20 -121 -24 44 

62 72 46 40 -118 
72 83 -113 -64 88 
124 10 -51 -88 -30 
34 -10 109 54 -41 
-18 -118 93 60 -51 

25 -124 -36 -4 96 
22 -64 -115 -9 1 
27 -19 -77 61 10 
2 -52 -81 33 -122 
61 -124 32 66 34 

86 103 15 -106 42 
-90 -111 -18 -73 -47 
3 60 30 23 76 
-36 -46 13 16 33 
3 -23 87 123 109 

-68 66 -92 -84 -20 
99 -115 -40 18 83 
-51 50 67 -91 89 
-60 76 -13 116 -113 
88 37 5 -6 -55 

-28 15 -95 -47 18 
88 4 -74 115 123 
84 -37 -59 -14 106 
-28 18 -123 -17 -9 
-89 -11 -115 104 -117 

71 -70 34 -15 42 
-9 34 -73 -117 -55 
-43 4 -54 41 6 
-77 26 57 21 -32 
93 81 70 117 -96 

11 -26 -75 17 94 
8 -75 15 92 73 
8 -80 76 76 -80 
-59 68 -88 124 77 
-24 -65 -117 38 60 


-25 76 88 -115 -97 
-40 76 -83 -93 107 
83 94 -87 115 -109 
125 19 -2 99 -115 
57 20 -121 -24 44 

62 72 46 40 -118 
72 83 -113 -64 88 
124 10 -51 -88 -30 
34 -10 109 54 -41 
-18 -118 93 60 -51 

25 -124 -36 -4 96 
22 -64 -115 -9 1 
27 -19 -77 61 10 
2 -52 -81 33 -122 
61 -124 32 66 34 

86 103 15 -106 42 
-90 -111 -18 -73 -47 
3 60 30 23 76 
-36 -46 13 16 33 
3 -23 87 123 109 

-68 66 -92 -84 -20 
99 -115 -40 18 83 
-51 50 67 -91 89 
-60 76 -13 116 -113 
88 37 5 -6 -55 

-28 15 -95 -47 18 
88 4 -74 115 123 
84 -37 -59 -14 106 
-28 18 -123 -17 -9 
-89 -11 -115 104 -117 

71 -70 34 -15 42 
-9 34 -73 -117 -55 
-43 4 -54 41 6 
-77 26 57 21 -32 
93 81 70 117 -96 

11 -26 -75 17 94 
8 -75 15 92 73 
8 -80 76 76 -80 
-59 68 -88 124 77 
-24 -65 -117 38 60 


-25 76 88 -115 -97 
-40 76 -83 -93 107 
83 94 -87 115 -109 
125 19 -2 99 -115 
57 20 -121 -24 44 

62 72 46 40 -118 
72 83 -113 -64 88 
124 10 -51 -88 -30 
34 -10 109 54 -41 
-18 -118 93 60 -51 

25 -124 -36 -4 96 
22 -64 -115 -9 1 
27 -19 -77 61 10 
2 -52 -81 33 -122 
61 -124 32 66 34 

86 103 15 -106 42 
-90 -111 -18 -73 -47 
3 60 30 23 76 
-36 -46 13 16 33 
3 -23 87 123 109 

-68 66 -92 -84 -20 
99 -115 -40 18 83 
-51 50 67 -91 89 
-60 76 -13 116 -113 
88 37 5 -6 -55 

-28 15 -95 -47 18 
88 4 -74 115 123 
84 -37 -59 -14 106 
-28 18 -123 -17 -9 
-89 -11 -115 104 -117 

71 -70 34 -15 42 
-9 34 -73 -117 -55 
-43 4 -54 41 6 
-77 26 57 21 -32 
93 81 70 117 -96 

11 -26 -75 17 94 
8 -75 15 92 73 
8 -80 76 76 -80 
-59 68 -88 124 77 
-24 -65 -117 38 60 


-25 76 88 -115 -97 
-40 76 -83 -93 107 
83 94 -87 115 -109 
125 19 -2 99 -115 
57 20 -121 -24 44 

62 72 46 40 -118 
72 83 -113 -64 88 
124 10 -51 -88 -30 
34 -10 109 54 -41 
-18 -118 93 60 -51 

25 -124 -36 -4 96 
22 -64 -115 -9 1 
27 -19 -77 61 10 
2 -52 -81 33 -122 
61 -124 32 66 34 

86 103 15 -106 42 
-90 -111 -18 -73 -47 
3 60 30 23 76 
-36 -46 13 16 33 
3 -23 87 123 109 

-68 66 -92 -84 -20 
99 -115 -40 18 83 
-51 50 67 -91 89 
-60 76 -13 116 -113 
88 37 5 -6 -55 

-28 15 -95 -47 18 
88 4 -74 115 123 
84 -37 -59 -14 106 
-28 18 -123 -17 -9 
-89 -11 -115 104 -117 

71 -70 34 -15 42 
-9 34 -73 -117 -55 
-43 4 -54 41 6 
-77 26 57 21 -32 
93 81 70 117 -96 

11 -26 -75 17 94 
8 -75 15 92 73 
8 -80 76 76 -80 
-59 68 -88 124 77 
-24 -65 -117 38 60 



-25 76 88 -115 -97 
-40 76 -83 -93 107 
83 94 -87 115 -109 
125 19 -2 99 -115 
57 20 -121 -24 44 

62 72 46 40 -118 
72 83 -113 -64 88 
124 10 -51 -88 -30 
34 -10 109 54 -41 
-18 -118 93 60 -51 

25 -124 -36 -4 96 
22 -64 -115 -9 1 
27 -19 -77 61 10 
2 -52 -81 33 -122 
61 -124 32 66 34 

86 103 15 -106 42 
-90 -111 -18 -73 -47 
3 60 30 23 76 
-36 -46 13 16 33 
3 -23 87 123 109 

-68 66 -92 -84 -20 
99 -115 -40 18 83 
-51 50 67 -91 89 
-60 76 -13 116 -113 
88 37 5 -6 -55 

-28 15 -95 -47 18 
88 4 -74 115 123 
84 -37 -59 -14 106 
-28 18 -123 -17 -9 
-89 -11 -115 104 -117 

71 -70 34 -15 42 
-9 34 -73 -117 -55 
-43 4 -54 41 6 
-77 26 57 21 -32 
93 81 70 117 -96 

11 -26 -75 17 94 
8 -75 15 92 73 
8 -80 76 76 -80 
-59 68 -88 124 77 
-24 -65 -117 38 60 


-25 76 88 -115 -97 
-40 76 -83 -93 107 
83 94 -87 115 -109 
125 19 -2 99 -115 
57 20 -121 -24 44 

62 72 46 40 -118 
72 83 -113 -64 88 
124 10 -51 -88 -30 
34 -10 109 54 -41 
-18 -118 93 60 -51 

25 -124 -36 -4 96 
22 -64 -115 -9 1 
27 -19 -77 61 10 
2 -52 -81 33 -122 
61 -124 32 66 34 

86 103 15 -106 42 
-90 -111 -18 -73 -47 
3 60 30 23 76 
-36 -46 13 16 33 
3 -23 87 123 109 

-68 66 -92 -84 -20 
99 -115 -40 18 83 
-51 50 67 -91 89 
-60 76 -13 116 -113 
88 37 5 -6 -55 

-28 15 -95 -47 18 
88 4 -74 115 123 
84 -37 -59 -14 106 
-28 18 -123 -17 -9 
-89 -11 -115 104 -117 

71 -70 34 -15 42 
-9 34 -73 -117 -55 
-43 4 -54 41 6 
-77 26 57 21 -32 
93 81 70 117 -96 

11 -26 -75 17 94 
8 -75 15 92 73 
8 -80 76 76 -80 
-59 68 -88 124 77 
-24 -65 -117 38 60 


-25 76 88 -115 -97 
-40 76 -83 -93 107 
83 94 -87 115 -109 
125 19 -2 99 -115 
57 20 -121 -24 44 

62 72 46 40 -118 
72 83 -113 -64 88 
124 10 -51 -88 -30 
34 -10 109 54 -41 
-18 -118 93 60 -51 

25 -124 -36 -4 96 
22 -64 -115 -9 1 
27 -19 -77 61 10 
2 -52 -81 33 -122 
61 -124 32 66 34 

86 103 15 -106 42 
-90 -111 -18 -73 -47 
3 60 30 23 76 
-36 -46 13 16 33 
3 -23 87 123 109 

-68 66 -92 -84 -20 
99 -115 -40 18 83 
-51 50 67 -91 89 
-60 76 -13 116 -113 
88 37 5 -6 -55 

-28 15 -95 -47 18 
88 4 -74 115 123 
84 -37 -59 -14 106 
-28 18 -123 -17 -9 
-89 -11 -115 104 -117 

71 -70 34 -15 42 
-9 34 -73 -117 -55 
-43 4 -54 41 6 
-77 26 57 21 -32 
93 81 70 117 -96 

11 -26 -75 17 94 
8 -75 15 92 73 
8 -80 76 76 -80 
-59 68 -88 124 77 
-24 -65 -117 38 60 


-25 76 88 -115 -97 
-40 76 -83 -93 107 
83 94 -87 115 -109 
125 19 -2 99 -115 
57 20 -121 -24 44 

62 72 46 40 -118 
72 83 -113 -64 88 
124 10 -51 -88 -30 
34 -10 109 54 -41 
-18 -118 93 60 -51 

25 -124 -36 -4 96 
22 -64 -115 -9 1 
27 -19 -77 61 10 
2 -52 -81 33 -122 
61 -124 32 66 34 

86 103 15 -106 42 
-90 -111 -18 -73 -47 
3 60 30 23 76 
-36 -46 13 16 33 
3 -23 87 123 109 

-68 66 -92 -84 -20 
99 -115 -40 18 83 
-51 50 67 -91 89 
-60 76 -13 116 -113 
88 37 5 -6 -55 

-28 15 -95 -47 18 
88 4 -74 115 123 
84 -37 -59 -14 106 
-28 18 -123 -17 -9 
-89 -11 -115 104 -117 

71 -70 34 -15 42 
-9 34 -73 -117 -55 
-43 4 -54 41 6 
-77 26 57 21 -32 
93 81 70 117 -96 

11 -26 -75 17 94 
8 -75 15 92 73 
8 -80 76 76 -80 
-59 68 -88 124 77 
-24 -65 -117 38 60 



-25 76 88 -115 -97 
-40 76 -83 -93 107 
83 94 -87 115 -109 
125 19 -2 99 -115 
57 20 -121 -24 44 

62 72 46 40 -118 
72 83 -113 -64 88 
124 10 -51 -88 -30 
34 -10 109 54 -41 
-18 -118 93 60 -51 

25 -124 -36 -4 96 
22 -64 -115 -9 1 
27 -19 -77 61 10 
2 -52 -81 33 -122 
61 -124 32 66 34 

86 103 15 -106 42 
-90 -111 -18 -73 -47 
3 60 30 23 76 
-36 -46 13 16 33 
3 -23 87 123 109 

-68 66 -92 -84 -20 
99 -115 -40 18 83 
-51 50 67 -91 89 
-60 76 -13 116 -113 
88 37 5 -6 -55 

-28 15 -95 -47 18 
88 4 -74 115 123 
84 -37 -59 -14 106 
-28 18 -123 -17 -9 
-89 -11 -115 104 -117 

71 -70 34 -15 42 
-9 34 -73 -117 -55 
-43 4 -54 41 6 
-77 26 57 21 -32 
93 81 70 117 -96 

11 -26 -75 17 94 
8 -75 15 92 73 
8 -80 76 76 -80 
-59 68 -88 124 77 
-24 -65 -117 38 60 


-25 76 88 -115 -97 
-40 76 -83 -93 107 
83 94 -87 115 -109 
125 19 -2 99 -115 
57 20 -121 -24 44 

62 72 46 40 -118 
72 83 -113 -64 88 
124 10 -51 -88 -30 
34 -10 109 54 -41 
-18 -118 93 60 -51 

25 -124 -36 -4 96 
22 -64 -115 -9 1 
27 -19 -77 61 10 
2 -52 -81 33 -122 
61 -124 32 66 34 

86 103 15 -106 42 
-90 -111 -18 -73 -47 
3 60 30 23 76 
-36 -46 13 16 33 
3 -23 87 123 109 

-68 66 -92 -84 -20 
99 -115 -40 18 83 
-51 50 67 -91 89 
-60 76 -13 116 -113 
88 37 5 -6 -55 

-28 15 -95 -47 18 
88 4 -74 115 123 
84 -37 -59 -14 106 
-28 18 -123 -17 -9 
-89 -11 -115 104 -117 

71 -70 34 -15 42 
-9 34 -73 -117 -55 
-43 4 -54 41 6 
-77 26 57 21 -32 
93 81 70 117 -96 

11 -26 -75 17 94 
8 -75 15 92 73 
8 -80 76 76 -80 
-59 68 -88 124 77 
-24 -65 -117 38 60 


-25 76 88 -115 -97 
-40 76 -83 -93 107 
83 94 -87 115 -109 
125 19 -2 99 -115 
57 20 -121 -24 44 

62 72 46 40 -118 
72 83 -113 -64 88 
124 10 -51 -88 -30 
34 -10 109 54 -41 
-18 -118 93 60 -51 

25 -124 -36 -4 96 
22 -64 -115 -9 1 
27 -19 -77 61 10 
2 -52 -81 33 -122 
61 -124 32 66 34 

86 103 15 -106 42 
-90 -111 -18 -73 -47 
3 60 30 23 76 
-36 -46 13 16 33 
3 -23 87 123 109 

-68 66 -92 -84 -20 
99 -115 -40 18 83 
-51 50 67 -91 89 
-60 76 -13 116 -113 
88 37 5 -6 -55 

-28 15 -95 -47 18 
88 4 -74 115 123 
84 -37 -59 -14 106 
-28 18 -123 -17 -9 
-89 -11 -115 104 -117 

71 -70 34 -15 42 
-9 34 -73 -117 -55 
-43 4 -54 41 6 
-77 26 57 21 -32 
93 81 70 117 -96 

11 -26 -75 17 94 
8 -75 15 92 73 
8 -80 76 76 -80 
-59 68 -88 124 77 
-24 -65 -117 38 60 


-25 76 88 -115 -97 
-40 76 -83 -93 107 
83 94 -87 115 -109 
125 19 -2 99 -115 
57 20 -121 -24 44 

62 72 46 40 -118 
72 83 -113 -64 88 
124 10 -51 -88 -30 
34 -10 109 54 -41 
-18 -118 93 60 -51 

25 -124 -36 -4 96 
22 -64 -115 -9 1 
27 -19 -77 61 10 
2 -52 -81 33 -122 
61 -124 32 66 34 

86 103 15 -106 42 
-90 -111 -18 -73 -47 
3 60 30 23 76 
-36 -46 13 16 33 
3 -23 87 123 109 

-68 66 -92 -84 -20 
99 -115 -40 18 83 
-51 50 67 -91 89 
-60 76 -13 116 -113 
88 37 5 -6 -55 

-28 15 -95 -47 18 
88 4 -74 115 123 
84 -37 -59 -14 106 
-28 18 -123 -17 -9 
-89 -11 -115 104 -117 

71 -70 34 -15 42 
-9 34 -73 -117 -55 
-43 4 -54 41 6 
-77 26 57 21 -32 
93 81 70 117 -96 

11 -26 -75 17 94 
8 -75 15 92 73 
8 -80 76 76 -80 
-59 68 -88 124 77 
-24 -65 -117 38 60 



-25 76 88 -115 -97 
-40 76 -83 -93 107 
83 94 -87 115 -109 
125 19 -2 99 -115 
57 20 -121 -24 44 

62 72 46 40 -118 
72 83 -113 -64 88 
124 10 -51 -88 -30 
34 -10 109 54 -41 
-18 -118 93 60 -51 

25 -124 -36 -4 96 
22 -64 -115 -9 1 
27 -19 -77 61 10 
2 -52 -81 33 -122 
61 -124 32 66 34 

86 103 15 -106 42 
-90 -111 -18 -73 -47 
3 60 30 23 76 
-36 -46 13 16 33 
3 -23 87 123 109 

-68 66 -92 -84 -20 
99 -115 -40 18 83 
-51 50 67 -91 89 
-60 76 -13 116 -113 
88 37 5 -6 -55 

-28 15 -95 -47 18 
88 4 -74 115 123 
84 -37 -59 -14 106 
-28 18 -123 -17 -9 
-89 -11 -115 104 -117 

71 -70 34 -15 42 
-9 34 -73 -117 -55 
-43 4 -54 41 6 
-77 26 57 21 -32 
93 81 70 117 -96 

11 -26 -75 17 94 
8 -75 15 92 73 
8 -80 76 76 -80 
-59 68 -88 124 77 
-24 -65 -117 38 60 


-25 76 88 -115 -97 
-40 76 -83 -93 107 
83 94 -87 115 -109 
125 19 -2 99 -115 
57 20 -121 -24 44 

62 72 46 40 -118 
72 83 -113 -64 88 
124 10 -51 -88 -30 
34 -10 109 54 -41 
-18 -118 93 60 -51 

25 -124 -36 -4 96 
22 -64 -115 -9 1 
27 -19 -77 61 10 
2 -52 -81 33 -122 
61 -124 32 66 34 

86 103 15 -106 42 
-90 -111 -18 -73 -47 
3 60 30 23 76 
-36 -46 13 16 33 
3 -23 87 123 109 

-68 66 -92 -84 -20 
99 -115 -40 18 83 
-51 50 67 -91 89 
-60 76 -13 116 -113 
88 37 5 -6 -55 

-28 15 -95 -47 18 
88 4 -74 115 123 
84 -37 -59 -14 106 
-28 18 -123 -17 -9 
-89 -11 -115 104 -117 

71 -70 34 -15 42 
-9 34 -73 -117 -55 
-43 4 -54 41 6 
-77 26 57 21 -32 
93 81 70 117 -96 

11 -26 -75 17 94 
8 -75 15 92 73 
8 -80 76 76 -80 
-59 68 -88 124 77 
-24 -65 -117 38 60 


-25 76 88 -115 -97 
-40 76 -83 -93 107 
83 94 -87 115 -109 
125 19 -2 99 -115 
57 20 -121 -24 44 

62 72 46 40 -118 
72 83 -113 -64 88 
124 10 -51 -88 -30 
34 -10 109 54 -41 
-18 -118 93 60 -51 

25 -124 -36 -4 96 
22 -64 -115 -9 1 
27 -19 -77 61 10 
2 -52 -81 33 -122 
61 -124 32 66 34 

86 103 15 -106 42 
-90 -111 -18 -73 -47 
3 60 30 23 76 
-36 -46 13 16 33 
3 -23 87 123 109 

-68 66 -92 -84 -20 
99 -115 -40 18 83 
-51 50 67 -91 89 
-60 76 -13 116 -113 
88 37 5 -6 -55 

-28 15 -95 -47 18 
88 4 -74 115 123 
84 -37 -59 -14 106 
-28 18 -123 -17 -9 
-89 -11 -115 104 -117 

71 -70 34 -15 42 
-9 34 -73 -117 -55 
-43 4 -54 41 6 
-77 26 57 21 -32 
93 81 70 117 -96 

11 -26 -75 17 94 
8 -75 15 92 73 
8 -80 76 76 -80 
-59 68 -88 124 77 
-24 -65 -117 38 60 


-25 76 88 -115 -97 
-40 76 -83 -93 107 
83 94 -87 115 -109 
125 19 -2 99 -115 
57 20 -121 -24 44 

62 72 46 40 -118 
72 83 -113 -64 88 
124 10 -51 -88 -30 
34 -10 109 54 -41 
-18 -118 93 60 -51 

25 -124 -36 -4 96 
22 -64 -115 -9 1 
27 -19 -77 61 10 
2 -52 -81 33 -122 
61 -124 32 66 34 

86 103 15 -106 42 
-90 -111 -18 -73 -47 
3 60 30 23 76 
-36 -46 13 16 33 
3 -23 87 123 109 

-68 66 -92 -84 -20 
99 -115 -40 18 83 
-51 50 67 -91 89 
-60 76 -13 116 -113 
88 37 5 -6 -55 

-28 15 -95 -47 18 
88 4 -74 115 123 
84 -37 -59 -14 106 
-28 18 -123 -17 -9 
-89 -11 -115 104 -117 

71 -70 34 -15 42 
-9 34 -73 -117 -55 
-43 4 -54 41 6 
-77 26 57 21 -32 
93 81 70 117 -96 

11 -26 -75 17 94 
8 -75 15 92 73 
8 -80 76 76 -80 
-59 68 -88 124 77 
-24 -65 -117 38 60 



-25 76 88 -115 -97 
-40 76 -83 -93 107 
83 94 -87 115 -109 
125 19 -2 99 -115 
57 20 -121 -24 44 

62 72 46 40 -118 
72 83 -113 -64 88 
124 10 -51 -88 -30 
34 -10 109 54 -41 
-18 -118 93 60 -51 

25 -124 -36 -4 96 
22 -64 -115 -9 1 
27 -19 -77 61 10 
2 -52 -81 33 -122 
61 -124 32 66 34 

86 103 15 -106 42 
-90 -111 -18 -73 -47 
3 60 30 23 76 
-36 -46 13 16 33 
3 -23 87 123 109 

-68 66 -92 -84 -20 
99 -115 -40 18 83 
-51 50 67 -91 89 
-60 76 -13 116 -113 
88 37 5 -6 -55 

-28 15 -95 -47 18 
88 4 -74 115 123 
84 -37 -59 -14 106 
-28 18 -123 -17 -9 
-89 -11 -115 104 -117 

71 -70 34 -15 42 
-9 34 -73 -117 -55 
-43 4 -54 41 6 
-77 26 57 21 -32 
93 81 70 117 -96 

11 -26 -75 17 94 
8 -75 15 92 73 
8 -80 76 76 -80 
-59 68 -88 124 77 
-24 -65 -117 38 60 


-25 76 88 -115 -97 
-40 76 -83 -93 107 
83 94 -87 115 -109 
125 19 -2 99 -115 
57 20 -121 -24 44 

62 72 46 40 -118 
72 83 -113 -64 88 
124 10 -51 -88 -30 
34 -10 109 54 -41 
-18 -118 93 60 -51 

25 -124 -36 -4 96 
22 -64 -115 -9 1 
27 -19 -77 61 10 
2 -52 -81 33 -122 
61 -124 32 66 34 

86 103 15 -106 42 
-90 -111 -18 -73 -47 
3 60 30 23 76 
-36 -46 13 16 33 
3 -23 87 123 109 

-68 66 -92 -84 -20 
99 -115 -40 18 83 
-51 50 67 -91 89 
-60 76 -13 116 -113 
88 37 5 -6 -55 

-28 15 -95 -47 18 
88 4 -74 115 123 
84 -37 -59 -14 106 
-28 18 -123 -17 -9 
-89 -11 -115 104 -117 

71 -70 34 -15 42 
-9 34 -73 -117 -55 
-43 4 -54 41 6 
-77 26 57 21 -32 
93 81 70 117 -96 

11 -26 -75 17 94 
8 -75 15 92 73 
8 -80 76 76 -80 
-59 68 -88 124 77 
-24 -65 -117 38 60 


-25 76 88 -115 -97 
-40 76 -83 -93 107 
83 94 -87 115 -109 
125 19 -2 99 -115 
57 20 -121 -24 44 

62 72 46 40 -118 
72 83 -113 -64 88 
124 10 -51 -88 -30 
34 -10 109 54 -41 
-18 -118 93 60 -51 

25 -124 -36 -4 96 
22 -64 -115 -9 1 
27 -19 -77 61 10 
2 -52 -81 33 -122 
61 -124 32 66 34 

86 103 15 -106 42 
-90 -111 -18 -73 -47 
3 60 30 23 76 
-36 -46 13 16 33 
3 -23 87 123 109 

-68 66 -92 -84 -20 
99 -115 -40 18 83 
-51 50 67 -91 89 
-60 76 -13 116 -113 
88 37 5 -6 -55 

-28 15 -95 -47 18 
88 4 -74 115 123 
84 -37 -59 -14 106 
-28 18 -123 -17 -9 
-89 -11 -115 104 -117 

71 -70 34 -15 42 
-9 34 -73 -117 -55 
-43 4 -54 41 6 
-77 26 57 21 -32 
93 81 70 117 -96 

11 -26 -75 17 94 
8 -75 15 92 73 
8 -80 76 76 -80 
-59 68 -88 124 77 
-24 -65 -117 38 60 


-25 76 88 -115 -97 
-40 76 -83 -93 107 
83 94 -87 115 -109 
125 19 -2 99 -115 
57 20 -121 -24 44 

62 72 46 40 -118 
72 83 -113 -64 88 
124 10 -51 -88 -30 
34 -10 109 54 -41 
-18 -118 93 60 -51 

25 -124 -36 -4 96 
22 -64 -115 -9 1 
27 -19 -77 61 10 
2 -52 -81 33 -122 
61 -124 32 66 34 

86 103 15 -106 42 
-90 -111 -18 -73 -47 
3 60 30 23 76 
-36 -46 13 16 33 
3 -23 87 123 109 

-68 66 -92 -84 -20 
99 -115 -40 18 83 
-51 50 67 -91 89 
-60 76 -13 116 -113 
88 37 5 -6 -55 

-28 15 -95 -47 18 
88 4 -74 115 123 
84 -37 -59 -14 106 
-28 18 -123 -17 -9 
-89 -11 -115 104 -117 

71 -70 34 -15 42 
-9 34 -73 -117 -55 
-43 4 -54 41 6 
-77 26 57 21 -32 
93 81 70 117 -96 

11 -26 -75 17 94 
8 -75 15 92 73 
8 -80 76 76 -80 
-59 68 -88 124 77 
-24 -65 -117 38 60 




-62 -103 62 90 -63 
12 52 5 71 11 
-84 -48 -66 22 -108 
94 -120 114 61 106 
13 118 51 -45 -8 

66 -48 59 -74 18 
-77 74 123 30 -127 
72 19 24 2 114 
-121 -1 -92 -42 20 
-111 4 -15 -39 -90 

-71 -6 99 37 -55 
8 -118 10 -65 -41 
40 -61 -123 -104 -58 
28 4 49 -81 -51 
57 -39 -46 -9 12 

24 28 60 -126 58 
-127 110 -74 65 47 
-21 -77 37 -97 -10 
45 104 45 -36 -72 
118 96 -53 -12 -47 

-89 87 46 -71 6 
0 73 -109 81 -69 
-123 24 -95 60 -65 
91 100 -12 -128 49 
40 63 -7 -66 -86 

-39 49 -31 90 -22 
-66 -90 3 57 -32 
-115 84 39 70 112 
-26 126 53 35 -104 
116 34 62 -98 126 

49 -76 -49 -126 14 
88 -85 -97 -31 -24 
-11 -14 -2 -43 -65 
-43 -117 87 106 -3 
123 102 87 -88 -93 

21 31 14 121 -68 
25 5 -55 3 -100 
-21 19 3 18 -109 
-107 86 62 -68 -79 
8 -36 -57 13 -93 


-62 -103 62 90 -63 
12 52 5 71 11 
-84 -48 -66 22 -108 
94 -120 114 61 106 
13 118 51 -45 -8 

66 -48 59 -74 18 
-77 74 123 30 -127 
72 19 24 2 114 
-121 -1 -92 -42 20 
-111 4 -15 -39 -90 

-71 -6 99 37 -55 
8 -118 10 -65 -41 
40 -61 -123 -104 -58 
28 4 49 -81 -51 
57 -39 -46 -9 12 

24 28 60 -126 58 
-127 110 -74 65 47 
-21 -77 37 -97 -10 
45 104 45 -36 -72 
118 96 -53 -12 -47 

-89 87 46 -71 6 
0 73 -109 81 -69 
-123 24 -95 60 -65 
91 100 -12 -128 49 
40 63 -7 -66 -86 

-39 49 -31 90 -22 
-66 -90 3 57 -32 
-115 84 39 70 112 
-26 126 53 35 -104 
116 34 62 -98 126 

49 -76 -49 -126 14 
88 -85 -97 -31 -24 
-11 -14 -2 -43 -65 
-43 -117 87 106 -3 
123 102 87 -88 -93 

21 31 14 121 -68 
25 5 -55 3 -100 
-21 19 3 18 -109 
-107 86 62 -68 -79 
8 -36 -57 13 -93 


-62 -103 62 90 -63 
12 52 5 71 11 
-84 -48 -66 22 -108 
94 -120 114 61 106 
13 118 51 -45 -8 

66 -48 59 -74 18 
-77 74 123 30 -127 
72 19 24 2 114 
-121 -1 -92 -42 20 
-111 4 -15 -39 -90 

-71 -6 99 37 -55 
8 -118 10 -65 -41 
40 -61 -123 -104 -58 
28 4 49 -81 -51 
57 -39 -46 -9 12 

24 28 60 -126 58 
-127 110 -74 65 47 
-21 -77 37 -97 -10 
45 104 45 -36 -72 
118 96 -53 -12 -47 

-89 87 46 -71 6 
0 73 -109 81 -69 
-123 24 -95 60 -65 
91 100 -12 -128 49 
40 63 -7 -66 -86 

-39 49 -31 90 -22 
-66 -90 3 57 -32 
-115 84 39 70 112 
-26 126 53 35 -104 
116 34 62 -98 126 

49 -76 -49 -126 14 
88 -85 -97 -31 -24 
-11 -14 -2 -43 -65 
-43 -117 87 106 -3 
123 102 87 -88 -93 

21 31 14 121 -68 
25 5 -55 3 -100 
-21 19 3 18 -109 
-107 86 62 -68 -79 
8 -36 -57 13 -93 


-62 -103 62 90 -63 
12 52 5 71 11 
-84 -48 -66 22 -108 
94 -120 114 61 106 
13 118 51 -45 -8 

66 -48 59 -74 18 
-77 74 123 30 -127 
72 19 24 2 114 
-121 -1 -92 -42 20 
-111 4 -15 -39 -90 

-71 -6 99 37 -55 
8 -118 10 -65 -41 
40 -61 -123 -104 -58 
28 4 49 -81 -51 
57 -39 -46 -9 12 

24 28 60 -126 58 
-127 110 -74 65 47 
-21 -77 37 -97 -10 
45 104 45 -36 -72 
118 96 -53 -12 -47 

-89 87 46 -71 6 
0 73 -109 81 -69 
-123 24 -95 60 -65 
91 100 -12 -128 49 
40 63 -7 -66 -86 

-39 49 -31 90 -22 
-66 -90 3 57 -32 
-115 84 39 70 112 
-26 126 53 35 -104 
116 34 62 -98 126 

49 -76 -49 -126 14 
88 -85 -97 -31 -24 
-11 -14 -2 -43 -65 
-43 -117 87 106 -3 
123 102 87 -88 -93 

21 31 14 121 -68 
25 5 -55 3 -100 
-21 19 3 18 -109 
-107 86 62 -68 -79 
8 -36 -57 13 -93 



-62 -103 62 90 -63 
12 52 5 71 11 
-84 -48 -66 22 -108 
94 -120 114 61 106 
13 118 51 -45 -8 

66 -48 59 -74 18 
-77 74 123 30 -127 
72 19 24 2 114 
-121 -1 -92 -42 20 
-111 4 -15 -39 -90 

-71 -6 99 37 -55 
8 -118 10 -65 -41 
40 -61 -123 -104 -58 
28 4 49 -81 -51 
57 -39 -46 -9 12 

24 28 60 -126 58 
-127 110 -74 65 47 
-21 -77 37 -97 -10 
45 104 45 -36 -72 
118 96 -53 -12 -47 

-89 87 46 -71 6 
0 73 -109 81 -69 
-123 24 -95 60 -65 
91 100 -12 -128 49 
40 63 -7 -66 -86 

-39 49 -31 90 -22 
-66 -90 3 57 -32 
-115 84 39 70 112 
-26 126 53 35 -104 
116 34 62 -98 126 

49 -76 -49 -126 14 
88 -85 -97 -31 -24 
-11 -14 -2 -43 -65 
-43 -117 87 106 -3 
123 102 87 -88 -93 

21 31 14 121 -68 
25 5 -55 3 -100 
-21 19 3 18 -109 
-107 86 62 -68 -79 
8 -36 -57 13 -93 


-62 -103 62 90 -63 
12 52 5 71 11 
-84 -48 -66 22 -108 
94 -120 114 61 106 
13 118 51 -45 -8 

66 -48 59 -74 18 
-77 74 123 30 -127 
72 19 24 2 114 
-121 -1 -92 -42 20 
-111 4 -15 -39 -90 

-71 -6 99 37 -55 
8 -118 10 -65 -41 
40 -61 -123 -104 -58 
28 4 49 -81 -51 
57 -39 -46 -9 12 

24 28 60 -126 58 
-127 110 -74 65 47 
-21 -77 37 -97 -10 
45 104 45 -36 -72 
118 96 -53 -12 -47 

-89 87 46 -71 6 
0 73 -109 81 -69 
-123 24 -95 60 -65 
91 100 -12 -128 49 
40 63 -7 -66 -86 

-39 49 -31 90 -22 
-66 -90 3 57 -32 
-115 84 39 70 112 
-26 126 53 35 -104 
116 34 62 -98 126 

49 -76 -49 -126 14 
88 -85 -97 -31 -24 
-11 -14 -2 -43 -65 
-43 -117 87 106 -3 
123 102 87 -88 -93 

21 31 14 121 -68 
25 5 -55 3 -100 
-21 19 3 18 -109 
-107 86 62 -68 -79 
8 -36 -57 13 -93 


-62 -103 62 90 -63 
12 52 5 71 11 
-84 -48 -66 22 -108 
94 -120 114 61 106 
13 118 51 -45 -8 

66 -48 59 -74 18 
-77 74 123 30 -127 
72 19 24 2 114 
-121 -1 -92 -42 20 
-111 4 -15 -39 -90 

-71 -6 99 37 -55 
8 -118 10 -65 -41 
40 -61 -123 -104 -58 
28 4 49 -81 -51 
57 -39 -46 -9 12 

24 28 60 -126 58 
-127 110 -74 65 47 
-21 -77 37 -97 -10 
45 104 45 -36 -72 
118 96 -53 -12 -47 

-89 87 46 -71 6 
0 73 -109 81 -69 
-123 24 -95 60 -65 
91 100 -12 -128 49 
40 63 -7 -66 -86 

-39 49 -31 90 -22 
-66 -90 3 57 -32 
-115 84 39 70 112 
-26 126 53 35 -104 
116 34 62 -98 126 

49 -76 -49 -126 14 
88 -85 -97 -31 -24 
-11 -14 -2 -43 -65 
-43 -117 87 106 -3 
123 102 87 -88 -93 

21 31 14 121 -68 
25 5 -55 3 -100 
-21 19 3 18 -109 
-107 86 62 -68 -79 
8 -36 -57 13 -93 


-62 -103 62 90 -63 
12 52 5 71 11 
-84 -48 -66 22 -108 
94 -120 114 61 106 
13 118 51 -45 -8 

66 -48 59 -74 18 
-77 74 123 30 -127 
72 19 24 2 114 
-121 -1 -92 -42 20 
-111 4 -15 -39 -90 

-71 -6 99 37 -55 
8 -118 10 -65 -41 
40 -61 -123 -104 -58 
28 4 49 -81 -51 
57 -39 -46 -9 12 

24 28 60 -126 58 
-127 110 -74 65 47 
-21 -77 37 -97 -10 
45 104 45 -36 -72 
118 96 -53 -12 -47 

-89 87 46 -71 6 
0 73 -109 81 -69 
-123 24 -95 60 -65 
91 100 -12 -128 49 
40 63 -7 -66 -86 

-39 49 -31 90 -22 
-66 -90 3 57 -32 
-115 84 39 70 112 
-26 126 53 35 -104 
116 34 62 -98 126 

49 -76 -49 -126 14 
88 -85 -97 -31 -24 
-11 -14 -2 -43 -65 
-43 -117 87 106 -3 
123 102 87 -88 -93 

21 31 14 121 -68 
25 5 -55 3 -100 
-21 19 3 18 -109 
-107 86 62 -68 -79 
8 -36 -57 13 -93 



-62 -103 62 90 -63 
12 52 5 71 11 
-84 -48 -66 22 -108 
94 -120 114 61 106 
13 118 51 -45 -8 

66 -48 59 -74 18 
-77 74 123 30 -127 
72 19 24 2 114 
-121 -1 -92 -42 20 
-111 4 -15 -39 -90 

-71 -6 99 37 -55 
8 -118 10 -65 -41 
40 -61 -123 -104 -58 
28 4 49 -81 -51 
57 -39 -46 -9 12 

24 28 60 -126 58 
-127 110 -74 65 47 
-21 -77 37 -97 -10 
45 104 45 -36 -72 
118 96 -53 -12 -47 

-89 87 46 -71 6 
0 73 -109 81 -69 
-123 24 -95 60 -65 
91 100 -12 -128 49 
40 63 -7 -66 -86 

-39 49 -31 90 -22 
-66 -90 3 57 -32 
-115 84 39 70 112 
-26 126 53 35 -104 
116 34 62 -98 126 

49 -76 -49 -126 14 
88 -85 -97 -31 -24 
-11 -14 -2 -43 -65 
-43 -117 87 106 -3 
123 102 87 -88 -93 

21 31 14 121 -68 
25 5 -55 3 -100 
-21 19 3 18 -109 
-107 86 62 -68 -79 
8 -36 -57 13 -93 


-62 -103 62 90 -63 
12 52 5 71 11 
-84 -48 -66 22 -108 
94 -120 114 61 106 
13 118 51 -45 -8 

66 -48 59 -74 18 
-77 74 123 30 -127 
72 19 24 2 114 
-121 -1 -92 -42 20 
-111 4 -15 -39 -90 

-71 -6 99 37 -55 
8 -118 10 -65 -41 
40 -61 -123 -104 -58 
28 4 49 -81 -51 
57 -39 -46 -9 12 

24 28 60 -126 58 
-127 110 -74 65 47 
-21 -77 37 -97 -10 
45 104 45 -36 -72 
118 96 -53 -12 -47 

-89 87 46 -71 6 
0 73 -109 81 -69 
-123 24 -95 60 -65 
91 100 -12 -128 49 
40 63 -7 -66 -86 

-39 49 -31 90 -22 
-66 -90 3 57 -32 
-115 84 39 70 112 
-26 126 53 35 -104 
116 34 62 -98 126 

49 -76 -49 -126 14 
88 -85 -97 -31 -24 
-11 -14 -2 -43 -65 
-43 -117 87 106 -3 
123 102 87 -88 -93 

21 31 14 121 -68 
25 5 -55 3 -100 
-21 19 3 18 -109 
-107 86 62 -68 -79 
8 -36 -57 13 -93 


-62 -103 62 90 -63 
12 52 5 71 11 
-84 -48 -66 22 -108 
94 -120 114 61 106 
13 118 51 -45 -8 

66 -48 59 -74 18 
-77 74 123 30 -127 
72 19 24 2 114 
-121 -1 -92 -42 20 
-111 4 -15 -39 -90 

-71 -6 99 37 -55 
8 -118 10 -65 -41 
40 -61 -123 -104 -58 
28 4 49 -81 -51 
57 -39 -46 -9 12 

24 28 60 -126 58 
-127 110 -74 65 47 
-21 -77 37 -97 -10 
45 104 45 -36 -72 
118 96 -53 -12 -47 

-89 87 46 -71 6 
0 73 -109 81 -69 
-123 24 -95 60 -65 
91 100 -12 -128 49 
40 63 -7 -66 -86 

-39 49 -31 90 -22 
-66 -90 3 57 -32 
-115 84 39 70 112 
-26 126 53 35 -104 
116 34 62 -98 126 

49 -76 -49 -126 14 
88 -85 -97 -31 -24 
-11 -14 -2 -43 -65 
-43 -117 87 106 -3 
123 102 87 -88 -93 

21 31 14 121 -68 
25 5 -55 3 -100 
-21 19 3 18 -109 
-107 86 62 -68 -79 
8 -36 -57 13 -93 


-62 -103 62 90 -63 
12 52 5 71 11 
-84 -48 -66 22 -108 
94 -120 114 61 106 
13 118 51 -45 -8 

66 -48 59 -74 18 
-77 74 123 30 -127 
72 19 24 2 114 
-121 -1 -92 -42 20 
-111 4 -15 -39 -90 

-71 -6 99 37 -55 
8 -118 10 -65 -41 
40 -61 -123 -104 -58 
28 4 49 -81 -51 
57 -39 -46 -9 12 

24 28 60 -126 58 
-127 110 -74 65 47 
-21 -77 37 -97 -10 
45 104 45 -36 -72 
118 96 -53 -12 -47 

-89 87 46 -71 6 
0 73 -109 81 -69 
-123 24 -95 60 -65 
91 100 -12 -128 49 
40 63 -7 -66 -86 

-39 49 -31 90 -22 
-66 -90 3 57 -32 
-115 84 39 70 112 
-26 126 53 35 -104 
116 34 62 -98 126 

49 -76 -49 -126 14 
88 -85 -97 -31 -24 
-11 -14 -2 -43 -65 
-43 -117 87 106 -3 
123 102 87 -88 -93 

21 31 14 121 -68 
25 5 -55 3 -100 
-21 19 3 18 -109 
-107 86 62 -68 -79 
8 -36 -57 13 -93 



-62 -103 62 90 -63 
12 52 5 71 11 
-84 -48 -66 22 -108 
94 -120 114 61 106 
13 118 51 -45 -8 

66 -48 59 -74 18 
-77 74 123 30 -127 
72 19 24 2 114 
-121 -1 -92 -42 20 
-111 4 -15 -39 -90 

-71 -6 99 37 -55 
8 -118 10 -65 -41 
40 -61 -123 -104 -58 
28 4 49 -81 -51 
57 -39 -46 -9 12 

24 28 60 -126 58 
-127 110 -74 65 47 
-21 -77 37 -97 -10 
45 104 45 -36 -72 
118 96 -53 -12 -47 

-89 87 46 -71 6 
0 73 -109 81 -69 
-123 24 -95 60 -65 
91 100 -12 -128 49 
40 63 -7 -66 -86 

-39 49 -31 90 -22 
-66 -90 3 57 -32 
-115 84 39 70 112 
-26 126 53 35 -104 
116 34 62 -98 126 

49 -76 -49 -126 14 
88 -85 -97 -31 -24 
-11 -14 -2 -43 -65 
-43 -117 87 106 -3 
123 102 87 -88 -93 

21 31 14 121 -68 
25 5 -55 3 -100 
-21 19 3 18 -109 
-107 86 62 -68 -79 
8 -36 -57 13 -93 


-62 -103 62 90 -63 
12 52 5 71 11 
-84 -48 -66 22 -108 
94 -120 114 61 106 
13 118 51 -45 -8 

66 -48 59 -74 18 
-77 74 123 30 -127 
72 19 24 2 114 
-121 -1 -92 -42 20 
-111 4 -15 -39 -90 

-71 -6 99 37 -55 
8 -118 10 -65 -41 
40 -61 -123 -104 -58 
28 4 49 -81 -51 
57 -39 -46 -9 12 

24 28 60 -126 58 
-127 110 -74 65 47 
-21 -77 37 -97 -10 
45 104 45 -36 -72 
118 96 -53 -12 -47 

-89 87 46 -71 6 
0 73 -109 81 -69 
-123 24 -95 60 -65 
91 100 -12 -128 49 
40 63 -7 -66 -86 

-39 49 -31 90 -22 
-66 -90 3 57 -32 
-115 84 39 70 112 
-26 126 53 35 -104 
116 34 62 -98 126 

49 -76 -49 -126 14 
88 -85 -97 -31 -24 
-11 -14 -2 -43 -65 
-43 -117 87 106 -3 
123 102 87 -88 -93 

21 31 14 121 -68 
25 5 -55 3 -100 
-21 19 3 18 -109 
-107 86 62 -68 -79 
8 -36 -57 13 -93 


-62 -103 62 90 -63 
12 52 5 71 11 
-84 -48 -66 22 -108 
94 -120 114 61 106 
13 118 51 -45 -8 

66 -48 59 -74 18 
-77 74 123 30 -127 
72 19 24 2 114 
-121 -1 -92 -42 20 
-111 4 -15 -39 -90 

-71 -6 99 37 -55 
8 -118 10 -65 -41 
40 -61 -123 -104 -58 
28 4 49 -81 -51 
57 -39 -46 -9 12 

24 28 60 -126 58 
-127 110 -74 65 47 
-21 -77 37 -97 -10 
45 104 45 -36 -72 
118 96 -53 -12 -47 

-89 87 46 -71 6 
0 73 -109 81 -69 
-123 24 -95 60 -65 
91 100 -12 -128 49 
40 63 -7 -66 -86 

-39 49 -31 90 -22 
-66 -90 3 57 -32 
-115 84 39 70 112 
-26 126 53 35 -104 
116 34 62 -98 126 

49 -76 -49 -126 14 
88 -85 -97 -31 -24 
-11 -14 -2 -43 -65 
-43 -117 87 106 -3 
123 102 87 -88 -93 

21 31 14 121 -68 
25 5 -55 3 -100 
-21 19 3 18 -109 
-107 86 62 -68 -79 
8 -36 -57 13 -93 


-62 -103 62 90 -63 
12 52 5 71 11 
-84 -48 -66 22 -108 
94 -120 114 61 106 
13 118 51 -45 -8 

66 -48 59 -74 18 
-77 74 123 30 -127 
72 19 24 2 114 
-121 -1 -92 -42 20 
-111 4 -15 -39 -90 

-71 -6 99 37 -55 
8 -118 10 -65 -41 
40 -61 -123 -104 -58 
28 4 49 -81 -51 
57 -39 -46 -9 12 

24 28 60 -126 58 
-127 110 -74 65 47 
-21 -77 37 -97 -10 
45 104 45 -36 -72 
118 96 -53 -12 -47 

-89 87 46 -71 6 
0 73 -109 81 -69 
-123 24 -95 60 -65 
91 100 -12 -128 49 
40 63 -7 -66 -86 

-39 49 -31 90 -22 
-66 -90 3 57 -32 
-115 84 39 70 112 
-26 126 53 35 -104 
116 34 62 -98 126 

49 -76 -49 -126 14 
88 -85 -97 -31 -24 
-11 -14 -2 -43 -65 
-43 -117 87 106 -3 
123 102 87 -88 -93 

21 31 14 121 -68 
25 5 -55 3 -100 
-21 19 3 18 -109 
-107 86 62 -68 -79 
8 -36 -57 13 -93 



-62 -103 62 90 -63 
12 52 5 71 11 
-84 -48 -66 22 -108 
94 -120 114 61 106 
13 118 51 -45 -8 

66 -48 59 -74 18 
-77 74 123 30 -127 
72 19 24 2 114 
-121 -1 -92 -42 20 
-111 4 -15 -39 -90 

-71 -6 99 37 -55 
8 -118 10 -65 -41 
40 -61 -123 -104 -58 
28 4 49 -81 -51 
57 -39 -46 -9 12 

24 28 60 -126 58 
-127 110 -74 65 47 
-21 -77 37 -97 -10 
45 104 45 -36 -72 
118 96 -53 -12 -47 

-89 87 46 -71 6 
0 73 -109 81 -69 
-123 24 -95 60 -65 
91 100 -12 -128 49 
40 63 -7 -66 -86 

-39 49 -31 90 -22 
-66 -90 3 57 -32 
-115 84 39 70 112 
-26 126 53 35 -104 
116 34 62 -98 126 

49 -76 -49 -126 14 
88 -85 -97 -31 -24 
-11 -14 -2 -43 -65 
-43 -117 87 106 -3 
123 102 87 -88 -93 

21 31 14 121 -68 
25 5 -55 3 -100 
-21 19 3 18 -109 
-107 86 62 -68 -79 
8 -36 -57 13 -93 


-62 -103 62 90 -63 
12 52 5 71 11 
-84 -48 -66 22 -108 
94 -120 114 61 106 
13 118 51 -45 -8 

66 -48 59 -74 18 
-77 74 123 30 -127 
72 19 24 2 114 
-121 -1 -92 -42 20 
-111 4 -15 -39 -90 

-71 -6 99 37 -55 
8 -118 10 -65 -41 
40 -61 -123 -104 -58 
28 4 49 -81 -51 
57 -39 -46 -9 12 

24 28 60 -126 58 
-127 110 -74 65 47 
-21 -77 37 -97 -10 
45 104 45 -36 -72 
118 96 -53 -12 -47 

-89 87 46 -71 6 
0 73 -109 81 -69 
-123 24 -95 60 -65 
91 100 -12 -128 49 
40 63 -7 -66 -86 

-39 49 -31 90 -22 
-66 -90 3 57 -32 
-115 84 39 70 112 
-26 126 53 35 -104 
116 34 62 -98 126 

49 -76 -49 -126 14 
88 -85 -97 -31 -24 
-11 -14 -2 -43 -65 
-43 -117 87 106 -3 
123 102 87 -88 -93 

21 31 14 121 -68 
25 5 -55 3 -100 
-21 19 3 18 -109 
-107 86 62 -68 -79 
8 -36 -57 13 -93 


-62 -103 62 90 -63 
12 52 5 71 11 
-84 -48 -66 22 -108 
94 -120 114 61 106 
13 118 51 -45 -8 

66 -48 59 -74 18 
-77 74 123 30 -127 
72 19 24 2 114 
-121 -1 -92 -42 20 
-111 4 -15 -39 -90 

-71 -6 99 37 -55 
8 -118 10 -65 -41 
40 -61 -123 -104 -58 
28 4 49 -81 -51 
57 -39 -46 -9 12 

24 28 60 -126 58 
-127 110 -74 65 47 
-21 -77 37 -97 -10 
45 104 45 -36 -72 
118 96 -53 -12 -47 

-89 87 46 -71 6 
0 73 -109 81 -69 
-123 24 -95 60 -65 
91 100 -12 -128 49 
40 63 -7 -66 -86 

-39 49 -31 90 -22 
-66 -90 3 57 -32 
-115 84 39 70 112 
-26 126 53 35 -104 
116 34 62 -98 126 

49 -76 -49 -126 14 
88 -85 -97 -31 -24 
-11 -14 -2 -43 -65 
-43 -117 87 106 -3 
123 102 87 -88 -93 

21 31 14 121 -68 
25 5 -55 3 -100 
-21 19 3 18 -109 
-107 86 62 -68 -79 
8 -36 -57 13 -93 


-62 -103 62 90 -63 
12 52 5 71 11 
-84 -48 -66 22 -108 
94 -120 114 61 106 
13 118 51 -45 -8 

66 -48 59 -74 18 
-77 74 123 30 -127 
72 19 24 2 114 
-121 -1 -92 -42 20 
-111 4 -15 -39 -90 

-71 -6 99 37 -55 
8 -118 10 -65 -41 
40 -61 -123 -104 -58 
28 4 49 -81 -51 
57 -39 -46 -9 12 

24 28 60 -126 58 
-127 110 -74 65 47 
-21 -77 37 -97 -10 
45 104 45 -36 -72 
118 96 -53 -12 -47 

-89 87 46 -71 6 
0 73 -109 81 -69 
-123 24 -95 60 -65 
91 100 -12 -128 49 
40 63 -7 -66 -86 

-39 49 -31 90 -22 
-66 -90 3 57 -32 
-115 84 39 70 112 
-26 126 53 35 -104 
116 34 62 -98 126 

49 -76 -49 -126 14 
88 -85 -97 -31 -24 
-11 -14 -2 -43 -65 
-43 -117 87 106 -3 
123 102 87 -88 -93 

21 31 14 121 -68 
25 5 -55 3 -100 
-21 19 3 18 -109 
-107 86 62 -68 -79 
8 -36 -57 13 -93 



-62 -103 62 90 -63 
12 52 5 71 11 
-84 -48 -66 22 -108 
94 -120 114 61 106 
13 118 51 -45 -8 

66 -48 59 -74 18 
-77 74 123 30 -127 
72 19 24 2 114 
-121 -1 -92 -42 20 
-111 4 -15 -39 -90 

-71 -6 99 37 -55 
8 -118 10 -65 -41 
40 -61 -123 -104 -58 
28 4 49 -81 -51 
57 -39 -46 -9 12 

24 28 60 -126 58 
-127 110 -74 65 47 
-21 -77 37 -97 -10 
45 104 45 -36 -72 
118 96 -53 -12 -47 

-89 87 46 -71 6 
0 73 -109 81 -69 
-123 24 -95 60 -65 
91 100 -12 -128 49 
40 63 -7 -66 -86 

-39 49 -31 90 -22 
-66 -90 3 57 -32 
-115 84 39 70 112 
-26 126 53 35 -104 
116 34 62 -98 126 

49 -76 -49 -126 14 
88 -85 -97 -31 -24 
-11 -14 -2 -43 -65 
-43 -117 87 106 -3 
123 102 87 -88 -93 

21 31 14 121 -68 
25 5 -55 3 -100 
-21 19 3 18 -109 
-107 86 62 -68 -79 
8 -36 -57 13 -93 


-62 -103 62 90 -63 
12 52 5 71 11 
-84 -48 -66 22 -108 
94 -120 114 61 106 
13 118 51 -45 -8 

66 -48 59 -74 18 
-77 74 123 30 -127 
72 19 24 2 114 
-121 -1 -92 -42 20 
-111 4 -15 -39 -90 

-71 -6 99 37 -55 
8 -118 10 -65 -41 
40 -61 -123 -104 -58 
28 4 49 -81 -51 
57 -39 -46 -9 12 

24 28 60 -126 58 
-127 110 -74 65 47 
-21 -77 37 -97 -10 
45 104 45 -36 -72 
118 96 -53 -12 -47 

-89 87 46 -71 6 
0 73 -109 81 -69 
-123 24 -95 60 -65 
91 100 -12 -128 49 
40 63 -7 -66 -86 

-39 49 -31 90 -22 
-66 -90 3 57 -32 
-115 84 39 70 112 
-26 126 53 35 -104 
116 34 62 -98 126 

49 -76 -49 -126 14 
88 -85 -97 -31 -24 
-11 -14 -2 -43 -65 
-43 -117 87 106 -3 
123 102 87 -88 -93 

21 31 14 121 -68 
25 5 -55 3 -100 
-21 19 3 18 -109 
-107 86 62 -68 -79 
8 -36 -57 13 -93 


-62 -103 62 90 -63 
12 52 5 71 11 
-84 -48 -66 22 -108 
94 -120 114 61 106 
13 118 51 -45 -8 

66 -48 59 -74 18 
-77 74 123 30 -127 
72 19 24 2 114 
-121 -1 -92 -42 20 
-111 4 -15 -39 -90 

-71 -6 99 37 -55 
8 -118 10 -65 -41 
40 -61 -123 -104 -58 
28 4 49 -81 -51 
57 -39 -46 -9 12 

24 28 60 -126 58 
-127 110 -74 65 47 
-21 -77 37 -97 -10 
45 104 45 -36 -72 
118 96 -53 -12 -47 

-89 87 46 -71 6 
0 73 -109 81 -69 
-123 24 -95 60 -65 
91 100 -12 -128 49 
40 63 -7 -66 -86 

-39 49 -31 90 -22 
-66 -90 3 57 -32 
-115 84 39 70 112 
-26 126 53 35 -104 
116 34 62 -98 126 

49 -76 -49 -126 14 
88 -85 -97 -31 -24 
-11 -14 -2 -43 -65 
-43 -117 87 106 -3 
123 102 87 -88 -93 

21 31 14 121 -68 
25 5 -55 3 -100 
-21 19 3 18 -109 
-107 86 62 -68 -79 
8 -36 -57 13 -93 


-62 -103 62 90 -63 
12 52 5 71 11 
-84 -48 -66 22 -108 
94 -120 114 61 106 
13 118 51 -45 -8 

66 -48 59 -74 18 
-77 74 123 30 -127 
72 19 24 2 114 
-121 -1 -92 -42 20 
-111 4 -15 -39 -90 

-71 -6 99 37 -55 
8 -118 10 -65 -41 
40 -61 -123 -104 -58 
28 4 49 -81 -51 
57 -39 -46 -9 12 

24 28 60 -126 58 
-127 110 -74 65 47 
-21 -77 37 -97 -10 
45 104 45 -36 -72 
118 96 -53 -12 -47 

-89 87 46 -71 6 
0 73 -109 81 -69 
-123 24 -95 60 -65 
91 100 -12 -128 49 
40 63 -7 -66 -86 

-39 49 -31 90 -22 
-66 -90 3 57 -32 
-115 84 39 70 112 
-26 126 53 35 -104 
116 34 62 -98 126 

49 -76 -49 -126 14 
88 -85 -97 -31 -24 
-11 -14 -2 -43 -65 
-43 -117 87 106 -3 
123 102 87 -88 -93 

21 31 14 121 -68 
25 5 -55 3 -100 
-21 19 3 18 -109 
-107 86 62 -68 -79 
8 -36 -57 13 -93 



-62 -103 62 90 -63 
12 52 5 71 11 
-84 -48 -66 22 -108 
94 -120 114 61 106 
13 118 51 -45 -8 

66 -48 59 -74 18 
-77 74 123 30 -127 
72 19 24 2 114 
-121 -1 -92 -42 20 
-111 4 -15 -39 -90 

-71 -6 99 37 -55 
8 -118 10 -65 -41 
40 -61 -123 -104 -58 
28 4 49 -81 -51 
57 -39 -46 -9 12 

24 28 60 -126 58 
-127 110 -74 65 47 
-21 -77 37 -97 -10 
45 104 45 -36 -72 
118 96 -53 -12 -47 

-89 87 46 -71 6 
0 73 -109 81 -69 
-123 24 -95 60 -65 
91 100 -12 -128 49 
40 63 -7 -66 -86 

-39 49 -31 90 -22 
-66 -90 3 57 -32 
-115 84 39 70 112 
-26 126 53 35 -104 
116 34 62 -98 126 

49 -76 -49 -126 14 
88 -85 -97 -31 -24 
-11 -14 -2 -43 -65 
-43 -117 87 106 -3 
123 102 87 -88 -93 

21 31 14 121 -68 
25 5 -55 3 -100 
-21 19 3 18 -109 
-107 86 62 -68 -79 
8 -36 -57 13 -93 


-62 -103 62 90 -63 
12 52 5 71 11 
-84 -48 -66 22 -108 
94 -120 114 61 106 
13 118 51 -45 -8 

66 -48 59 -74 18 
-77 74 123 30 -127 
72 19 24 2 114 
-121 -1 -92 -42 20 
-111 4 -15 -39 -90 

-71 -6 99 37 -55 
8 -118 10 -65 -41 
40 -61 -123 -104 -58 
28 4 49 -81 -51 
57 -39 -46 -9 12 

24 28 60 -126 58 
-127 110 -74 65 47 
-21 -77 37 -97 -10 
45 104 45 -36 -72 
118 96 -53 -12 -47 

-89 87 46 -71 6 
0 73 -109 81 -69 
-123 24 -95 60 -65 
91 100 -12 -128 49 
40 63 -7 -66 -86 

-39 49 -31 90 -22 
-66 -90 3 57 -32 
-115 84 39 70 112 
-26 126 53 35 -104 
116 34 62 -98 126 

49 -76 -49 -126 14 
88 -85 -97 -31 -24 
-11 -14 -2 -43 -65 
-43 -117 87 106 -3 
123 102 87 -88 -93 

21 31 14 121 -68 
25 5 -55 3 -100 
-21 19 3 18 -109 
-107 86 62 -68 -79 
8 -36 -57 13 -93 


-62 -103 62 90 -63 
12 52 5 71 11 
-84 -48 -66 22 -108 
94 -120 114 61 106 
13 118 51 -45 -8 

66 -48 59 -74 18 
-77 74 123 30 -127 
72 19 24 2 114 
-121 -1 -92 -42 20 
-111 4 -15 -39 -90 

-71 -6 99 37 -55 
8 -118 10 -65 -41 
40 -61 -123 -104 -58 
28 4 49 -81 -51 
57 -39 -46 -9 12 

24 28 60 -126 58 
-127 110 -74 65 47 
-21 -77 37 -97 -10 
