119 30 -92 
47 -40 -9 
-5 15 -116 

50 -20 -94 
120 86 89 
-18 36 64 

54 -40 -58 
-20 -52 125 
32 2 34 

-113 -35 31 
-98 -62 -102 
83 52 -66 

-71 43 -55 
69 -85 121 
-49 82 71 

-108 38 -109 
3 2 102 
12 -78 6 

-113 -36 56 
-34 -104 -119 
89 12 119 

43 43 7 
-84 15 -71 
-16 98 94 


119 30 -92 
47 -40 -9 
-5 15 -116 

50 -20 -94 
120 86 89 
-18 36 64 

54 -40 -58 
-20 -52 125 
32 2 34 

-113 -35 31 
-98 -62 -102 
83 52 -66 

-71 43 -55 
69 -85 121 
-49 82 71 

-108 38 -109 
3 2 102 
12 -78 6 

-113 -36 56 
-34 -104 -119 
89 12 119 

43 43 7 
-84 15 -71 
-16 98 94 


119 30 -92 
47 -40 -9 
-5 15 -116 

50 -20 -94 
120 86 89 
-18 36 64 

54 -40 -58 
-20 -52 125 
32 2 34 

-113 -35 31 
-98 -62 -102 
83 52 -66 

-71 43 -55 
69 -85 121 
-49 82 71 

-108 38 -109 
3 2 102 
12 -78 6 

-113 -36 56 
-34 -104 -119 
89 12 119 

43 43 7 
-84 15 -71 
-16 98 94 


119 30 -92 
47 -40 -9 
-5 15 -116 

50 -20 -94 
120 86 89 
-18 36 64 

54 -40 -58 
-20 -52 125 
32 2 34 

-113 -35 31 
-98 -62 -102 
83 52 -66 

-71 43 -55 
69 -85 121 
-49 82 71 

-108 38 -109 
3 2 102 
12 -78 6 

-113 -36 56 
-34 -104 -119 
89 12 119 

43 43 7 
-84 15 -71 
-16 98 94 



119 30 -92 
47 -40 -9 
-5 15 -116 

50 -20 -94 
120 86 89 
-18 36 64 

54 -40 -58 
-20 -52 125 
32 2 34 

-113 -35 31 
-98 -62 -102 
83 52 -66 

-71 43 -55 
69 -85 121 
-49 82 71 

-108 38 -109 
3 2 102 
12 -78 6 

-113 -36 56 
-34 -104 -119 
89 12 119 

43 43 7 
-84 15 -71 
-16 98 94 


119 30 -92 
47 -40 -9 
-5 15 -116 

50 -20 -94 
120 86 89 
-18 36 64 

54 -40 -58 
-20 -52 125 
32 2 34 

-113 -35 31 
-98 -62 -102 
83 52 -66 

-71 43 -55 
69 -85 121 
-49 82 71 

-108 38 -109 
3 2 102 
12 -78 6 

-113 -36 56 
-34 -104 -119 
89 12 119 

43 43 7 
-84 15 -71 
-16 98 94 


119 30 -92 
47 -40 -9 
-5 15 -116 

50 -20 -94 
120 86 89 
-18 36 64 

54 -40 -58 
-20 -52 125 
32 2 34 

-113 -35 31 
-98 -62 -102 
83 52 -66 

-71 43 -55 
69 -85 121 
-49 82 71 

-108 38 -109 
3 2 102 
12 -78 6 

-113 -36 56 
-34 -104 -119 
89 12 119 

43 43 7 
-84 15 -71 
-16 98 94 


119 30 -92 
47 -40 -9 
-5 15 -116 

50 -20 -94 
120 86 89 
-18 36 64 

54 -40 -58 
-20 -52 125 
32 2 34 

-113 -35 31 
-98 -62 -102 
83 52 -66 

-71 43 -55 
69 -85 121 
-49 82 71 

-108 38 -109 
3 2 102 
12 -78 6 

-113 -36 56 
-34 -104 -119 
89 12 119 

43 43 7 
-84 15 -71 
-16 98 94 



119 30 -92 
47 -40 -9 
-5 15 -116 

50 -20 -94 
120 86 89 
-18 36 64 

54 -40 -58 
-20 -52 125 
32 2 34 

-113 -35 31 
-98 -62 -102 
83 52 -66 

-71 43 -55 
69 -85 121 
-49 82 71 

-108 38 -109 
3 2 102 
12 -78 6 

-113 -36 56 
-34 -104 -119 
89 12 119 

43 43 7 
-84 15 -71 
-16 98 94 


119 30 -92 
47 -40 -9 
-5 15 -116 

50 -20 -94 
120 86 89 
-18 36 64 

54 -40 -58 
-20 -52 125 
32 2 34 

-113 -35 31 
-98 -62 -102 
83 52 -66 

-71 43 -55 
69 -85 121 
-49 82 71 

-108 38 -109 
3 2 102 
12 -78 6 

-113 -36 56 
-34 -104 -119 
89 12 119 

43 43 7 
-84 15 -71 
-16 98 94 


119 30 -92 
47 -40 -9 
-5 15 -116 

50 -20 -94 
120 86 89 
-18 36 64 

54 -40 -58 
-20 -52 125 
32 2 34 

-113 -35 31 
-98 -62 -102 
83 52 -66 

-71 43 -55 
69 -85 121 
-49 82 71 

-108 38 -109 
3 2 102 
12 -78 6 

-113 -36 56 
-34 -104 -119 
89 12 119 

43 43 7 
-84 15 -71 
-16 98 94 


119 30 -92 
47 -40 -9 
-5 15 -116 

50 -20 -94 
120 86 89 
-18 36 64 

54 -40 -58 
-20 -52 125 
32 2 34 

-113 -35 31 
-98 -62 -102 
83 52 -66 

-71 43 -55 
69 -85 121 
-49 82 71 

-108 38 -109 
3 2 102 
12 -78 6 

-113 -36 56 
-34 -104 -119 
89 12 119 

43 43 7 
-84 15 -71 
-16 98 94 



119 30 -92 
47 -40 -9 
-5 15 -116 

50 -20 -94 
120 86 89 
-18 36 64 

54 -40 -58 
-20 -52 125 
32 2 34 

-113 -35 31 
-98 -62 -102 
83 52 -66 

-71 43 -55 
69 -85 121 
-49 82 71 

-108 38 -109 
3 2 102 
12 -78 6 

-113 -36 56 
-34 -104 -119 
89 12 119 

43 43 7 
-84 15 -71 
-16 98 94 


119 30 -92 
47 -40 -9 
-5 15 -116 

50 -20 -94 
120 86 89 
-18 36 64 

54 -40 -58 
-20 -52 125 
32 2 34 

-113 -35 31 
-98 -62 -102 
83 52 -66 

-71 43 -55 
69 -85 121 
-49 82 71 

-108 38 -109 
3 2 102 
12 -78 6 

-113 -36 56 
-34 -104 -119 
89 12 119 

43 43 7 
-84 15 -71 
-16 98 94 


119 30 -92 
47 -40 -9 
-5 15 -116 

50 -20 -94 
120 86 89 
-18 36 64 

54 -40 -58 
-20 -52 125 
32 2 34 

-113 -35 31 
-98 -62 -102 
83 52 -66 

-71 43 -55 
69 -85 121 
-49 82 71 

-108 38 -109 
3 2 102 
12 -78 6 

-113 -36 56 
-34 -104 -119 
89 12 119 

43 43 7 
-84 15 -71 
-16 98 94 


119 30 -92 
47 -40 -9 
-5 15 -116 

50 -20 -94 
120 86 89 
-18 36 64 

54 -40 -58 
-20 -52 125 
32 2 34 

-113 -35 31 
-98 -62 -102 
83 52 -66 

-71 43 -55 
69 -85 121 
-49 82 71 

-108 38 -109 
3 2 102 
12 -78 6 

-113 -36 56 
-34 -104 -119 
89 12 119 

43 43 7 
-84 15 -71 
-16 98 94 



119 30 -92 
47 -40 -9 
-5 15 -116 

50 -20 -94 
120 86 89 
-18 36 64 

54 -40 -58 
-20 -52 125 
32 2 34 

-113 -35 31 
-98 -62 -102 
83 52 -66 

-71 43 -55 
69 -85 121 
-49 82 71 

-108 38 -109 
3 2 102 
12 -78 6 

-113 -36 56 
-34 -104 -119 
89 12 119 

43 43 7 
-84 15 -71 
-16 98 94 


119 30 -92 
47 -40 -9 
-5 15 -116 

50 -20 -94 
120 86 89 
-18 36 64 

54 -40 -58 
-20 -52 125 
32 2 34 

-113 -35 31 
-98 -62 -102 
83 52 -66 

-71 43 -55 
69 -85 121 
-49 82 71 

-108 38 -109 
3 2 102 
12 -78 6 

-113 -36 56 
-34 -104 -119 
89 12 119 

43 43 7 
-84 15 -71 
-16 98 94 


119 30 -92 
47 -40 -9 
-5 15 -116 

50 -20 -94 
120 86 89 
-18 36 64 

54 -40 -58 
-20 -52 125 
32 2 34 

-113 -35 31 
-98 -62 -102 
83 52 -66 

-71 43 -55 
69 -85 121 
-49 82 71 

-108 38 -109 
3 2 102 
12 -78 6 

-113 -36 56 
-34 -104 -119 
89 12 119 

43 43 7 
-84 15 -71 
-16 98 94 


119 30 -92 
47 -40 -9 
-5 15 -116 

50 -20 -94 
120 86 89 
-18 36 64 

54 -40 -58 
-20 -52 125 
32 2 34 

-113 -35 31 
-98 -62 -102 
83 52 -66 

-71 43 -55 
69 -85 121 
-49 82 71 

-108 38 -109 
3 2 102 
12 -78 6 

-113 -36 56 
-34 -104 -119 
89 12 119 

43 43 7 
-84 15 -71 
-16 98 94 



119 30 -92 
47 -40 -9 
-5 15 -116 

50 -20 -94 
120 86 89 
-18 36 64 

54 -40 -58 
-20 -52 125 
32 2 34 

-113 -35 31 
-98 -62 -102 
83 52 -66 

-71 43 -55 
69 -85 121 
-49 82 71 

-108 38 -109 
3 2 102 
12 -78 6 

-113 -36 56 
-34 -104 -119 
89 12 119 

43 43 7 
-84 15 -71 
-16 98 94 


119 30 -92 
47 -40 -9 
-5 15 -116 

50 -20 -94 
120 86 89 
-18 36 64 

54 -40 -58 
-20 -52 125 
32 2 34 

-113 -35 31 
-98 -62 -102 
83 52 -66 

-71 43 -55 
69 -85 121 
-49 82 71 

-108 38 -109 
3 2 102 
12 -78 6 

-113 -36 56 
-34 -104 -119 
89 12 119 

43 43 7 
-84 15 -71 
-16 98 94 


119 30 -92 
47 -40 -9 
-5 15 -116 

50 -20 -94 
120 86 89 
-18 36 64 

54 -40 -58 
-20 -52 125 
32 2 34 

-113 -35 31 
-98 -62 -102 
83 52 -66 

-71 43 -55 
69 -85 121 
-49 82 71 

-108 38 -109 
3 2 102 
12 -78 6 

-113 -36 56 
-34 -104 -119 
89 12 119 

43 43 7 
-84 15 -71 
-16 98 94 


119 30 -92 
47 -40 -9 
-5 15 -116 

50 -20 -94 
120 86 89 
-18 36 64 

54 -40 -58 
-20 -52 125 
32 2 34 

-113 -35 31 
-98 -62 -102 
83 52 -66 

-71 43 -55 
69 -85 121 
-49 82 71 

-108 38 -109 
3 2 102 
12 -78 6 

-113 -36 56 
-34 -104 -119 
89 12 119 

43 43 7 
-84 15 -71 
-16 98 94 



119 30 -92 
47 -40 -9 
-5 15 -116 

50 -20 -94 
120 86 89 
-18 36 64 

54 -40 -58 
-20 -52 125 
32 2 34 

-113 -35 31 
-98 -62 -102 
83 52 -66 

-71 43 -55 
69 -85 121 
-49 82 71 

-108 38 -109 
3 2 102 
12 -78 6 

-113 -36 56 
-34 -104 -119 
89 12 119 

43 43 7 
-84 15 -71 
-16 98 94 


119 30 -92 
47 -40 -9 
-5 15 -116 

50 -20 -94 
120 86 89 
-18 36 64 

54 -40 -58 
-20 -52 125 
32 2 34 

-113 -35 31 
-98 -62 -102 
83 52 -66 

-71 43 -55 
69 -85 121 
-49 82 71 

-108 38 -109 
3 2 102 
12 -78 6 

-113 -36 56 
-34 -104 -119 
89 12 119 

43 43 7 
-84 15 -71 
-16 98 94 


119 30 -92 
47 -40 -9 
-5 15 -116 

50 -20 -94 
120 86 89 
-18 36 64 

54 -40 -58 
-20 -52 125 
32 2 34 

-113 -35 31 
-98 -62 -102 
83 52 -66 

-71 43 -55 
69 -85 121 
-49 82 71 

-108 38 -109 
3 2 102 
12 -78 6 

-113 -36 56 
-34 -104 -119 
89 12 119 

43 43 7 
-84 15 -71 
-16 98 94 


119 30 -92 
47 -40 -9 
-5 15 -116 

50 -20 -94 
120 86 89 
-18 36 64 

54 -40 -58 
-20 -52 125 
32 2 34 

-113 -35 31 
-98 -62 -102 
83 52 -66 

-71 43 -55 
69 -85 121 
-49 82 71 

-108 38 -109 
3 2 102 
12 -78 6 

-113 -36 56 
-34 -104 -119 
89 12 119 

43 43 7 
-84 15 -71 
-16 98 94 



119 30 -92 
47 -40 -9 
-5 15 -116 

50 -20 -94 
120 86 89 
-18 36 64 

54 -40 -58 
-20 -52 125 
32 2 34 

-113 -35 31 
-98 -62 -102 
83 52 -66 

-71 43 -55 
69 -85 121 
-49 82 71 

-108 38 -109 
3 2 102 
12 -78 6 

-113 -36 56 
-34 -104 -119 
89 12 119 

43 43 7 
-84 15 -71 
-16 98 94 


119 30 -92 
47 -40 -9 
-5 15 -116 

50 -20 -94 
120 86 89 
-18 36 64 

54 -40 -58 
-20 -52 125 
32 2 34 

-113 -35 31 
-98 -62 -102 
83 52 -66 

-71 43 -55 
69 -85 121 
-49 82 71 

-108 38 -109 
3 2 102 
12 -78 6 

-113 -36 56 
-34 -104 -119 
89 12 119 

43 43 7 
-84 15 -71 
-16 98 94 


119 30 -92 
47 -40 -9 
-5 15 -116 

50 -20 -94 
120 86 89 
-18 36 64 

54 -40 -58 
-20 -52 125 
32 2 34 

-113 -35 31 
-98 -62 -102 
83 52 -66 

-71 43 -55 
69 -85 121 
-49 82 71 

-108 38 -109 
3 2 102 
12 -78 6 

-113 -36 56 
-34 -104 -119 
89 12 119 

43 43 7 
-84 15 -71 
-16 98 94 


119 30 -92 
47 -40 -9 
-5 15 -116 

50 -20 -94 
120 86 89 
-18 36 64 

54 -40 -58 
-20 -52 125 
32 2 34 

-113 -35 31 
-98 -62 -102 
83 52 -66 

-71 43 -55 
69 -85 121 
-49 82 71 

-108 38 -109 
3 2 102 
12 -78 6 

-113 -36 56 
-34 -104 -119 
89 12 119 

43 43 7 
-84 15 -71 
-16 98 94 



119 30 -92 
47 -40 -9 
-5 15 -116 

50 -20 -94 
120 86 89 
-18 36 64 

54 -40 -58 
-20 -52 125 
32 2 34 

-113 -35 31 
-98 -62 -102 
83 52 -66 

-71 43 -55 
69 -85 121 
-49 82 71 

-108 38 -109 
3 2 102 
12 -78 6 

-113 -36 56 
-34 -104 -119 
89 12 119 

43 43 7 
-84 15 -71 
-16 98 94 


119 30 -92 
47 -40 -9 
-5 15 -116 

50 -20 -94 
120 86 89 
-18 36 64 

54 -40 -58 
-20 -52 125 
32 2 34 

-113 -35 31 
-98 -62 -102 
83 52 -66 

-71 43 -55 
69 -85 121 
-49 82 71 

-108 38 -109 
3 2 102 
12 -78 6 

-113 -36 56 
-34 -104 -119 
89 12 119 

43 43 7 
-84 15 -71 
-16 98 94 


119 30 -92 
47 -40 -9 
-5 15 -116 

50 -20 -94 
120 86 89 
-18 36 64 

54 -40 -58 
-20 -52 125 
32 2 34 

-113 -35 31 
-98 -62 -102 
83 52 -66 

-71 43 -55 
69 -85 121 
-49 82 71 

-108 38 -109 
3 2 102 
12 -78 6 

-113 -36 56 
-34 -104 -119 
89 12 119 

43 43 7 
-84 15 -71 
-16 98 94 


119 30 -92 
47 -40 -9 
-5 15 -116 

50 -20 -94 
120 86 89 
-18 36 64 

54 -40 -58 
-20 -52 125 
32 2 34 

-113 -35 31 
-98 -62 -102 
83 52 -66 

-71 43 -55 
69 -85 121 
-49 82 71 

-108 38 -109 
3 2 102 
12 -78 6 

-113 -36 56 
-34 -104 -119 
89 12 119 

43 43 7 
-84 15 -71 
-16 98 94 



119 30 -92 
47 -40 -9 
-5 15 -116 

50 -20 -94 
120 86 89 
-18 36 64 

54 -40 -58 
-20 -52 125 
32 2 34 

-113 -35 31 
-98 -62 -102 
83 52 -66 

-71 43 -55 
69 -85 121 
-49 82 71 

-108 38 -109 
3 2 102 
12 -78 6 

-113 -36 56 
-34 -104 -119 
89 12 119 

43 43 7 
-84 15 -71 
-16 98 94 


119 30 -92 
47 -40 -9 
-5 15 -116 

50 -20 -94 
120 86 89 
-18 36 64 

54 -40 -58 
-20 -52 125 
32 2 34 

-113 -35 31 
-98 -62 -102 
83 52 -66 

-71 43 -55 
69 -85 121 
-49 82 71 

-108 38 -109 
3 2 102 
12 -78 6 

-113 -36 56 
-34 -104 -119 
89 12 119 

43 43 7 
-84 15 -71 
-16 98 94 


119 30 -92 
47 -40 -9 
-5 15 -116 

50 -20 -94 
120 86 89 
-18 36 64 

54 -40 -58 
-20 -52 125 
32 2 34 

-113 -35 31 
-98 -62 -102 
83 52 -66 

-71 43 -55 
69 -85 121 
-49 82 71 

-108 38 -109 
3 2 102 
12 -78 6 

-113 -36 56 
-34 -104 -119 
89 12 119 

43 43 7 
-84 15 -71 
-16 98 94 


119 30 -92 
47 -40 -9 
-5 15 -116 

50 -20 -94 
120 86 89 
-18 36 64 

54 -40 -58 
-20 -52 125 
32 2 34 

-113 -35 31 
-98 -62 -102 
83 52 -66 

-71 43 -55 
69 -85 121 
-49 82 71 

-108 38 -109 
3 2 102 
12 -78 6 

-113 -36 56 
-34 -104 -119 
89 12 119 

43 43 7 
-84 15 -71 
-16 98 94 



119 30 -92 
47 -40 -9 
-5 15 -116 

50 -20 -94 
120 86 89 
-18 36 64 

54 -40 -58 
-20 -52 125 
32 2 34 

-113 -35 31 
-98 -62 -102 
83 52 -66 

-71 43 -55 
69 -85 121 
-49 82 71 

-108 38 -109 
3 2 102 
12 -78 6 

-113 -36 56 
-34 -104 -119 
89 12 119 

43 43 7 
-84 15 -71 
-16 98 94 


119 30 -92 
47 -40 -9 
-5 15 -116 

50 -20 -94 
120 86 89 
-18 36 64 

54 -40 -58 
-20 -52 125 
32 2 34 

-113 -35 31 
-98 -62 -102 
83 52 -66 

-71 43 -55 
69 -85 121 
-49 82 71 

-108 38 -109 
3 2 102 
12 -78 6 

-113 -36 56 
-34 -104 -119 
89 12 119 

43 43 7 
-84 15 -71 
-16 98 94 


119 30 -92 
47 -40 -9 
-5 15 -116 

50 -20 -94 
120 86 89 
-18 36 64 

54 -40 -58 
-20 -52 125 
32 2 34 

-113 -35 31 
-98 -62 -102 
83 52 -66 

-71 43 -55 
69 -85 121 
-49 82 71 

-108 38 -109 
3 2 102 
12 -78 6 

-113 -36 56 
-34 -104 -119 
89 12 119 

43 43 7 
-84 15 -71 
-16 98 94 


119 30 -92 
47 -40 -9 
-5 15 -116 

50 -20 -94 
120 86 89 
-18 36 64 

54 -40 -58 
-20 -52 125 
32 2 34 

-113 -35 31 
-98 -62 -102 
83 52 -66 

-71 43 -55 
69 -85 121 
-49 82 71 

-108 38 -109 
3 2 102 
12 -78 6 

-113 -36 56 
-34 -104 -119 
89 12 119 

43 43 7 
-84 15 -71 
-16 98 94 



119 30 -92 
47 -40 -9 
-5 15 -116 

50 -20 -94 
120 86 89 
-18 36 64 

54 -40 -58 
-20 -52 125 
32 2 34 

-113 -35 31 
-98 -62 -102 
83 52 -66 

-71 43 -55 
69 -85 121 
-49 82 71 

-108 38 -109 
3 2 102 
12 -78 6 

-113 -36 56 
-34 -104 -119 
89 12 119 

43 43 7 
-84 15 -71 
-16 98 94 


119 30 -92 
47 -40 -9 
-5 15 -116 

50 -20 -94 
120 86 89 
-18 36 64 

54 -40 -58 
-20 -52 125 
32 2 34 

-113 -35 31 
-98 -62 -102 
83 52 -66 

-71 43 -55 
69 -85 121 
-49 82 71 

-108 38 -109 
3 2 102 
12 -78 6 

-113 -36 56 
-34 -104 -119 
89 12 119 

43 43 7 
-84 15 -71 
-16 98 94 


119 30 -92 
47 -40 -9 
-5 15 -116 

50 -20 -94 
120 86 89 
-18 36 64 

54 -40 -58 
-20 -52 125 
32 2 34 

-113 -35 31 
-98 -62 -102 
83 52 -66 

-71 43 -55 
69 -85 121 
-49 82 71 

-108 38 -109 
3 2 102 
12 -78 6 

-113 -36 56 
-34 -104 -119 
89 12 119 

43 43 7 
-84 15 -71 
-16 98 94 


119 30 -92 
47 -40 -9 
-5 15 -116 

50 -20 -94 
120 86 89 
-18 36 64 

54 -40 -58 
-20 -52 125 
32 2 34 

-113 -35 31 
-98 -62 -102 
83 52 -66 

-71 43 -55 
69 -85 121 
-49 82 71 

-108 38 -109 
3 2 102 
12 -78 6 

-113 -36 56 
-34 -104 -119 
89 12 119 

43 43 7 
-84 15 -71 
-16 98 94 



119 30 -92 
47 -40 -9 
-5 15 -116 

50 -20 -94 
120 86 89 
-18 36 64 

54 -40 -58 
-20 -52 125 
32 2 34 

-113 -35 31 
-98 -62 -102 
83 52 -66 

-71 43 -55 
69 -85 121 
-49 82 71 

-108 38 -109 
3 2 102 
12 -78 6 

-113 -36 56 
-34 -104 -119 
89 12 119 

43 43 7 
-84 15 -71 
-16 98 94 


119 30 -92 
47 -40 -9 
-5 15 -116 

50 -20 -94 
120 86 89 
-18 36 64 

54 -40 -58 
-20 -52 125 
32 2 34 

-113 -35 31 
-98 -62 -102 
83 52 -66 

-71 43 -55 
69 -85 121 
-49 82 71 

-108 38 -109 
3 2 102 
12 -78 6 

-113 -36 56 
-34 -104 -119 
89 12 119 

43 43 7 
-84 15 -71 
-16 98 94 


119 30 -92 
47 -40 -9 
-5 15 -116 

50 -20 -94 
120 86 89 
-18 36 64 

54 -40 -58 
-20 -52 125 
32 2 34 

-113 -35 31 
-98 -62 -102 
83 52 -66 

-71 43 -55 
69 -85 121 
-49 82 71 

-108 38 -109 
3 2 102 
12 -78 6 

-113 -36 56 
-34 -104 -119 
89 12 119 

43 43 7 
-84 15 -71 
-16 98 94 


119 30 -92 
47 -40 -9 
-5 15 -116 

50 -20 -94 
120 86 89 
-18 36 64 

54 -40 -58 
-20 -52 125 
32 2 34 

-113 -35 31 
-98 -62 -102 
83 52 -66 

-71 43 -55 
69 -85 121 
-49 82 71 

-108 38 -109 
3 2 102 
12 -78 6 

-113 -36 56 
-34 -104 -119 
89 12 119 

43 43 7 
-84 15 -71 
-16 98 94 




93 1 42 
-29 66 14 
115 -83 52 

-4 27 38 
92 68 100 
108 -8 -49 

-110 94 37 
-116 49 -20 
-25 -96 -49 

-71 -19 -48 
-3 -80 -42 
8 -30 124 

5 124 -88 
-42 -41 87 
-75 7 -120 

-101 -90 126 
-3 24 71 
-15 -90 -58 

-74 63 16 
57 69 98 
-76 107 98 

-112 43 46 
-127 116 42 
80 -99 28 


93 1 42 
-29 66 14 
115 -83 52 

-4 27 38 
92 68 100 
108 -8 -49 

-110 94 37 
-116 49 -20 
-25 -96 -49 

-71 -19 -48 
-3 -80 -42 
8 -30 124 

5 124 -88 
-42 -41 87 
-75 7 -120 

-101 -90 126 
-3 24 71 
-15 -90 -58 

-74 63 16 
57 69 98 
-76 107 98 

-112 43 46 
-127 116 42 
80 -99 28 


93 1 42 
-29 66 14 
115 -83 52 

-4 27 38 
92 68 100 
108 -8 -49 

-110 94 37 
-116 49 -20 
-25 -96 -49 

-71 -19 -48 
-3 -80 -42 
8 -30 124 

5 124 -88 
-42 -41 87 
-75 7 -120 

-101 -90 126 
-3 24 71 
-15 -90 -58 

-74 63 16 
57 69 98 
-76 107 98 

-112 43 46 
-127 116 42 
80 -99 28 


93 1 42 
-29 66 14 
115 -83 52 

-4 27 38 
92 68 100 
108 -8 -49 

-110 94 37 
-116 49 -20 
-25 -96 -49 

-71 -19 -48 
-3 -80 -42 
8 -30 124 

5 124 -88 
-42 -41 87 
-75 7 -120 

-101 -90 126 
-3 24 71 
-15 -90 -58 

-74 63 16 
57 69 98 
-76 107 98 

-112 43 46 
-127 116 42 
80 -99 28 



93 1 42 
-29 66 14 
115 -83 52 

-4 27 38 
92 68 100 
108 -8 -49 

-110 94 37 
-116 49 -20 
-25 -96 -49 

-71 -19 -48 
-3 -80 -42 
8 -30 124 

5 124 -88 
-42 -41 87 
-75 7 -120 

-101 -90 126 
-3 24 71 
-15 -90 -58 

-74 63 16 
57 69 98 
-76 107 98 

-112 43 46 
-127 116 42 
80 -99 28 


93 1 42 
-29 66 14 
115 -83 52 

-4 27 38 
92 68 100 
108 -8 -49 

-110 94 37 
-116 49 -20 
-25 -96 -49 

-71 -19 -48 
-3 -80 -42 
8 -30 124 

5 124 -88 
-42 -41 87 
-75 7 -120 

-101 -90 126 
-3 24 71 
-15 -90 -58 

-74 63 16 
57 69 98 
-76 107 98 

-112 43 46 
-127 116 42 
80 -99 28 


93 1 42 
-29 66 14 
115 -83 52 

-4 27 38 
92 68 100 
108 -8 -49 

-110 94 37 
-116 49 -20 
-25 -96 -49 

-71 -19 -48 
-3 -80 -42 
8 -30 124 

5 124 -88 
-42 -41 87 
-75 7 -120 

-101 -90 126 
-3 24 71 
-15 -90 -58 

-74 63 16 
57 69 98 
-76 107 98 

-112 43 46 
-127 116 42 
80 -99 28 


93 1 42 
-29 66 14 
115 -83 52 

-4 27 38 
92 68 100 
108 -8 -49 

-110 94 37 
-116 49 -20 
-25 -96 -49 

-71 -19 -48 
-3 -80 -42 
8 -30 124 

5 124 -88 
-42 -41 87 
-75 7 -120 

-101 -90 126 
-3 24 71 
-15 -90 -58 

-74 63 16 
57 69 98 
-76 107 98 

-112 43 46 
-127 116 42 
80 -99 28 



93 1 42 
-29 66 14 
115 -83 52 

-4 27 38 
92 68 100 
108 -8 -49 

-110 94 37 
-116 49 -20 
-25 -96 -49 

-71 -19 -48 
-3 -80 -42 
8 -30 124 

5 124 -88 
-42 -41 87 
-75 7 -120 

-101 -90 126 
-3 24 71 
-15 -90 -58 

-74 63 16 
57 69 98 
-76 107 98 

-112 43 46 
-127 116 42 
80 -99 28 


93 1 42 
-29 66 14 
115 -83 52 

-4 27 38 
92 68 100 
108 -8 -49 

-110 94 37 
-116 49 -20 
-25 -96 -49 

-71 -19 -48 
-3 -80 -42 
8 -30 124 

5 124 -88 
-42 -41 87 
-75 7 -120 

-101 -90 126 
-3 24 71 
-15 -90 -58 

-74 63 16 
57 69 98 
-76 107 98 

-112 43 46 
-127 116 42 
80 -99 28 


93 1 42 
-29 66 14 
115 -83 52 

-4 27 38 
92 68 100 
108 -8 -49 

-110 94 37 
-116 49 -20 
-25 -96 -49 

-71 -19 -48 
-3 -80 -42 
8 -30 124 

5 124 -88 
-42 -41 87 
-75 7 -120 

-101 -90 126 
-3 24 71 
-15 -90 -58 

-74 63 16 
57 69 98 
-76 107 98 

-112 43 46 
-127 116 42 
80 -99 28 


93 1 42 
-29 66 14 
115 -83 52 

-4 27 38 
92 68 100 
108 -8 -49 

-110 94 37 
-116 49 -20 
-25 -96 -49 

-71 -19 -48 
-3 -80 -42 
8 -30 124 

5 124 -88 
-42 -41 87 
-75 7 -120 

-101 -90 126 
-3 24 71 
-15 -90 -58 

-74 63 16 
57 69 98 
-76 107 98 

-112 43 46 
-127 116 42 
80 -99 28 



93 1 42 
-29 66 14 
115 -83 52 

-4 27 38 
92 68 100 
108 -8 -49 

-110 94 37 
-116 49 -20 
-25 -96 -49 

-71 -19 -48 
-3 -80 -42 
8 -30 124 

5 124 -88 
-42 -41 87 
-75 7 -120 

-101 -90 126 
-3 24 71 
-15 -90 -58 

-74 63 16 
57 69 98 
-76 107 98 

-112 43 46 
-127 116 42 
80 -99 28 


93 1 42 
-29 66 14 
115 -83 52 

-4 27 38 
92 68 100 
108 -8 -49 

-110 94 37 
-116 49 -20 
-25 -96 -49 

-71 -19 -48 
-3 -80 -42 
8 -30 124 

5 124 -88 
-42 -41 87 
-75 7 -120 

-101 -90 126 
-3 24 71 
-15 -90 -58 

-74 63 16 
57 69 98 
-76 107 98 

-112 43 46 
-127 116 42 
80 -99 28 


93 1 42 
-29 66 14 
115 -83 52 

-4 27 38 
92 68 100 
108 -8 -49 

-110 94 37 
-116 49 -20 
-25 -96 -49 

-71 -19 -48 
-3 -80 -42 
8 -30 124 

5 124 -88 
-42 -41 87 
-75 7 -120 

-101 -90 126 
-3 24 71 
-15 -90 -58 

-74 63 16 
57 69 98 
-76 107 98 

-112 43 46 
-127 116 42 
80 -99 28 


93 1 42 
-29 66 14 
115 -83 52 

-4 27 38 
92 68 100 
108 -8 -49 

-110 94 37 
-116 49 -20 
-25 -96 -49 

-71 -19 -48 
-3 -80 -42 
8 -30 124 

5 124 -88 
-42 -41 87 
-75 7 -120 

-101 -90 126 
-3 24 71 
-15 -90 -58 

-74 63 16 
57 69 98 
-76 107 98 

-112 43 46 
-127 116 42 
80 -99 28 



93 1 42 
-29 66 14 
115 -83 52 

-4 27 38 
92 68 100 
108 -8 -49 

-110 94 37 
-116 49 -20 
-25 -96 -49 

-71 -19 -48 
-3 -80 -42 
8 -30 124 

5 124 -88 
-42 -41 87 
-75 7 -120 

-101 -90 126 
-3 24 71 
-15 -90 -58 

-74 63 16 
57 69 98 
-76 107 98 

-112 43 46 
-127 116 42 
80 -99 28 


93 1 42 
-29 66 14 
115 -83 52 

-4 27 38 
92 68 100 
108 -8 -49 

-110 94 37 
-116 49 -20 
-25 -96 -49 

-71 -19 -48 
-3 -80 -42 
8 -30 124 

5 124 -88 
-42 -41 87 
-75 7 -120 

-101 -90 126 
-3 24 71 
-15 -90 -58 

-74 63 16 
57 69 98 
-76 107 98 

-112 43 46 
-127 116 42 
80 -99 28 


93 1 42 
-29 66 14 
115 -83 52 

-4 27 38 
92 68 100 
108 -8 -49 

-110 94 37 
-116 49 -20 
-25 -96 -49 

-71 -19 -48 
-3 -80 -42 
8 -30 124 

5 124 -88 
-42 -41 87 
-75 7 -120 

-101 -90 126 
-3 24 71 
-15 -90 -58 

-74 63 16 
57 69 98 
-76 107 98 

-112 43 46 
-127 116 42 
80 -99 28 


93 1 42 
-29 66 14 
115 -83 52 

-4 27 38 
92 68 100 
108 -8 -49 

-110 94 37 
-116 49 -20 
-25 -96 -49 

-71 -19 -48 
-3 -80 -42 
8 -30 124 

5 124 -88 
-42 -41 87 
-75 7 -120 

-101 -90 126 
-3 24 71 
-15 -90 -58 

-74 63 16 
57 69 98 
-76 107 98 

-112 43 46 
-127 116 42 
80 -99 28 



93 1 42 
-29 66 14 
115 -83 52 

-4 27 38 
92 68 100 
108 -8 -49 

-110 94 37 
-116 49 -20 
-25 -96 -49 

-71 -19 -48 
-3 -80 -42 
8 -30 124 

5 124 -88 
-42 -41 87 
-75 7 -120 

-101 -90 126 
-3 24 71 
-15 -90 -58 

-74 63 16 
57 69 98 
-76 107 98 

-112 43 46 
-127 116 42 
80 -99 28 


93 1 42 
-29 66 14 
115 -83 52 

-4 27 38 
92 68 100 
108 -8 -49 

-110 94 37 
-116 49 -20 
-25 -96 -49 

-71 -19 -48 
-3 -80 -42 
8 -30 124 

5 124 -88 
-42 -41 87 
-75 7 -120 

-101 -90 126 
-3 24 71 
-15 -90 -58 

-74 63 16 
57 69 98 
-76 107 98 

-112 43 46 
-127 116 42 
80 -99 28 


93 1 42 
-29 66 14 
115 -83 52 

-4 27 38 
92 68 100 
108 -8 -49 

-110 94 37 
-116 49 -20 
-25 -96 -49 

-71 -19 -48 
-3 -80 -42 
8 -30 124 

5 124 -88 
-42 -41 87 
-75 7 -120 

-101 -90 126 
-3 24 71 
-15 -90 -58 

-74 63 16 
57 69 98 
-76 107 98 

-112 43 46 
-127 116 42 
80 -99 28 


93 1 42 
-29 66 14 
115 -83 52 

-4 27 38 
92 68 100 
108 -8 -49 

-110 94 37 
-116 49 -20 
-25 -96 -49 

-71 -19 -48 
-3 -80 -42 
8 -30 124 

5 124 -88 
-42 -41 87 
-75 7 -120 

-101 -90 126 
-3 24 71 
-15 -90 -58 

-74 63 16 
57 69 98 
-76 107 98 

-112 43 46 
-127 116 42 
80 -99 28 



93 1 42 
-29 66 14 
115 -83 52 

-4 27 38 
92 68 100 
108 -8 -49 

-110 94 37 
-116 49 -20 
-25 -96 -49 

-71 -19 -48 
-3 -80 -42 
8 -30 124 

5 124 -88 
-42 -41 87 
-75 7 -120 

-101 -90 126 
-3 24 71 
-15 -90 -58 

-74 63 16 
57 69 98 
-76 107 98 

-112 43 46 
-127 116 42 
80 -99 28 


93 1 42 
-29 66 14 
115 -83 52 

-4 27 38 
92 68 100 
108 -8 -49 

-110 94 37 
-116 49 -20 
-25 -96 -49 

-71 -19 -48 
-3 -80 -42 
8 -30 124 

5 124 -88 
-42 -41 87 
-75 7 -120 

-101 -90 126 
-3 24 71 
-15 -90 -58 

-74 63 16 
57 69 98 
-76 107 98 

-112 43 46 
-127 116 42 
80 -99 28 


93 1 42 
-29 66 14 
115 -83 52 

-4 27 38 
92 68 100 
108 -8 -49 

-110 94 37 
-116 49 -20 
-25 -96 -49 

-71 -19 -48 
-3 -80 -42 
8 -30 124 

5 124 -88 
-42 -41 87 
-75 7 -120 

-101 -90 126 
-3 24 71 
-15 -90 -58 

-74 63 16 
57 69 98 
-76 107 98 

-112 43 46 
-127 116 42 
80 -99 28 


93 1 42 
-29 66 14 
115 -83 52 

-4 27 38 
92 68 100 
108 -8 -49 

-110 94 37 
-116 49 -20 
-25 -96 -49 

-71 -19 -48 
-3 -80 -42 
8 -30 124 

5 124 -88 
-42 -41 87 
-75 7 -120 

-101 -90 126 
-3 24 71 
-15 -90 -58 

-74 63 16 
57 69 98 
-76 107 98 

-112 43 46 
-127 116 42 
80 -99 28 



93 1 42 
-29 66 14 
115 -83 52 

-4 27 38 
92 68 100 
108 -8 -49 

-110 94 37 
-116 49 -20 
-25 -96 -49 

-71 -19 -48 
-3 -80 -42 
8 -30 124 

5 124 -88 
-42 -41 87 
-75 7 -120 

-101 -90 126 
-3 24 71 
-15 -90 -58 

-74 63 16 
57 69 98 
-76 107 98 

-112 43 46 
-127 116 42 
80 -99 28 


93 1 42 
-29 66 14 
115 -83 52 

-4 27 38 
92 68 100 
108 -8 -49 

-110 94 37 
-116 49 -20 
-25 -96 -49 

-71 -19 -48 
-3 -80 -42 
8 -30 124 

5 124 -88 
-42 -41 87 
-75 7 -120 

-101 -90 126 
-3 24 71 
-15 -90 -58 

-74 63 16 
57 69 98 
-76 107 98 

-112 43 46 
-127 116 42 
80 -99 28 


93 1 42 
-29 66 14 
115 -83 52 

-4 27 38 
92 68 100 
108 -8 -49 

-110 94 37 
-116 49 -20 
-25 -96 -49 

-71 -19 -48 
-3 -80 -42 
8 -30 124 

5 124 -88 
-42 -41 87 
-75 7 -120 

-101 -90 126 
-3 24 71 
-15 -90 -58 

-74 63 16 
57 69 98 
-76 107 98 

-112 43 46 
-127 116 42 
80 -99 28 


93 1 42 
-29 66 14 
115 -83 52 

-4 27 38 
92 68 100 
108 -8 -49 

-110 94 37 
-116 49 -20 
-25 -96 -49 

-71 -19 -48 
-3 -80 -42 
8 -30 124 

5 124 -88 
-42 -41 87 
-75 7 -120 

-101 -90 126 
-3 24 71 
-15 -90 -58 

-74 63 16 
57 69 98 
-76 107 98 

-112 43 46 
-127 116 42 
80 -99 28 



93 1 42 
-29 66 14 
115 -83 52 

-4 27 38 
92 68 100 
108 -8 -49 

-110 94 37 
-116 49 -20 
-25 -96 -49 

-71 -19 -48 
-3 -80 -42 
8 -30 124 

5 124 -88 
-42 -41 87 
-75 7 -120 

-101 -90 126 
-3 24 71 
-15 -90 -58 

-74 63 16 
57 69 98 
-76 107 98 

-112 43 46 
-127 116 42 
80 -99 28 


93 1 42 
-29 66 14 
115 -83 52 

-4 27 38 
92 68 100 
108 -8 -49 

-110 94 37 
-116 49 -20 
-25 -96 -49 

-71 -19 -48 
-3 -80 -42 
8 -30 124 

5 124 -88 
-42 -41 87 
-75 7 -120 

-101 -90 126 
-3 24 71 
-15 -90 -58 

-74 63 16 
57 69 98 
-76 107 98 

-112 43 46 
-127 116 42 
80 -99 28 


93 1 42 
-29 66 14 
115 -83 52 

-4 27 38 
92 68 100 
108 -8 -49 

-110 94 37 
-116 49 -20 
-25 -96 -49 

-71 -19 -48 
-3 -80 -42 
8 -30 124 

5 124 -88 
-42 -41 87 
-75 7 -120 

-101 -90 126 
-3 24 71 
-15 -90 -58 

-74 63 16 
57 69 98 
-76 107 98 

-112 43 46 
-127 116 42 
80 -99 28 


93 1 42 
-29 66 14 
115 -83 52 

-4 27 38 
92 68 100 
108 -8 -49 

-110 94 37 
-116 49 -20 
-25 -96 -49 

-71 -19 -48 
-3 -80 -42 
8 -30 124 

5 124 -88 
-42 -41 87 
-75 7 -120 

-101 -90 126 
-3 24 71 
-15 -90 -58 

-74 63 16 
57 69 98 
-76 107 98 

-112 43 46 
-127 116 42 
80 -99 28 



93 1 42 
-29 66 14 
115 -83 52 

-4 27 38 
92 68 100 
108 -8 -49 

-110 94 37 
-116 49 -20 
-25 -96 -49 

-71 -19 -48 
-3 -80 -42 
8 -30 124 

5 124 -88 
-42 -41 87 
-75 7 -120 

-101 -90 126 
-3 24 71 
-15 -90 -58 

-74 63 16 
57 69 98 
-76 107 98 

-112 43 46 
-127 116 42 
80 -99 28 


93 1 42 
-29 66 14 
115 -83 52 

-4 27 38 
92 68 100 
108 -8 -49 

-110 94 37 
-116 49 -20 
-25 -96 -49 

-71 -19 -48 
-3 -80 -42 
8 -30 124 

5 124 -88 
-42 -41 87 
-75 7 -120 

-101 -90 126 
-3 24 71 
-15 -90 -58 

-74 63 16 
57 69 98 
-76 107 98 

-112 43 46 
-127 116 42 
80 -99 28 


93 1 42 
-29 66 14 
115 -83 52 

-4 27 38 
92 68 100 
108 -8 -49 

-110 94 37 
-116 49 -20 
-25 -96 -49 

-71 -19 -48 
-3 -80 -42 
8 -30 124 

5 124 -88 
-42 -41 87 
-75 7 -120 

-101 -90 126 
-3 24 71 
-15 -90 -58 

-74 63 16 
57 69 98 
-76 107 98 

-112 43 46 
-127 116 42 
80 -99 28 


93 1 42 
-29 66 14 
115 -83 52 

-4 27 38 
92 68 100 
108 -8 -49 

-110 94 37 
-116 49 -20 
-25 -96 -49 

-71 -19 -48 
-3 -80 -42 
8 -30 124 

5 124 -88 
-42 -41 87 
-75 7 -120 

-101 -90 126 
-3 24 71 
-15 -90 -58 

-74 63 16 
57 69 98 
-76 107 98 

-112 43 46 
-127 116 42 
80 -99 28 



93 1 42 
-29 66 14 
115 -83 52 

-4 27 38 
92 68 100 
108 -8 -49 

-110 94 37 
-116 49 -20 
-25 -96 -49 

-71 -19 -48 
-3 -80 -42 
8 -30 124 

5 124 -88 
-42 -41 87 
-75 7 -120 

-101 -90 126 
-3 24 71 
-15 -90 -58 

-74 63 16 
57 69 98 
-76 107 98 

-112 43 46 
-127 116 42 
80 -99 28 


93 1 42 
-29 66 14 
115 -83 52 

-4 27 38 
92 68 100 
108 -8 -49 

-110 94 37 
-116 49 -20 
-25 -96 -49 

-71 -19 -48 
-3 -80 -42 
8 -30 124 

5 124 -88 
-42 -41 87 
-75 7 -120 

-101 -90 126 
-3 24 71 
-15 -90 -58 

-74 63 16 
57 69 98 
-76 107 98 

-112 43 46 
-127 116 42 
80 -99 28 


93 1 42 
-29 66 14 
115 -83 52 

-4 27 38 
92 68 100 
108 -8 -49 

-110 94 37 
-116 49 -20 
-25 -96 -49 

-71 -19 -48 
-3 -80 -42 
8 -30 124 

5 124 -88 
-42 -41 87 
-75 7 -120 

-101 -90 126 
-3 24 71 
-15 -90 -58 

-74 63 16 
57 69 98 
-76 107 98 

-112 43 46 
-127 116 42 
80 -99 28 


93 1 42 
-29 66 14 
115 -83 52 

-4 27 38 
92 68 100 
108 -8 -49 

-110 94 37 
-116 49 -20 
-25 -96 -49 

-71 -19 -48 
-3 -80 -42 
8 -30 124 

5 124 -88 
-42 -41 87 
-75 7 -120 

-101 -90 126 
-3 24 71 
-15 -90 -58 

-74 63 16 
57 69 98 
-76 107 98 

-112 43 46 
-127 116 42 
80 -99 28 



93 1 42 
-29 66 14 
115 -83 52 

-4 27 38 
92 68 100 
108 -8 -49 

-110 94 37 
-116 49 -20 
-25 -96 -49 

-71 -19 -48 
-3 -80 -42 
8 -30 124 

5 124 -88 
-42 -41 87 
-75 7 -120 

-101 -90 126 
-3 24 71 
-15 -90 -58 

-74 63 16 
57 69 98 
-76 107 98 

-112 43 46 
-127 116 42 
80 -99 28 


93 1 42 
-29 66 14 
115 -83 52 

-4 27 38 
92 68 100 
108 -8 -49 

-110 94 37 
-116 49 -20 
-25 -96 -49 

-71 -19 -48 
-3 -80 -42 
8 -30 124 

5 124 -88 
-42 -41 87 
-75 7 -120 

-101 -90 126 
-3 24 71 
-15 -90 -58 

-74 63 16 
57 69 98 
-76 107 98 

-112 43 46 
-127 116 42 
80 -99 28 


93 1 42 
-29 66 14 
115 -83 52 

-4 27 38 
92 68 100 
108 -8 -49 

-110 94 37 
-116 49 -20 
-25 -96 -49 

-71 -19 -48 
-3 -80 -42 
8 -30 124 

5 124 -88 
-42 -41 87 
-75 7 -120 

-101 -90 126 
-3 24 71 
-15 -90 -58 

-74 63 16 
57 69 98 
-76 107 98 

-112 43 46 
-127 116 42 
80 -99 28 


93 1 42 
-29 66 14 
115 -83 52 

-4 27 38 
92 68 100 
108 -8 -49 

-110 94 37 
-116 49 -20 
-25 -96 -49 

-71 -19 -48 
-3 -80 -42 
8 -30 124 

5 124 -88 
-42 -41 87 
-75 7 -120 

-101 -90 126 
-3 24 71 
-15 -90 -58 

-74 63 16 
57 69 98 
-76 107 98 

-112 43 46 
-127 116 42 
80 -99 28 



93 1 42 
-29 66 14 
115 -83 52 

-4 27 38 
92 68 100 
108 -8 -49 

-110 94 37 
-116 49 -20 
-25 -96 -49 

-71 -19 -48 
-3 -80 -42 
8 -30 124 

5 124 -88 
-42 -41 87 
-75 7 -120 

-101 -90 126 
-3 24 71 
-15 -90 -58 

-74 63 16 
57 69 98 
-76 107 98 

-112 43 46 
-127 116 42 
80 -99 28 


93 1 42 
-29 66 14 
115 -83 52 

-4 27 38 
92 68 100 
108 -8 -49 

-110 94 37 
-116 49 -20 
-25 -96 -49 

-71 -19 -48 
-3 -80 -42 
8 -30 124 

5 124 -88 
-42 -41 87 
-75 7 -120 

-101 -90 126 
-3 24 71 
-15 -90 -58 

-74 63 16 
57 69 98 
-76 107 98 

-112 43 46 
-127 116 42 
80 -99 28 


93 1 42 
-29 66 14 
115 -83 52 

-4 27 38 
92 68 100 
108 -8 -49 

-110 94 37 
-116 49 -20 
-25 -96 -49 

-71 -19 -48 
-3 -80 -42 
8 -30 124 

5 124 -88 
-42 -41 87 
-75 7 -120 

-101 -90 126 
-3 24 71 
-15 -90 -58 

-74 63 16 
57 69 98 
-76 107 98 

-112 43 46 
-127 116 42 
80 -99 28 


93 1 42 
-29 66 14 
115 -83 52 

-4 27 38 
92 68 100 
108 -8 -49 

-110 94 37 
-116 49 -20 
-25 -96 -49 

-71 -19 -48 
-3 -80 -42 
8 -30 124 

5 124 -88 
-42 -41 87 
-75 7 -120 

-101 -90 126 
-3 24 71 
-15 -90 -58 

-74 63 16 
57 69 98 
-76 107 98 

-112 43 46 
-127 116 42 
80 -99 28 




-34 86 -91 
-103 120 10 
-3 111 -42 

-93 -44 -17 
70 -75 -86 
58 58 98 

-93 -124 -108 
19 -56 20 
50 -86 76 

62 26 92 
89 104 29 
24 -54 -80 

73 -49 -67 
-40 97 88 
-28 -56 -122 

-114 -6 1 
5 -27 91 
42 38 -117 

-98 21 -28 
78 -24 90 
71 125 118 

-74 16 0 
-86 -6 -42 
-110 -108 91 


-34 86 -91 
-103 120 10 
-3 111 -42 

-93 -44 -17 
70 -75 -86 
58 58 98 

-93 -124 -108 
19 -56 20 
50 -86 76 

62 26 92 
89 104 29 
24 -54 -80 

73 -49 -67 
-40 97 88 
-28 -56 -122 

-114 -6 1 
5 -27 91 
42 38 -117 

-98 21 -28 
78 -24 90 
71 125 118 

-74 16 0 
-86 -6 -42 
-110 -108 91 


-34 86 -91 
-103 120 10 
-3 111 -42 

-93 -44 -17 
70 -75 -86 
58 58 98 

-93 -124 -108 
19 -56 20 
50 -86 76 

62 26 92 
89 104 29 
24 -54 -80 

73 -49 -67 
-40 97 88 
-28 -56 -122 

-114 -6 1 
5 -27 91 
42 38 -117 

-98 21 -28 
78 -24 90 
71 125 118 

-74 16 0 
-86 -6 -42 
-110 -108 91 


-34 86 -91 
-103 120 10 
-3 111 -42 

-93 -44 -17 
70 -75 -86 
58 58 98 

-93 -124 -108 
19 -56 20 
50 -86 76 

62 26 92 
89 104 29 
24 -54 -80 

73 -49 -67 
-40 97 88 
-28 -56 -122 

-114 -6 1 
5 -27 91 
42 38 -117 

-98 21 -28 
78 -24 90 
71 125 118 

-74 16 0 
-86 -6 -42 
-110 -108 91 



-34 86 -91 
-103 120 10 
-3 111 -42 

-93 -44 -17 
70 -75 -86 
58 58 98 

-93 -124 -108 
19 -56 20 
50 -86 76 

62 26 92 
89 104 29 
24 -54 -80 

73 -49 -67 
-40 97 88 
-28 -56 -122 

-114 -6 1 
5 -27 91 
42 38 -117 

-98 21 -28 
78 -24 90 
71 125 118 

-74 16 0 
-86 -6 -42 
-110 -108 91 


-34 86 -91 
-103 120 10 
-3 111 -42 

-93 -44 -17 
70 -75 -86 
58 58 98 

-93 -124 -108 
19 -56 20 
50 -86 76 

62 26 92 
89 104 29 
24 -54 -80 

73 -49 -67 
-40 97 88 
-28 -56 -122 

-114 -6 1 
5 -27 91 
42 38 -117 

-98 21 -28 
78 -24 90 
71 125 118 

-74 16 0 
-86 -6 -42 
-110 -108 91 


-34 86 -91 
-103 120 10 
-3 111 -42 

-93 -44 -17 
70 -75 -86 
58 58 98 

-93 -124 -108 
19 -56 20 
50 -86 76 

62 26 92 
89 104 29 
24 -54 -80 

73 -49 -67 
-40 97 88 
-28 -56 -122 

-114 -6 1 
5 -27 91 
42 38 -117 

-98 21 -28 
78 -24 90 
71 125 118 

-74 16 0 
-86 -6 -42 
-110 -108 91 


-34 86 -91 
-103 120 10 
-3 111 -42 

-93 -44 -17 
70 -75 -86 
58 58 98 

-93 -124 -108 
19 -56 20 
50 -86 76 

62 26 92 
89 104 29 
24 -54 -80 

73 -49 -67 
-40 97 88 
-28 -56 -122 

-114 -6 1 
5 -27 91 
42 38 -117 

-98 21 -28 
78 -24 90 
71 125 118 

-74 16 0 
-86 -6 -42 
-110 -108 91 



-34 86 -91 
-103 120 10 
-3 111 -42 

-93 -44 -17 
70 -75 -86 
58 58 98 

-93 -124 -108 
19 -56 20 
50 -86 76 

62 26 92 
89 104 29 
24 -54 -80 

73 -49 -67 
-40 97 88 
-28 -56 -122 

-114 -6 1 
5 -27 91 
42 38 -117 

-98 21 -28 
78 -24 90 
71 125 118 

-74 16 0 
-86 -6 -42 
-110 -108 91 


-34 86 -91 
-103 120 10 
-3 111 -42 

-93 -44 -17 
70 -75 -86 
58 58 98 

-93 -124 -108 
19 -56 20 
50 -86 76 

62 26 92 
89 104 29 
24 -54 -80 

73 -49 -67 
-40 97 88 
-28 -56 -122 

-114 -6 1 
5 -27 91 
42 38 -117 

-98 21 -28 
78 -24 90 
71 125 118 

-74 16 0 
-86 -6 -42 
-110 -108 91 


-34 86 -91 
-103 120 10 
-3 111 -42 

-93 -44 -17 
70 -75 -86 
58 58 98 

-93 -124 -108 
19 -56 20 
50 -86 76 

62 26 92 
89 104 29 
24 -54 -80 

73 -49 -67 
-40 97 88 
-28 -56 -122 

-114 -6 1 
5 -27 91 
42 38 -117 

-98 21 -28 
78 -24 90 
71 125 118 

-74 16 0 
-86 -6 -42 
-110 -108 91 


-34 86 -91 
-103 120 10 
-3 111 -42 

-93 -44 -17 
70 -75 -86 
58 58 98 

-93 -124 -108 
19 -56 20 
50 -86 76 

62 26 92 
89 104 29 
24 -54 -80 

73 -49 -67 
-40 97 88 
-28 -56 -122 

-114 -6 1 
5 -27 91 
42 38 -117 

-98 21 -28 
78 -24 90 
71 125 118 

-74 16 0 
-86 -6 -42 
-110 -108 91 



-34 86 -91 
-103 120 10 
-3 111 -42 

-93 -44 -17 
70 -75 -86 
58 58 98 

-93 -124 -108 
19 -56 20 
50 -86 76 

62 26 92 
89 104 29 
24 -54 -80 

73 -49 -67 
-40 97 88 
-28 -56 -122 

-114 -6 1 
5 -27 91 
42 38 -117 

-98 21 -28 
78 -24 90 
71 125 118 

-74 16 0 
-86 -6 -42 
-110 -108 91 


-34 86 -91 
-103 120 10 
-3 111 -42 

-93 -44 -17 
70 -75 -86 
58 58 98 

-93 -124 -108 
19 -56 20 
50 -86 76 

62 26 92 
89 104 29 
24 -54 -80 

73 -49 -67 
-40 97 88 
-28 -56 -122 

-114 -6 1 
5 -27 91 
42 38 -117 

-98 21 -28 
78 -24 90 
71 125 118 

-74 16 0 
-86 -6 -42 
-110 -108 91 


-34 86 -91 
-103 120 10 
-3 111 -42 

-93 -44 -17 
70 -75 -86 
58 58 98 

-93 -124 -108 
19 -56 20 
50 -86 76 

62 26 92 
89 104 29 
24 -54 -80 

73 -49 -67 
-40 97 88 
-28 -56 -122 

-114 -6 1 
5 -27 91 
42 38 -117 

-98 21 -28 
78 -24 90 
71 125 118 

-74 16 0 
-86 -6 -42 
-110 -108 91 


-34 86 -91 
-103 120 10 
-3 111 -42 

-93 -44 -17 
70 -75 -86 
58 58 98 

-93 -124 -108 
19 -56 20 
50 -86 76 

62 26 92 
89 104 29 
24 -54 -80 

73 -49 -67 
-40 97 88 
-28 -56 -122 

-114 -6 1 
5 -27 91 
42 38 -117 

-98 21 -28 
78 -24 90 
71 125 118 

-74 16 0 
-86 -6 -42 
-110 -108 91 



-34 86 -91 
-103 120 10 
-3 111 -42 

-93 -44 -17 
70 -75 -86 
58 58 98 

-93 -124 -108 
19 -56 20 
50 -86 76 

62 26 92 
89 104 29 
24 -54 -80 

73 -49 -67 
-40 97 88 
-28 -56 -122 

-114 -6 1 
5 -27 91 
42 38 -117 

-98 21 -28 
78 -24 90 
71 125 118 

-74 16 0 
-86 -6 -42 
-110 -108 91 


-34 86 -91 
-103 120 10 
-3 111 -42 

-93 -44 -17 
70 -75 -86 
58 58 98 

-93 -124 -108 
19 -56 20 
50 -86 76 

62 26 92 
89 104 29 
24 -54 -80 

73 -49 -67 
-40 97 88 
-28 -56 -122 

-114 -6 1 
5 -27 91 
42 38 -117 

-98 21 -28 
78 -24 90 
71 125 118 

-74 16 0 
-86 -6 -42 
-110 -108 91 


-34 86 -91 
-103 120 10 
-3 111 -42 

-93 -44 -17 
70 -75 -86 
58 58 98 

-93 -124 -108 
19 -56 20 
50 -86 76 

62 26 92 
89 104 29 
24 -54 -80 

73 -49 -67 
-40 97 88 
-28 -56 -122 

-114 -6 1 
5 -27 91 
42 38 -117 

-98 21 -28 
78 -24 90 
71 125 118 

-74 16 0 
-86 -6 -42 
-110 -108 91 


-34 86 -91 
-103 120 10 
-3 111 -42 

-93 -44 -17 
70 -75 -86 
58 58 98 

-93 -124 -108 
19 -56 20 
50 -86 76 

62 26 92 
89 104 29 
24 -54 -80 

73 -49 -67 
-40 97 88 
-28 -56 -122 

-114 -6 1 
5 -27 91 
42 38 -117 

-98 21 -28 
78 -24 90 
71 125 118 

-74 16 0 
-86 -6 -42 
-110 -108 91 



-34 86 -91 
-103 120 10 
-3 111 -42 

-93 -44 -17 
70 -75 -86 
58 58 98 

-93 -124 -108 
19 -56 20 
50 -86 76 

62 26 92 
89 104 29 
24 -54 -80 

73 -49 -67 
-40 97 88 
-28 -56 -122 

-114 -6 1 
5 -27 91 
42 38 -117 

-98 21 -28 
78 -24 90 
71 125 118 

-74 16 0 
-86 -6 -42 
-110 -108 91 


-34 86 -91 
-103 120 10 
-3 111 -42 

-93 -44 -17 
70 -75 -86 
58 58 98 

-93 -124 -108 
19 -56 20 
50 -86 76 

62 26 92 
89 104 29 
24 -54 -80 

73 -49 -67 
-40 97 88 
-28 -56 -122 

-114 -6 1 
5 -27 91 
42 38 -117 

-98 21 -28 
78 -24 90 
71 125 118 

-74 16 0 
-86 -6 -42 
-110 -108 91 


-34 86 -91 
-103 120 10 
-3 111 -42 

-93 -44 -17 
70 -75 -86 
58 58 98 

-93 -124 -108 
19 -56 20 
50 -86 76 

62 26 92 
89 104 29 
24 -54 -80 

73 -49 -67 
-40 97 88 
-28 -56 -122 

-114 -6 1 
5 -27 91 
42 38 -117 

-98 21 -28 
78 -24 90 
71 125 118 

-74 16 0 
-86 -6 -42 
-110 -108 91 


-34 86 -91 
-103 120 10 
-3 111 -42 

-93 -44 -17 
70 -75 -86 
58 58 98 

-93 -124 -108 
19 -56 20 
50 -86 76 

62 26 92 
89 104 29 
24 -54 -80 

73 -49 -67 
-40 97 88 
-28 -56 -122 

-114 -6 1 
5 -27 91 
42 38 -117 

-98 21 -28 
78 -24 90 
71 125 118 

-74 16 0 
-86 -6 -42 
-110 -108 91 



-34 86 -91 
-103 120 10 
-3 111 -42 

-93 -44 -17 
70 -75 -86 
58 58 98 

-93 -124 -108 
19 -56 20 
50 -86 76 

62 26 92 
89 104 29 
24 -54 -80 

73 -49 -67 
-40 97 88 
-28 -56 -122 

-114 -6 1 
5 -27 91 
42 38 -117 

-98 21 -28 
78 -24 90 
71 125 118 

-74 16 0 
-86 -6 -42 
-110 -108 91 


-34 86 -91 
-103 120 10 
-3 111 -42 

-93 -44 -17 
70 -75 -86 
58 58 98 

-93 -124 -108 
19 -56 20 
50 -86 76 

62 26 92 
89 104 29 
24 -54 -80 

73 -49 -67 
-40 97 88 
-28 -56 -122 

-114 -6 1 
5 -27 91 
42 38 -117 

-98 21 -28 
78 -24 90 
71 125 118 

-74 16 0 
-86 -6 -42 
-110 -108 91 


-34 86 -91 
-103 120 10 
-3 111 -42 

-93 -44 -17 
70 -75 -86 
58 58 98 

-93 -124 -108 
19 -56 20 
50 -86 76 

62 26 92 
89 104 29 
24 -54 -80 

73 -49 -67 
-40 97 88 
-28 -56 -122 

-114 -6 1 
5 -27 91 
42 38 -117 

-98 21 -28 
78 -24 90 
71 125 118 

-74 16 0 
-86 -6 -42 
-110 -108 91 


-34 86 -91 
-103 120 10 
-3 111 -42 

-93 -44 -17 
70 -75 -86 
58 58 98 

-93 -124 -108 
19 -56 20 
50 -86 76 

62 26 92 
89 104 29 
24 -54 -80 

73 -49 -67 
-40 97 88 
-28 -56 -122 

-114 -6 1 
5 -27 91 
42 38 -117 

-98 21 -28 
78 -24 90 
71 125 118 

-74 16 0 
-86 -6 -42 
-110 -108 91 



-34 86 -91 
-103 120 10 
-3 111 -42 

-93 -44 -17 
70 -75 -86 
58 58 98 

-93 -124 -108 
19 -56 20 
50 -86 76 

62 26 92 
89 104 29 
24 -54 -80 

73 -49 -67 
-40 97 88 
-28 -56 -122 

-114 -6 1 
5 -27 91 
42 38 -117 

-98 21 -28 
78 -24 90 
71 125 118 

-74 16 0 
-86 -6 -42 
-110 -108 91 


-34 86 -91 
-103 120 10 
-3 111 -42 

-93 -44 -17 
70 -75 -86 
58 58 98 

-93 -124 -108 
19 -56 20 
50 -86 76 

62 26 92 
89 104 29 
24 -54 -80 

73 -49 -67 
-40 97 88 
-28 -56 -122 

-114 -6 1 
5 -27 91 
42 38 -117 

-98 21 -28 
78 -24 90 
71 125 118 

-74 16 0 
-86 -6 -42 
-110 -108 91 


-34 86 -91 
-103 120 10 
-3 111 -42 

-93 -44 -17 
70 -75 -86 
58 58 98 

-93 -124 -108 
19 -56 20 
50 -86 76 

62 26 92 
89 104 29 
24 -54 -80 

73 -49 -67 
-40 97 88 
-28 -56 -122 

-114 -6 1 
5 -27 91 
42 38 -117 

-98 21 -28 
78 -24 90 
71 125 118 

-74 16 0 
-86 -6 -42 
-110 -108 91 


-34 86 -91 
-103 120 10 
-3 111 -42 

-93 -44 -17 
70 -75 -86 
58 58 98 

-93 -124 -108 
19 -56 20 
50 -86 76 

62 26 92 
89 104 29 
24 -54 -80 

73 -49 -67 
-40 97 88 
-28 -56 -122 

-114 -6 1 
5 -27 91 
42 38 -117 

-98 21 -28 
78 -24 90 
71 125 118 

-74 16 0 
-86 -6 -42 
-110 -108 91 



-34 86 -91 
-103 120 10 
-3 111 -42 

-93 -44 -17 
70 -75 -86 
58 58 98 

-93 -124 -108 
19 -56 20 
50 -86 76 

62 26 92 
89 104 29 
24 -54 -80 

73 -49 -67 
-40 97 88 
-28 -56 -122 

-114 -6 1 
5 -27 91 
42 38 -117 

-98 21 -28 
78 -24 90 
71 125 118 

-74 16 0 
-86 -6 -42 
-110 -108 91 


-34 86 -91 
-103 120 10 
-3 111 -42 

-93 -44 -17 
70 -75 -86 
58 58 98 

-93 -124 -108 
19 -56 20 
50 -86 76 

62 26 92 
89 104 29 
24 -54 -80 

73 -49 -67 
-40 97 88 
-28 -56 -122 

-114 -6 1 
5 -27 91 
42 38 -117 

-98 21 -28 
78 -24 90 
71 125 118 

-74 16 0 
-86 -6 -42 
-110 -108 91 


-34 86 -91 
-103 120 10 
-3 111 -42 

-93 -44 -17 
70 -75 -86 
58 58 98 

-93 -124 -108 
19 -56 20 
50 -86 76 

62 26 92 
89 104 29 
24 -54 -80 

73 -49 -67 
-40 97 88 
-28 -56 -122 

-114 -6 1 
5 -27 91 
42 38 -117 

-98 21 -28 
78 -24 90 
71 125 118 

-74 16 0 
-86 -6 -42 
-110 -108 91 


-34 86 -91 
-103 120 10 
-3 111 -42 

-93 -44 -17 
70 -75 -86 
58 58 98 

-93 -124 -108 
19 -56 20 
50 -86 76 

62 26 92 
89 104 29 
24 -54 -80 

73 -49 -67 
-40 97 88 
-28 -56 -122 

-114 -6 1 
5 -27 91 
42 38 -117 

-98 21 -28 
78 -24 90 
71 125 118 

-74 16 0 
-86 -6 -42 
-110 -108 91 



-34 86 -91 
-103 120 10 
-3 111 -42 

-93 -44 -17 
70 -75 -86 
58 58 98 

-93 -124 -108 
19 -56 20 
50 -86 76 

62 26 92 
89 104 29 
24 -54 -80 

73 -49 -67 
-40 97 88 
-28 -56 -122 

-114 -6 1 
5 -27 91 
42 38 -117 

-98 21 -28 
78 -24 90 
71 125 118 

-74 16 0 
-86 -6 -42 
-110 -108 91 


-34 86 -91 
-103 120 10 
-3 111 -42 

-93 -44 -17 
70 -75 -86 
58 58 98 

-93 -124 -108 
19 -56 20 
50 -86 76 

62 26 92 
89 104 29 
24 -54 -80 

73 -49 -67 
-40 97 88 
-28 -56 -122 

-114 -6 1 
5 -27 91 
42 38 -117 

-98 21 -28 
78 -24 90 
71 125 118 

-74 16 0 
-86 -6 -42 
-110 -108 91 


-34 86 -91 
-103 120 10 
-3 111 -42 

-93 -44 -17 
70 -75 -86 
58 58 98 

-93 -124 -108 
19 -56 20 
50 -86 76 

62 26 92 
89 104 29 
24 -54 -80 

73 -49 -67 
-40 97 88 
-28 -56 -122 

-114 -6 1 
5 -27 91 
42 38 -117 

-98 21 -28 
78 -24 90 
71 125 118 

-74 16 0 
-86 -6 -42 
-110 -108 91 


-34 86 -91 
-103 120 10 
-3 111 -42 

-93 -44 -17 
70 -75 -86 
58 58 98 

-93 -124 -108 
19 -56 20 
50 -86 76 

62 26 92 
89 104 29 
24 -54 -80 

73 -49 -67 
-40 97 88 
-28 -56 -122 

-114 -6 1 
5 -27 91 
42 38 -117 

-98 21 -28 
78 -24 90 
71 125 118 

-74 16 0 
-86 -6 -42 
-110 -108 91 



-34 86 -91 
-103 120 10 
-3 111 -42 

-93 -44 -17 
70 -75 -86 
58 58 98 

-93 -124 -108 
19 -56 20 
50 -86 76 

62 26 92 
89 104 29 
24 -54 -80 

73 -49 -67 
-40 97 88 
-28 -56 -122 

-114 -6 1 
5 -27 91 
42 38 -117 

-98 21 -28 
78 -24 90 
71 125 118 

-74 16 0 
-86 -6 -42 
-110 -108 91 


-34 86 -91 
-103 120 10 
-3 111 -42 

-93 -44 -17 
70 -75 -86 
58 58 98 

-93 -124 -108 
19 -56 20 
50 -86 76 

62 26 92 
89 104 29 
24 -54 -80 

73 -49 -67 
-40 97 88 
-28 -56 -122 

-114 -6 1 
5 -27 91 
42 38 -117 

-98 21 -28 
78 -24 90 
71 125 118 

-74 16 0 
-86 -6 -42 
-110 -108 91 


-34 86 -91 
-103 120 10 
-3 111 -42 

-93 -44 -17 
70 -75 -86 
58 58 98 

-93 -124 -108 
19 -56 20 
50 -86 76 

62 26 92 
89 104 29 
24 -54 -80 

73 -49 -67 
-40 97 88 
-28 -56 -122 

-114 -6 1 
5 -27 91 
42 38 -117 

-98 21 -28 
78 -24 90 
71 125 118 

-74 16 0 
-86 -6 -42 
-110 -108 91 


-34 86 -91 
-103 120 10 
-3 111 -42 

-93 -44 -17 
70 -75 -86 
58 58 98 

-93 -124 -108 
19 -56 20 
50 -86 76 

62 26 92 
89 104 29 
24 -54 -80 

73 -49 -67 
-40 97 88 
-28 -56 -122 

-114 -6 1 
5 -27 91 
42 38 -117 

-98 21 -28 
78 -24 90 
71 125 118 

-74 16 0 
-86 -6 -42 
-110 -108 91 



-34 86 -91 
-103 120 10 
-3 111 -42 

-93 -44 -17 
70 -75 -86 
58 58 98 

-93 -124 -108 
19 -56 20 
50 -86 76 

62 26 92 
89 104 29 
24 -54 -80 

73 -49 -67 
-40 97 88 
-28 -56 -122 

-114 -6 1 
5 -27 91 
42 38 -117 

-98 21 -28 
78 -24 90 
71 125 118 

-74 16 0 
-86 -6 -42 
-110 -108 91 


-34 86 -91 
-103 120 10 
-3 111 -42 

-93 -44 -17 
70 -75 -86 
58 58 98 

-93 -124 -108 
19 -56 20 
50 -86 76 

62 26 92 
89 104 29 
24 -54 -80 

73 -49 -67 
-40 97 88 
-28 -56 -122 

-114 -6 1 
5 -27 91 
42 38 -117 

-98 21 -28 
78 -24 90 
71 125 118 

-74 16 0 
-86 -6 -42 
-110 -108 91 


-34 86 -91 
-103 120 10 
-3 111 -42 

-93 -44 -17 
70 -75 -86 
58 58 98 

-93 -124 -108 
19 -56 20 
50 -86 76 

62 26 92 
89 104 29 
24 -54 -80 

73 -49 -67 
-40 97 88 
-28 -56 -122 

-114 -6 1 
5 -27 91 
42 38 -117 

-98 21 -28 
78 -24 90 
71 125 118 

-74 16 0 
-86 -6 -42 
-110 -108 91 


-34 86 -91 
-103 120 10 
-3 111 -42 

-93 -44 -17 
70 -75 -86 
58 58 98 

-93 -124 -108 
19 -56 20 
50 -86 76 

62 26 92 
89 104 29 
24 -54 -80 

73 -49 -67 
-40 97 88 
-28 -56 -122 

-114 -6 1 
5 -27 91 
42 38 -117 

-98 21 -28 
78 -24 90 
71 125 118 

-74 16 0 
-86 -6 -42 
-110 -108 91 



-34 86 -91 
-103 120 10 
-3 111 -42 

-93 -44 -17 
70 -75 -86 
58 58 98 

-93 -124 -108 
19 -56 20 
50 -86 76 

62 26 92 
89 104 29 
24 -54 -80 

73 -49 -67 
-40 97 88 
-28 -56 -122 

-114 -6 1 
5 -27 91 
42 38 -117 

-98 21 -28 
78 -24 90 
71 125 118 

-74 16 0 
-86 -6 -42 
-110 -108 91 


-34 86 -91 
-103 120 10 
-3 111 -42 

-93 -44 -17 
70 -75 -86 
58 58 98 

-93 -124 -108 
19 -56 20 
50 -86 76 

62 26 92 
89 104 29 
24 -54 -80 

73 -49 -67 
-40 97 88 
-28 -56 -122 

-114 -6 1 
5 -27 91 
42 38 -117 

-98 21 -28 
78 -24 90 
71 125 118 

-74 16 0 
-86 -6 -42 
-110 -108 91 


-34 86 -91 
-103 120 10 
-3 111 -42 

-93 -44 -17 
70 -75 -86 
58 58 98 

-93 -124 -108 
19 -56 20 
50 -86 76 

62 26 92 
89 104 29 
24 -54 -80 

73 -49 -67 
-40 97 88 
-28 -56 -122 

-114 -6 1 
5 -27 91 
42 38 -117 

-98 21 -28 
78 -24 90 
71 125 118 

-74 16 0 
-86 -6 -42 
-110 -108 91 


-34 86 -91 
-103 120 10 
-3 111 -42 

-93 -44 -17 
70 -75 -86 
58 58 98 

-93 -124 -108 
19 -56 20 
50 -86 76 

62 26 92 
89 104 29 
24 -54 -80 

73 -49 -67 
-40 97 88 
-28 -56 -122 

-114 -6 1 
5 -27 91 
42 38 -117 

-98 21 -28 
78 -24 90 
71 125 118 

-74 16 0 
-86 -6 -42 
-110 -108 91 




10 -47 -59 
85 -65 56 
53 121 -35 

-27 1 -77 
-112 -56 8 
-1 115 33 

4 124 -22 
-124 -91 -34 
-56 -86 -44 

-125 84 46 
-45 114 102 
-127 93 -82 

97 51 58 
31 -34 -61 
-118 124 -15 

7 -78 -70 
-32 120 76 
108 65 42 

-30 116 -104 
-12 110 -48 
43 59 3 

-75 -8 -124 
88 -54 12 
81 -74 -61 


10 -47 -59 
85 -65 56 
53 121 -35 

-27 1 -77 
-112 -56 8 
-1 115 33 

4 124 -22 
-124 -91 -34 
-56 -86 -44 

-125 84 46 
-45 114 102 
-127 93 -82 

97 51 58 
31 -34 -61 
-118 124 -15 

7 -78 -70 
-32 120 76 
108 65 42 

-30 116 -104 
-12 110 -48 
43 59 3 

-75 -8 -124 
88 -54 12 
81 -74 -61 


10 -47 -59 
85 -65 56 
53 121 -35 

-27 1 -77 
-112 -56 8 
-1 115 33 

4 124 -22 
-124 -91 -34 
-56 -86 -44 

-125 84 46 
-45 114 102 
-127 93 -82 

97 51 58 
31 -34 -61 
-118 124 -15 

7 -78 -70 
-32 120 76 
108 65 42 

-30 116 -104 
-12 110 -48 
43 59 3 

-75 -8 -124 
88 -54 12 
81 -74 -61 


10 -47 -59 
85 -65 56 
53 121 -35 

-27 1 -77 
-112 -56 8 
-1 115 33 

4 124 -22 
-124 -91 -34 
-56 -86 -44 

-125 84 46 
-45 114 102 
-127 93 -82 

97 51 58 
31 -34 -61 
-118 124 -15 

7 -78 -70 
-32 120 76 
108 65 42 

-30 116 -104 
-12 110 -48 
43 59 3 

-75 -8 -124 
88 -54 12 
81 -74 -61 



10 -47 -59 
85 -65 56 
53 121 -35 

-27 1 -77 
-112 -56 8 
-1 115 33 

4 124 -22 
-124 -91 -34 
-56 -86 -44 

-125 84 46 
-45 114 102 
-127 93 -82 

97 51 58 
31 -34 -61 
-118 124 -15 

7 -78 -70 
-32 120 76 
108 65 42 

-30 116 -104 
-12 110 -48 
43 59 3 

-75 -8 -124 
88 -54 12 
81 -74 -61 


10 -47 -59 
85 -65 56 
53 121 -35 

-27 1 -77 
-112 -56 8 
-1 115 33 

4 124 -22 
-124 -91 -34 
-56 -86 -44 

-125 84 46 
-45 114 102 
-127 93 -82 

97 51 58 
31 -34 -61 
-118 124 -15 

7 -78 -70 
-32 120 76 
108 65 42 

-30 116 -104 
-12 110 -48 
43 59 3 

-75 -8 -124 
88 -54 12 
81 -74 -61 


10 -47 -59 
85 -65 56 
53 121 -35 

-27 1 -77 
-112 -56 8 
-1 115 33 

4 124 -22 
-124 -91 -34 
-56 -86 -44 

-125 84 46 
-45 114 102 
-127 93 -82 

97 51 58 
31 -34 -61 
-118 124 -15 

7 -78 -70 
-32 120 76 
108 65 42 

-30 116 -104 
-12 110 -48 
43 59 3 

-75 -8 -124 
88 -54 12 
81 -74 -61 


10 -47 -59 
85 -65 56 
53 121 -35 

-27 1 -77 
-112 -56 8 
-1 115 33 

4 124 -22 
-124 -91 -34 
-56 -86 -44 

-125 84 46 
-45 114 102 
-127 93 -82 

97 51 58 
31 -34 -61 
-118 124 -15 

7 -78 -70 
-32 120 76 
108 65 42 

-30 116 -104 
-12 110 -48 
43 59 3 

-75 -8 -124 
88 -54 12 
81 -74 -61 



10 -47 -59 
85 -65 56 
53 121 -35 

-27 1 -77 
-112 -56 8 
-1 115 33 

4 124 -22 
-124 -91 -34 
-56 -86 -44 

-125 84 46 
-45 114 102 
-127 93 -82 

97 51 58 
31 -34 -61 
-118 124 -15 

7 -78 -70 
-32 120 76 
108 65 42 

-30 116 -104 
-12 110 -48 
43 59 3 

-75 -8 -124 
88 -54 12 
81 -74 -61 


10 -47 -59 
85 -65 56 
53 121 -35 

-27 1 -77 
-112 -56 8 
-1 115 33 

4 124 -22 
-124 -91 -34 
-56 -86 -44 

-125 84 46 
-45 114 102 
-127 93 -82 

97 51 58 
31 -34 -61 
-118 124 -15 

7 -78 -70 
-32 120 76 
108 65 42 

-30 116 -104 
-12 110 -48 
43 59 3 

-75 -8 -124 
88 -54 12 
81 -74 -61 


10 -47 -59 
85 -65 56 
53 121 -35 

-27 1 -77 
-112 -56 8 
-1 115 33 

4 124 -22 
-124 -91 -34 
-56 -86 -44 

-125 84 46 
-45 114 102 
-127 93 -82 

97 51 58 
31 -34 -61 
-118 124 -15 

7 -78 -70 
-32 120 76 
108 65 42 

-30 116 -104 
-12 110 -48 
43 59 3 

-75 -8 -124 
88 -54 12 
81 -74 -61 


10 -47 -59 
85 -65 56 
53 121 -35 

-27 1 -77 
-112 -56 8 
-1 115 33 

4 124 -22 
-124 -91 -34 
-56 -86 -44 

-125 84 46 
-45 114 102 
-127 93 -82 

97 51 58 
31 -34 -61 
-118 124 -15 

7 -78 -70 
-32 120 76 
108 65 42 

-30 116 -104 
-12 110 -48 
43 59 3 

-75 -8 -124 
88 -54 12 
81 -74 -61 



10 -47 -59 
85 -65 56 
53 121 -35 

-27 1 -77 
-112 -56 8 
-1 115 33 

4 124 -22 
-124 -91 -34 
-56 -86 -44 

-125 84 46 
-45 114 102 
-127 93 -82 

97 51 58 
31 -34 -61 
-118 124 -15 

7 -78 -70 
-32 120 76 
108 65 42 

-30 116 -104 
-12 110 -48 
43 59 3 

-75 -8 -124 
88 -54 12 
81 -74 -61 


10 -47 -59 
85 -65 56 
53 121 -35 

-27 1 -77 
-112 -56 8 
-1 115 33 

4 124 -22 
-124 -91 -34 
-56 -86 -44 

-125 84 46 
-45 114 102 
-127 93 -82 

97 51 58 
31 -34 -61 
-118 124 -15 

7 -78 -70 
-32 120 76 
108 65 42 

-30 116 -104 
-12 110 -48 
43 59 3 

-75 -8 -124 
88 -54 12 
81 -74 -61 


10 -47 -59 
85 -65 56 
53 121 -35 

-27 1 -77 
-112 -56 8 
-1 115 33 

4 124 -22 
-124 -91 -34 
-56 -86 -44 

-125 84 46 
-45 114 102 
-127 93 -82 

97 51 58 
31 -34 -61 
-118 124 -15 

7 -78 -70 
-32 120 76 
108 65 42 

-30 116 -104 
-12 110 -48 
43 59 3 

-75 -8 -124 
88 -54 12 
81 -74 -61 


10 -47 -59 
85 -65 56 
53 121 -35 

-27 1 -77 
-112 -56 8 
-1 115 33 

4 124 -22 
-124 -91 -34 
-56 -86 -44 

-125 84 46 
-45 114 102 
-127 93 -82 

97 51 58 
31 -34 -61 
-118 124 -15 

7 -78 -70 
-32 120 76 
108 65 42 

-30 116 -104 
-12 110 -48 
43 59 3 

-75 -8 -124 
88 -54 12 
81 -74 -61 



10 -47 -59 
85 -65 56 
53 121 -35 

-27 1 -77 
-112 -56 8 
-1 115 33 

4 124 -22 
-124 -91 -34 
-56 -86 -44 

-125 84 46 
-45 114 102 
-127 93 -82 

97 51 58 
31 -34 -61 
-118 124 -15 

7 -78 -70 
-32 120 76 
108 65 42 

-30 116 -104 
-12 110 -48 
43 59 3 

-75 -8 -124 
88 -54 12 
81 -74 -61 


10 -47 -59 
85 -65 56 
53 121 -35 

-27 1 -77 
-112 -56 8 
-1 115 33 

4 124 -22 
-124 -91 -34 
-56 -86 -44 

-125 84 46 
-45 114 102 
-127 93 -82 

97 51 58 
31 -34 -61 
-118 124 -15 

7 -78 -70 
-32 120 76 
108 65 42 

-30 116 -104 
-12 110 -48 
43 59 3 

-75 -8 -124 
88 -54 12 
81 -74 -61 


10 -47 -59 
85 -65 56 
53 121 -35 

-27 1 -77 
-112 -56 8 
-1 115 33 

4 124 -22 
-124 -91 -34 
-56 -86 -44 

-125 84 46 
-45 114 102 
-127 93 -82 

97 51 58 
31 -34 -61 
-118 124 -15 

7 -78 -70 
-32 120 76 
108 65 42 

-30 116 -104 
-12 110 -48 
43 59 3 

-75 -8 -124 
88 -54 12 
81 -74 -61 


10 -47 -59 
85 -65 56 
53 121 -35 

-27 1 -77 
-112 -56 8 
-1 115 33 

4 124 -22 
-124 -91 -34 
-56 -86 -44 

-125 84 46 
-45 114 102 
-127 93 -82 

97 51 58 
31 -34 -61 
-118 124 -15 

7 -78 -70 
-32 120 76 
108 65 42 

-30 116 -104 
-12 110 -48 
43 59 3 

-75 -8 -124 
88 -54 12 
81 -74 -61 



10 -47 -59 
85 -65 56 
53 121 -35 

-27 1 -77 
-112 -56 8 
-1 115 33 

4 124 -22 
-124 -91 -34 
-56 -86 -44 

-125 84 46 
-45 114 102 
-127 93 -82 

97 51 58 
31 -34 -61 
-118 124 -15 

7 -78 -70 
-32 120 76 
108 65 42 

-30 116 -104 
-12 110 -48 
43 59 3 

-75 -8 -124 
88 -54 12 
81 -74 -61 


10 -47 -59 
85 -65 56 
53 121 -35 

-27 1 -77 
-112 -56 8 
-1 115 33 

4 124 -22 
-124 -91 -34 
-56 -86 -44 

-125 84 46 
-45 114 102 
-127 93 -82 

97 51 58 
31 -34 -61 
-118 124 -15 

7 -78 -70 
-32 120 76 
108 65 42 

-30 116 -104 
-12 110 -48 
43 59 3 

-75 -8 -124 
88 -54 12 
81 -74 -61 


10 -47 -59 
85 -65 56 
53 121 -35 

-27 1 -77 
-112 -56 8 
-1 115 33 

4 124 -22 
-124 -91 -34 
-56 -86 -44 

-125 84 46 
-45 114 102 
-127 93 -82 

97 51 58 
31 -34 -61 
-118 124 -15 

7 -78 -70 
-32 120 76 
108 65 42 

-30 116 -104 
-12 110 -48 
43 59 3 

-75 -8 -124 
88 -54 12 
81 -74 -61 


10 -47 -59 
85 -65 56 
53 121 -35 

-27 1 -77 
-112 -56 8 
-1 115 33 

4 124 -22 
-124 -91 -34 
-56 -86 -44 

-125 84 46 
-45 114 102 
-127 93 -82 

97 51 58 
31 -34 -61 
-118 124 -15 

7 -78 -70 
-32 120 76 
108 65 42 

-30 116 -104 
-12 110 -48 
43 59 3 

-75 -8 -124 
88 -54 12 
81 -74 -61 



10 -47 -59 
85 -65 56 
53 121 -35 

-27 1 -77 
-112 -56 8 
-1 115 33 

4 124 -22 
-124 -91 -34 
-56 -86 -44 

-125 84 46 
-45 114 102 
-127 93 -82 

97 51 58 
31 -34 -61 
-118 124 -15 

7 -78 -70 
-32 120 76 
108 65 42 

-30 116 -104 
-12 110 -48 
43 59 3 

-75 -8 -124 
88 -54 12 
81 -74 -61 


10 -47 -59 
85 -65 56 
53 121 -35 

-27 1 -77 
-112 -56 8 
-1 115 33 

4 124 -22 
-124 -91 -34 
-56 -86 -44 

-125 84 46 
-45 114 102 
-127 93 -82 

97 51 58 
31 -34 -61 
-118 124 -15 

7 -78 -70 
-32 120 76 
108 65 42 

-30 116 -104 
-12 110 -48 
43 59 3 

-75 -8 -124 
88 -54 12 
81 -74 -61 


10 -47 -59 
85 -65 56 
53 121 -35 

-27 1 -77 
-112 -56 8 
-1 115 33 

4 124 -22 
-124 -91 -34 
-56 -86 -44 

-125 84 46 
-45 114 102 
-127 93 -82 

97 51 58 
31 -34 -61 
-118 124 -15 

7 -78 -70 
-32 120 76 
108 65 42 

-30 116 -104 
-12 110 -48 
43 59 3 

-75 -8 -124 
88 -54 12 
81 -74 -61 


10 -47 -59 
85 -65 56 
53 121 -35 

-27 1 -77 
-112 -56 8 
-1 115 33 

4 124 -22 
-124 -91 -34 
-56 -86 -44 

-125 84 46 
-45 114 102 
-127 93 -82 

97 51 58 
31 -34 -61 
-118 124 -15 

7 -78 -70 
-32 120 76 
108 65 42 

-30 116 -104 
-12 110 -48 
43 59 3 

-75 -8 -124 
88 -54 12 
81 -74 -61 



10 -47 -59 
85 -65 56 
53 121 -35 

-27 1 -77 
-112 -56 8 
-1 115 33 

4 124 -22 
-124 -91 -34 
-56 -86 -44 

-125 84 46 
-45 114 102 
-127 93 -82 

97 51 58 
31 -34 -61 
-118 124 -15 

7 -78 -70 
-32 120 76 
108 65 42 

-30 116 -104 
-12 110 -48 
43 59 3 

-75 -8 -124 
88 -54 12 
81 -74 -61 


10 -47 -59 
85 -65 56 
53 121 -35 

-27 1 -77 
-112 -56 8 
-1 115 33 

4 124 -22 
-124 -91 -34 
-56 -86 -44 

-125 84 46 
-45 114 102 
-127 93 -82 

97 51 58 
31 -34 -61 
-118 124 -15 

7 -78 -70 
-32 120 76 
108 65 42 

-30 116 -104 
-12 110 -48 
43 59 3 

-75 -8 -124 
88 -54 12 
81 -74 -61 


10 -47 -59 
85 -65 56 
53 121 -35 

-27 1 -77 
-112 -56 8 
-1 115 33 

4 124 -22 
-124 -91 -34 
-56 -86 -44 

-125 84 46 
-45 114 102 
-127 93 -82 

97 51 58 
31 -34 -61 
-118 124 -15 

7 -78 -70 
-32 120 76 
108 65 42 

-30 116 -104 
-12 110 -48 
43 59 3 

-75 -8 -124 
88 -54 12 
81 -74 -61 


10 -47 -59 
85 -65 56 
53 121 -35 

-27 1 -77 
-112 -56 8 
-1 115 33 

4 124 -22 
-124 -91 -34 
-56 -86 -44 

-125 84 46 
-45 114 102 
-127 93 -82 

97 51 58 
31 -34 -61 
-118 124 -15 

7 -78 -70 
-32 120 76 
108 65 42 

-30 116 -104 
-12 110 -48 
43 59 3 

-75 -8 -124 
88 -54 12 
81 -74 -61 



10 -47 -59 
85 -65 56 
53 121 -35 

-27 1 -77 
-112 -56 8 
-1 115 33 

4 124 -22 
-124 -91 -34 
-56 -86 -44 

-125 84 46 
-45 114 102 
-127 93 -82 

97 51 58 
31 -34 -61 
-118 124 -15 

7 -78 -70 
-32 120 76 
108 65 42 

-30 116 -104 
-12 110 -48 
43 59 3 

-75 -8 -124 
88 -54 12 
81 -74 -61 


10 -47 -59 
85 -65 56 
53 121 -35 

-27 1 -77 
-112 -56 8 
-1 115 33 

4 124 -22 
-124 -91 -34 
-56 -86 -44 

-125 84 46 
-45 114 102 
-127 93 -82 

97 51 58 
31 -34 -61 
-118 124 -15 

7 -78 -70 
-32 120 76 
108 65 42 

-30 116 -104 
-12 110 -48 
43 59 3 

-75 -8 -124 
88 -54 12 
81 -74 -61 


10 -47 -59 
85 -65 56 
53 121 -35 

-27 1 -77 
-112 -56 8 
-1 115 33 

4 124 -22 
-124 -91 -34 
-56 -86 -44 

-125 84 46 
-45 114 102 
-127 93 -82 

97 51 58 
31 -34 -61 
-118 124 -15 

7 -78 -70 
-32 120 76 
108 65 42 

-30 116 -104 
-12 110 -48 
43 59 3 

-75 -8 -124 
88 -54 12 
81 -74 -61 


10 -47 -59 
85 -65 56 
53 121 -35 

-27 1 -77 
-112 -56 8 
-1 115 33 

4 124 -22 
-124 -91 -34 
-56 -86 -44 

-125 84 46 
-45 114 102 
-127 93 -82 

97 51 58 
31 -34 -61 
-118 124 -15 

7 -78 -70 
-32 120 76 
108 65 42 

-30 116 -104 
-12 110 -48 
43 59 3 

-75 -8 -124 
88 -54 12 
81 -74 -61 



10 -47 -59 
85 -65 56 
53 121 -35 

-27 1 -77 
-112 -56 8 
-1 115 33 

4 124 -22 
-124 -91 -34 
-56 -86 -44 

-125 84 46 
-45 114 102 
-127 93 -82 

97 51 58 
31 -34 -61 
-118 124 -15 

7 -78 -70 
-32 120 76 
108 65 42 

-30 116 -104 
-12 110 -48 
43 59 3 

-75 -8 -124 
88 -54 12 
81 -74 -61 


10 -47 -59 
85 -65 56 
53 121 -35 

-27 1 -77 
-112 -56 8 
-1 115 33 

4 124 -22 
-124 -91 -34 
-56 -86 -44 

-125 84 46 
-45 114 102 
-127 93 -82 

97 51 58 
31 -34 -61 
-118 124 -15 

7 -78 -70 
-32 120 76 
108 65 42 

-30 116 -104 
-12 110 -48 
43 59 3 

-75 -8 -124 
88 -54 12 
81 -74 -61 


10 -47 -59 
85 -65 56 
53 121 -35 

-27 1 -77 
-112 -56 8 
-1 115 33 

4 124 -22 
-124 -91 -34 
-56 -86 -44 

-125 84 46 
-45 114 102 
-127 93 -82 

97 51 58 
31 -34 -61 
-118 124 -15 

7 -78 -70 
-32 120 76 
108 65 42 

-30 116 -104 
-12 110 -48 
43 59 3 

-75 -8 -124 
88 -54 12 
81 -74 -61 


10 -47 -59 
85 -65 56 
53 121 -35 

-27 1 -77 
-112 -56 8 
-1 115 33 

4 124 -22 
-124 -91 -34 
-56 -86 -44 

-125 84 46 
-45 114 102 
-127 93 -82 

97 51 58 
31 -34 -61 
-118 124 -15 

7 -78 -70 
-32 120 76 
108 65 42 

-30 116 -104 
-12 110 -48 
43 59 3 

-75 -8 -124 
88 -54 12 
81 -74 -61 



10 -47 -59 
85 -65 56 
53 121 -35 

-27 1 -77 
-112 -56 8 
-1 115 33 

4 124 -22 
-124 -91 -34 
-56 -86 -44 

-125 84 46 
-45 114 102 
-127 93 -82 

97 51 58 
31 -34 -61 
-118 124 -15 

7 -78 -70 
-32 120 76 
108 65 42 

-30 116 -104 
-12 110 -48 
43 59 3 

-75 -8 -124 
88 -54 12 
81 -74 -61 


10 -47 -59 
85 -65 56 
53 121 -35 

-27 1 -77 
-112 -56 8 
-1 115 33 

4 124 -22 
-124 -91 -34 
-56 -86 -44 

-125 84 46 
-45 114 102 
-127 93 -82 

97 51 58 
31 -34 -61 
-118 124 -15 

7 -78 -70 
-32 120 76 
108 65 42 

-30 116 -104 
-12 110 -48 
43 59 3 

-75 -8 -124 
88 -54 12 
81 -74 -61 


10 -47 -59 
85 -65 56 
53 121 -35 

-27 1 -77 
-112 -56 8 
-1 115 33 

4 124 -22 
-124 -91 -34 
-56 -86 -44 

-125 84 46 
-45 114 102 
-127 93 -82 

97 51 58 
31 -34 -61 
-118 124 -15 

7 -78 -70 
-32 120 76 
108 65 42 

-30 116 -104 
-12 110 -48 
43 59 3 

-75 -8 -124 
88 -54 12 
81 -74 -61 


10 -47 -59 
85 -65 56 
53 121 -35 

-27 1 -77 
-112 -56 8 
-1 115 33 

4 124 -22 
-124 -91 -34 
-56 -86 -44 

-125 84 46 
-45 114 102 
-127 93 -82 

97 51 58 
31 -34 -61 
-118 124 -15 

7 -78 -70 
-32 120 76 
108 65 42 

-30 116 -104 
-12 110 -48 
43 59 3 

-75 -8 -124 
88 -54 12 
81 -74 -61 



10 -47 -59 
85 -65 56 
53 121 -35 

-27 1 -77 
-112 -56 8 
-1 115 33 

4 124 -22 
-124 -91 -34 
-56 -86 -44 

-125 84 46 
-45 114 102 
-127 93 -82 

97 51 58 
31 -34 -61 
-118 124 -15 

7 -78 -70 
-32 120 76 
108 65 42 

-30 116 -104 
-12 110 -48 
43 59 3 

-75 -8 -124 
88 -54 12 
81 -74 -61 


10 -47 -59 
85 -65 56 
53 121 -35 

-27 1 -77 
-112 -56 8 
-1 115 33 

4 124 -22 
-124 -91 -34 
-56 -86 -44 

-125 84 46 
-45 114 102 
-127 93 -82 

97 51 58 
31 -34 -61 
-118 124 -15 

7 -78 -70 
-32 120 76 
108 65 42 

-30 116 -104 
-12 110 -48 
43 59 3 

-75 -8 -124 
88 -54 12 
81 -74 -61 


10 -47 -59 
85 -65 56 
53 121 -35 

-27 1 -77 
-112 -56 8 
-1 115 33 

4 124 -22 
-124 -91 -34 
-56 -86 -44 

-125 84 46 
-45 114 102 
-127 93 -82 

97 51 58 
31 -34 -61 
-118 124 -15 

7 -78 -70 
-32 120 76 
108 65 42 

-30 116 -104 
-12 110 -48 
43 59 3 

-75 -8 -124 
88 -54 12 
81 -74 -61 


10 -47 -59 
85 -65 56 
53 121 -35 

-27 1 -77 
-112 -56 8 
-1 115 33 

4 124 -22 
-124 -91 -34 
-56 -86 -44 

-125 84 46 
-45 114 102 
-127 93 -82 

97 51 58 
31 -34 -61 
-118 124 -15 

7 -78 -70 
-32 120 76 
108 65 42 

-30 116 -104 
-12 110 -48 
43 59 3 

-75 -8 -124 
88 -54 12 
81 -74 -61 



10 -47 -59 
85 -65 56 
53 121 -35 

-27 1 -77 
-112 -56 8 
-1 115 33 

4 124 -22 
-124 -91 -34 
-56 -86 -44 

-125 84 46 
-45 114 102 
-127 93 -82 

97 51 58 
31 -34 -61 
-118 124 -15 

7 -78 -70 
-32 120 76 
108 65 42 

-30 116 -104 
-12 110 -48 
43 59 3 

-75 -8 -124 
88 -54 12 
81 -74 -61 


10 -47 -59 
85 -65 56 
53 121 -35 

-27 1 -77 
-112 -56 8 
-1 115 33 

4 124 -22 
-124 -91 -34 
-56 -86 -44 

-125 84 46 
-45 114 102 
-127 93 -82 

97 51 58 
31 -34 -61 
-118 124 -15 

7 -78 -70 
-32 120 76 
108 65 42 

-30 116 -104 
-12 110 -48 
43 59 3 

-75 -8 -124 
88 -54 12 
81 -74 -61 


10 -47 -59 
85 -65 56 
53 121 -35 

-27 1 -77 
-112 -56 8 
-1 115 33 

4 124 -22 
-124 -91 -34 
-56 -86 -44 

-125 84 46 
-45 114 102 
-127 93 -82 

97 51 58 
31 -34 -61 
-118 124 -15 

7 -78 -70 
-32 120 76 
108 65 42 

-30 116 -104 
-12 110 -48 
43 59 3 

-75 -8 -124 
88 -54 12 
81 -74 -61 


10 -47 -59 
85 -65 56 
53 121 -35 

-27 1 -77 
-112 -56 8 
-1 115 33 

4 124 -22 
-124 -91 -34 
-56 -86 -44 

-125 84 46 
-45 114 102 
-127 93 -82 

97 51 58 
31 -34 -61 
-118 124 -15 

7 -78 -70 
-32 120 76 
108 65 42 

-30 116 -104 
-12 110 -48 
43 59 3 

-75 -8 -124 
88 -54 12 
81 -74 -61 




-9 126 -36 
-52 -20 113 
-82 19 91 

71 -81 -2 
101 -120 73 
-72 -53 59 

-125 109 -79 
77 -95 107 
-88 -82 -72 

-50 -106 22 
63 -76 56 
-29 52 -111 

20 -34 24 
-82 -94 106 
91 -53 -42 

-35 18 115 
98 106 -32 
-92 -107 46 

-113 -79 -28 
-6 68 -73 
-4 -100 108 

-41 68 40 
-91 29 -39 
-34 126 56 


-9 126 -36 
-52 -20 113 
-82 19 91 

71 -81 -2 
101 -120 73 
-72 -53 59 

-125 109 -79 
77 -95 107 
-88 -82 -72 

-50 -106 22 
63 -76 56 
-29 52 -111 

20 -34 24 
-82 -94 106 
91 -53 -42 

-35 18 115 
98 106 -32 
-92 -107 46 

-113 -79 -28 
-6 68 -73 
-4 -100 108 

-41 68 40 
-91 29 -39 
-34 126 56 


-9 126 -36 
-52 -20 113 
-82 19 91 

71 -81 -2 
101 -120 73 
-72 -53 59 

-125 109 -79 
77 -95 107 
-88 -82 -72 

-50 -106 22 
63 -76 56 
-29 52 -111 

20 -34 24 
-82 -94 106 
91 -53 -42 

-35 18 115 
98 106 -32 
-92 -107 46 

-113 -79 -28 
-6 68 -73 
-4 -100 108 

-41 68 40 
-91 29 -39 
-34 126 56 


-9 126 -36 
-52 -20 113 
-82 19 91 

71 -81 -2 
101 -120 73 
-72 -53 59 

-125 109 -79 
77 -95 107 
-88 -82 -72 

-50 -106 22 
63 -76 56 
-29 52 -111 

20 -34 24 
-82 -94 106 
91 -53 -42 

-35 18 115 
98 106 -32 
-92 -107 46 

-113 -79 -28 
-6 68 -73 
-4 -100 108 

-41 68 40 
-91 29 -39 
-34 126 56 



-9 126 -36 
-52 -20 113 
-82 19 91 

71 -81 -2 
101 -120 73 
-72 -53 59 

-125 109 -79 
77 -95 107 
-88 -82 -72 

-50 -106 22 
63 -76 56 
-29 52 -111 

20 -34 24 
-82 -94 106 
91 -53 -42 

-35 18 115 
98 106 -32 
-92 -107 46 

-113 -79 -28 
-6 68 -73 
-4 -100 108 

-41 68 40 
-91 29 -39 
-34 126 56 


-9 126 -36 
-52 -20 113 
-82 19 91 

71 -81 -2 
101 -120 73 
-72 -53 59 

-125 109 -79 
77 -95 107 
-88 -82 -72 

-50 -106 22 
63 -76 56 
-29 52 -111 

20 -34 24 
-82 -94 106 
91 -53 -42 

-35 18 115 
98 106 -32 
-92 -107 46 

-113 -79 -28 
-6 68 -73 
-4 -100 108 

-41 68 40 
-91 29 -39 
-34 126 56 


-9 126 -36 
-52 -20 113 
-82 19 91 

71 -81 -2 
101 -120 73 
-72 -53 59 

-125 109 -79 
77 -95 107 
-88 -82 -72 

-50 -106 22 
63 -76 56 
-29 52 -111 

20 -34 24 
-82 -94 106 
91 -53 -42 

-35 18 115 
98 106 -32 
-92 -107 46 

-113 -79 -28 
-6 68 -73 
-4 -100 108 

-41 68 40 
-91 29 -39 
-34 126 56 


-9 126 -36 
-52 -20 113 
-82 19 91 

71 -81 -2 
101 -120 73 
-72 -53 59 

-125 109 -79 
77 -95 107 
-88 -82 -72 

-50 -106 22 
63 -76 56 
-29 52 -111 

20 -34 24 
-82 -94 106 
91 -53 -42 

-35 18 115 
98 106 -32 
-92 -107 46 

-113 -79 -28 
-6 68 -73 
-4 -100 108 

-41 68 40 
-91 29 -39 
-34 126 56 



-9 126 -36 
-52 -20 113 
-82 19 91 

71 -81 -2 
101 -120 73 
-72 -53 59 

-125 109 -79 
77 -95 107 
-88 -82 -72 

-50 -106 22 
63 -76 56 
-29 52 -111 

20 -34 24 
-82 -94 106 
91 -53 -42 

-35 18 115 
98 106 -32 
-92 -107 46 

-113 -79 -28 
-6 68 -73 
-4 -100 108 

-41 68 40 
-91 29 -39 
-34 126 56 


-9 126 -36 
-52 -20 113 
-82 19 91 

71 -81 -2 
101 -120 73 
-72 -53 59 

-125 109 -79 
77 -95 107 
-88 -82 -72 

-50 -106 22 
63 -76 56 
-29 52 -111 

20 -34 24 
-82 -94 106 
91 -53 -42 

-35 18 115 
98 106 -32 
-92 -107 46 

-113 -79 -28 
-6 68 -73 
-4 -100 108 

-41 68 40 
-91 29 -39 
-34 126 56 


-9 126 -36 
-52 -20 113 
-82 19 91 

71 -81 -2 
101 -120 73 
-72 -53 59 

-125 109 -79 
77 -95 107 
-88 -82 -72 

-50 -106 22 
63 -76 56 
-29 52 -111 

20 -34 24 
-82 -94 106 
91 -53 -42 

-35 18 115 
98 106 -32 
-92 -107 46 

-113 -79 -28 
-6 68 -73 
-4 -100 108 

-41 68 40 
-91 29 -39 
-34 126 56 


-9 126 -36 
-52 -20 113 
-82 19 91 

71 -81 -2 
101 -120 73 
-72 -53 59 

-125 109 -79 
77 -95 107 
-88 -82 -72 

-50 -106 22 
63 -76 56 
-29 52 -111 

20 -34 24 
-82 -94 106 
91 -53 -42 

-35 18 115 
98 106 -32 
-92 -107 46 

-113 -79 -28 
-6 68 -73 
-4 -100 108 

-41 68 40 
-91 29 -39 
-34 126 56 



-9 126 -36 
-52 -20 113 
-82 19 91 

71 -81 -2 
101 -120 73 
-72 -53 59 

-125 109 -79 
77 -95 107 
-88 -82 -72 

-50 -106 22 
63 -76 56 
-29 52 -111 

20 -34 24 
-82 -94 106 
91 -53 -42 

-35 18 115 
98 106 -32 
-92 -107 46 

-113 -79 -28 
-6 68 -73 
-4 -100 108 

-41 68 40 
-91 29 -39 
-34 126 56 


-9 126 -36 
-52 -20 113 
-82 19 91 

71 -81 -2 
101 -120 73 
-72 -53 59 

-125 109 -79 
77 -95 107 
-88 -82 -72 

-50 -106 22 
63 -76 56 
-29 52 -111 

20 -34 24 
-82 -94 106 
91 -53 -42 

-35 18 115 
98 106 -32 
-92 -107 46 

-113 -79 -28 
-6 68 -73 
-4 -100 108 

-41 68 40 
-91 29 -39 
-34 126 56 


-9 126 -36 
-52 -20 113 
-82 19 91 

71 -81 -2 
101 -120 73 
-72 -53 59 

-125 109 -79 
77 -95 107 
-88 -82 -72 

-50 -106 22 
63 -76 56 
-29 52 -111 

20 -34 24 
-82 -94 106 
91 -53 -42 

-35 18 115 
98 106 -32 
-92 -107 46 

-113 -79 -28 
-6 68 -73 
-4 -100 108 

-41 68 40 
-91 29 -39 
-34 126 56 


-9 126 -36 
-52 -20 113 
-82 19 91 

71 -81 -2 
101 -120 73 
-72 -53 59 

-125 109 -79 
77 -95 107 
-88 -82 -72 

-50 -106 22 
63 -76 56 
-29 52 -111 

20 -34 24 
-82 -94 106 
91 -53 -42 

-35 18 115 
98 106 -32 
-92 -107 46 

-113 -79 -28 
-6 68 -73 
-4 -100 108 

-41 68 40 
-91 29 -39 
-34 126 56 



-9 126 -36 
-52 -20 113 
-82 19 91 

71 -81 -2 
101 -120 73 
-72 -53 59 

-125 109 -79 
77 -95 107 
-88 -82 -72 

-50 -106 22 
63 -76 56 
-29 52 -111 

20 -34 24 
-82 -94 106 
91 -53 -42 

-35 18 115 
98 106 -32 
-92 -107 46 

-113 -79 -28 
-6 68 -73 
-4 -100 108 

-41 68 40 
-91 29 -39 
-34 126 56 


-9 126 -36 
-52 -20 113 
-82 19 91 

71 -81 -2 
101 -120 73 
-72 -53 59 

-125 109 -79 
77 -95 107 
-88 -82 -72 

-50 -106 22 
63 -76 56 
-29 52 -111 

20 -34 24 
-82 -94 106 
91 -53 -42 

-35 18 115 
98 106 -32 
-92 -107 46 

-113 -79 -28 
-6 68 -73 
-4 -100 108 

-41 68 40 
-91 29 -39 
-34 126 56 


-9 126 -36 
-52 -20 113 
-82 19 91 

71 -81 -2 
101 -120 73 
-72 -53 59 

-125 109 -79 
77 -95 107 
-88 -82 -72 

-50 -106 22 
63 -76 56 
-29 52 -111 

20 -34 24 
-82 -94 106 
91 -53 -42 

-35 18 115 
98 106 -32 
-92 -107 46 

-113 -79 -28 
-6 68 -73 
-4 -100 108 

-41 68 40 
-91 29 -39 
-34 126 56 


-9 126 -36 
-52 -20 113 
-82 19 91 

71 -81 -2 
101 -120 73 
-72 -53 59 

-125 109 -79 
77 -95 107 
-88 -82 -72 

-50 -106 22 
63 -76 56 
-29 52 -111 

20 -34 24 
-82 -94 106 
91 -53 -42 

-35 18 115 
98 106 -32 
-92 -107 46 

-113 -79 -28 
-6 68 -73 
-4 -100 108 

-41 68 40 
-91 29 -39 
-34 126 56 



-9 126 -36 
-52 -20 113 
-82 19 91 

71 -81 -2 
101 -120 73 
-72 -53 59 

-125 109 -79 
77 -95 107 
-88 -82 -72 

-50 -106 22 
63 -76 56 
-29 52 -111 

20 -34 24 
-82 -94 106 
91 -53 -42 

-35 18 115 
98 106 -32 
-92 -107 46 

-113 -79 -28 
-6 68 -73 
-4 -100 108 

-41 68 40 
-91 29 -39 
-34 126 56 


-9 126 -36 
-52 -20 113 
-82 19 91 

71 -81 -2 
101 -120 73 
-72 -53 59 

-125 109 -79 
77 -95 107 
-88 -82 -72 

-50 -106 22 
63 -76 56 
-29 52 -111 

20 -34 24 
-82 -94 106 
91 -53 -42 

-35 18 115 
98 106 -32 
-92 -107 46 

-113 -79 -28 
-6 68 -73 
-4 -100 108 

-41 68 40 
-91 29 -39 
-34 126 56 


-9 126 -36 
-52 -20 113 
-82 19 91 

71 -81 -2 
101 -120 73 
-72 -53 59 

-125 109 -79 
77 -95 107 
-88 -82 -72 

-50 -106 22 
63 -76 56 
-29 52 -111 

20 -34 24 
-82 -94 106 
91 -53 -42 

-35 18 115 
98 106 -32 
-92 -107 46 

-113 -79 -28 
-6 68 -73 
-4 -100 108 

-41 68 40 
-91 29 -39 
-34 126 56 


-9 126 -36 
-52 -20 113 
-82 19 91 

71 -81 -2 
101 -120 73 
-72 -53 59 

-125 109 -79 
77 -95 107 
-88 -82 -72 

-50 -106 22 
63 -76 56 
-29 52 -111 

20 -34 24 
-82 -94 106 
91 -53 -42 

-35 18 115 
98 106 -32 
-92 -107 46 

-113 -79 -28 
-6 68 -73 
-4 -100 108 

-41 68 40 
-91 29 -39 
-34 126 56 



-9 126 -36 
-52 -20 113 
-82 19 91 

71 -81 -2 
101 -120 73 
-72 -53 59 

-125 109 -79 
77 -95 107 
-88 -82 -72 

-50 -106 22 
63 -76 56 
-29 52 -111 

20 -34 24 
-82 -94 106 
91 -53 -42 

-35 18 115 
98 106 -32 
-92 -107 46 

-113 -79 -28 
-6 68 -73 
-4 -100 108 

-41 68 40 
-91 29 -39 
-34 126 56 


-9 126 -36 
-52 -20 113 
-82 19 91 

71 -81 -2 
101 -120 73 
-72 -53 59 

-125 109 -79 
77 -95 107 
-88 -82 -72 

-50 -106 22 
63 -76 56 
-29 52 -111 

20 -34 24 
-82 -94 106 
91 -53 -42 

-35 18 115 
98 106 -32 
-92 -107 46 

-113 -79 -28 
-6 68 -73 
-4 -100 108 

-41 68 40 
-91 29 -39 
-34 126 56 


-9 126 -36 
-52 -20 113 
-82 19 91 

71 -81 -2 
101 -120 73 
-72 -53 59 

-125 109 -79 
77 -95 107 
-88 -82 -72 

-50 -106 22 
63 -76 56 
-29 52 -111 

20 -34 24 
-82 -94 106 
91 -53 -42 

-35 18 115 
98 106 -32 
-92 -107 46 

-113 -79 -28 
-6 68 -73 
-4 -100 108 

-41 68 40 
-91 29 -39 
-34 126 56 


-9 126 -36 
-52 -20 113 
-82 19 91 

71 -81 -2 
101 -120 73 
-72 -53 59 

-125 109 -79 
77 -95 107 
-88 -82 -72 

-50 -106 22 
63 -76 56 
-29 52 -111 

20 -34 24 
-82 -94 106 
91 -53 -42 

-35 18 115 
98 106 -32 
-92 -107 46 

-113 -79 -28 
-6 68 -73 
-4 -100 108 

-41 68 40 
-91 29 -39 
-34 126 56 



-9 126 -36 
-52 -20 113 
-82 19 91 

71 -81 -2 
101 -120 73 
-72 -53 59 

-125 109 -79 
77 -95 107 
-88 -82 -72 

-50 -106 22 
63 -76 56 
-29 52 -111 

20 -34 24 
-82 -94 106 
91 -53 -42 

-35 18 115 
98 106 -32 
-92 -107 46 

-113 -79 -28 
-6 68 -73 
-4 -100 108 

-41 68 40 
-91 29 -39 
-34 126 56 


-9 126 -36 
-52 -20 113 
-82 19 91 

71 -81 -2 
101 -120 73 
-72 -53 59 

-125 109 -79 
77 -95 107 
-88 -82 -72 

-50 -106 22 
63 -76 56 
-29 52 -111 

20 -34 24 
-82 -94 106 
91 -53 -42 

-35 18 115 
98 106 -32 
-92 -107 46 

-113 -79 -28 
-6 68 -73 
-4 -100 108 

-41 68 40 
-91 29 -39 
-34 126 56 


-9 126 -36 
-52 -20 113 
-82 19 91 

71 -81 -2 
101 -120 73 
-72 -53 59 

-125 109 -79 
77 -95 107 
-88 -82 -72 

-50 -106 22 
63 -76 56 
-29 52 -111 

20 -34 24 
-82 -94 106 
91 -53 -42 

-35 18 115 
98 106 -32 
-92 -107 46 

-113 -79 -28 
-6 68 -73 
-4 -100 108 

-41 68 40 
-91 29 -39 
-34 126 56 


-9 126 -36 
-52 -20 113 
-82 19 91 

71 -81 -2 
101 -120 73 
-72 -53 59 

-125 109 -79 
77 -95 107 
-88 -82 -72 

-50 -106 22 
63 -76 56 
-29 52 -111 

20 -34 24 
-82 -94 106 
91 -53 -42 

-35 18 115 
98 106 -32 
-92 -107 46 

-113 -79 -28 
-6 68 -73 
-4 -100 108 

-41 68 40 
-91 29 -39 
-34 126 56 



-9 126 -36 
-52 -20 113 
-82 19 91 

71 -81 -2 
101 -120 73 
-72 -53 59 

-125 109 -79 
77 -95 107 
-88 -82 -72 

-50 -106 22 
63 -76 56 
-29 52 -111 

20 -34 24 
-82 -94 106 
91 -53 -42 

-35 18 115 
98 106 -32 
-92 -107 46 

-113 -79 -28 
-6 68 -73 
-4 -100 108 

-41 68 40 
-91 29 -39 
-34 126 56 


-9 126 -36 
-52 -20 113 
-82 19 91 

71 -81 -2 
101 -120 73 
-72 -53 59 

-125 109 -79 
77 -95 107 
-88 -82 -72 

-50 -106 22 
63 -76 56 
-29 52 -111 

20 -34 24 
-82 -94 106 
91 -53 -42 

-35 18 115 
98 106 -32 
-92 -107 46 

-113 -79 -28 
-6 68 -73 
-4 -100 108 

-41 68 40 
-91 29 -39 
-34 126 56 


-9 126 -36 
-52 -20 113 
-82 19 91 

71 -81 -2 
101 -120 73 
-72 -53 59 

-125 109 -79 
77 -95 107 
-88 -82 -72 

-50 -106 22 
63 -76 56 
-29 52 -111 

20 -34 24 
-82 -94 106 
91 -53 -42 

-35 18 115 
98 106 -32 
-92 -107 46 

-113 -79 -28 
-6 68 -73 
-4 -100 108 

-41 68 40 
-91 29 -39 
-34 126 56 


-9 126 -36 
-52 -20 113 
-82 19 91 

71 -81 -2 
101 -120 73 
-72 -53 59 

-125 109 -79 
77 -95 107 
-88 -82 -72 

-50 -106 22 
63 -76 56 
-29 52 -111 

20 -34 24 
-82 -94 106 
91 -53 -42 

-35 18 115 
98 106 -32 
-92 -107 46 

-113 -79 -28 
-6 68 -73 
-4 -100 108 

-41 68 40 
-91 29 -39 
-34 126 56 



-9 126 -36 
-52 -20 113 
-82 19 91 

71 -81 -2 
101 -120 73 
-72 -53 59 

-125 109 -79 
77 -95 107 
-88 -82 -72 

-50 -106 22 
63 -76 56 
-29 52 -111 

20 -34 24 
-82 -94 106 
91 -53 -42 

-35 18 115 
98 106 -32 
-92 -107 46 

-113 -79 -28 
-6 68 -73 
-4 -100 108 

-41 68 40 
-91 29 -39 
-34 126 56 


-9 126 -36 
-52 -20 113 
-82 19 91 

71 -81 -2 
101 -120 73 
-72 -53 59 

-125 109 -79 
77 -95 107 
-88 -82 -72 

-50 -106 22 
63 -76 56 
-29 52 -111 

20 -34 24 
-82 -94 106 
91 -53 -42 

-35 18 115 
98 106 -32 
-92 -107 46 

-113 -79 -28 
-6 68 -73 
-4 -100 108 

-41 68 40 
-91 29 -39 
-34 126 56 


-9 126 -36 
-52 -20 113 
-82 19 91 

71 -81 -2 
101 -120 73 
-72 -53 59 

-125 109 -79 
77 -95 107 
-88 -82 -72 

-50 -106 22 
63 -76 56 
-29 52 -111 

20 -34 24 
-82 -94 106 
91 -53 -42 

-35 18 115 
98 106 -32 
-92 -107 46 

-113 -79 -28 
-6 68 -73 
-4 -100 108 

-41 68 40 
-91 29 -39 
-34 126 56 


-9 126 -36 
-52 -20 113 
-82 19 91 

71 -81 -2 
101 -120 73 
-72 -53 59 

-125 109 -79 
77 -95 107 
-88 -82 -72 

-50 -106 22 
63 -76 56 
-29 52 -111 

20 -34 24 
-82 -94 106 
91 -53 -42 

-35 18 115 
98 106 -32 
-92 -107 46 

-113 -79 -28 
-6 68 -73 
-4 -100 108 

-41 68 40 
-91 29 -39 
-34 126 56 



-9 126 -36 
-52 -20 113 
-82 19 91 

71 -81 -2 
101 -120 73 
-72 -53 59 

-125 109 -79 
77 -95 107 
-88 -82 -72 

-50 -106 22 
63 -76 56 
-29 52 -111 

20 -34 24 
-82 -94 106 
91 -53 -42 

-35 18 115 
98 106 -32 
-92 -107 46 

-113 -79 -28 
-6 68 -73 
-4 -100 108 

-41 68 40 
-91 29 -39 
-34 126 56 


-9 126 -36 
-52 -20 113 
-82 19 91 

71 -81 -2 
101 -120 73 
-72 -53 59 

-125 109 -79 
77 -95 107 
-88 -82 -72 

-50 -106 22 
63 -76 56 
-29 52 -111 

20 -34 24 
-82 -94 106 
91 -53 -42 

-35 18 115 
98 106 -32 
-92 -107 46 

-113 -79 -28 
-6 68 -73 
-4 -100 108 

-41 68 40 
-91 29 -39 
-34 126 56 


-9 126 -36 
-52 -20 113 
-82 19 91 

71 -81 -2 
101 -120 73 
-72 -53 59 

-125 109 -79 
77 -95 107 
-88 -82 -72 

-50 -106 22 
63 -76 56 
-29 52 -111 

20 -34 24 
-82 -94 106 
91 -53 -42 

-35 18 115 
98 106 -32 
-92 -107 46 

-113 -79 -28 
-6 68 -73 
-4 -100 108 

-41 68 40 
-91 29 -39 
-34 126 56 


-9 126 -36 
-52 -20 113 
-82 19 91 

71 -81 -2 
101 -120 73 
-72 -53 59 

-125 109 -79 
77 -95 107 
-88 -82 -72 

-50 -106 22 
63 -76 56 
-29 52 -111 

20 -34 24 
-82 -94 106 
91 -53 -42 

-35 18 115 
98 106 -32 
-92 -107 46 

-113 -79 -28 
-6 68 -73 
-4 -100 108 

-41 68 40 
-91 29 -39 
-34 126 56 



-9 126 -36 
-52 -20 113 
-82 19 91 

71 -81 -2 
101 -120 73 
-72 -53 59 

-125 109 -79 
77 -95 107 
-88 -82 -72 

-50 -106 22 
63 -76 56 
-29 52 -111 

20 -34 24 
-82 -94 106 
91 -53 -42 

-35 18 115 
98 106 -32 
-92 -107 46 

-113 -79 -28 
-6 68 -73 
-4 -100 108 

-41 68 40 
-91 29 -39 
-34 126 56 


-9 126 -36 
-52 -20 113 
-82 19 91 

71 -81 -2 
101 -120 73 
-72 -53 59 

-125 109 -79 
77 -95 107 
-88 -82 -72 

-50 -106 22 
63 -76 56 
-29 52 -111 

20 -34 24 
-82 -94 106 
91 -53 -42 

-35 18 115 
98 106 -32 
-92 -107 46 

-113 -79 -28 
-6 68 -73 
-4 -100 108 

-41 68 40 
-91 29 -39 
-34 126 56 


-9 126 -36 
-52 -20 113 
-82 19 91 

71 -81 -2 
101 -120 73 
-72 -53 59 

-125 109 -79 
77 -95 107 
-88 -82 -72 

-50 -106 22 
63 -76 56 
-29 52 -111 

20 -34 24 
-82 -94 106 
91 -53 -42 

-35 18 115 
98 106 -32 
-92 -107 46 

-113 -79 -28 
-6 68 -73 
-4 -100 108 

-41 68 40 
-91 29 -39 
-34 126 56 


-9 126 -36 
-52 -20 113 
-82 19 91 

71 -81 -2 
101 -120 73 
-72 -53 59 

-125 109 -79 
77 -95 107 
-88 -82 -72 

-50 -106 22 
63 -76 56 
-29 52 -111 

20 -34 24 
-82 -94 106 
91 -53 -42 

-35 18 115 
98 106 -32 
-92 -107 46 

-113 -79 -28 
-6 68 -73 
-4 -100 108 

-41 68 40 
-91 29 -39 
-34 126 56 



-9 126 -36 
-52 -20 113 
-82 19 91 

71 -81 -2 
101 -120 73 
-72 -53 59 

-125 109 -79 
77 -95 107 
-88 -82 -72 

-50 -106 22 
63 -76 56 
-29 52 -111 

20 -34 24 
-82 -94 106 
91 -53 -42 

-35 18 115 
98 106 -32 
-92 -107 46 

-113 -79 -28 
-6 68 -73 
-4 -100 108 

-41 68 40 
-91 29 -39 
-34 126 56 


-9 126 -36 
-52 -20 113 
-82 19 91 

71 -81 -2 
101 -120 73 
-72 -53 59 

-125 109 -79 
77 -95 107 
-88 -82 -72 

-50 -106 22 
63 -76 56 
-29 52 -111 

20 -34 24 
-82 -94 106 
91 -53 -42 

-35 18 115 
98 106 -32 
-92 -107 46 

-113 -79 -28 
-6 68 -73 
-4 -100 108 

-41 68 40 
-91 29 -39 
-34 126 56 


-9 126 -36 
-52 -20 113 
-82 19 91 

71 -81 -2 
101 -120 73 
-72 -53 59 

-125 109 -79 
77 -95 107 
-88 -82 -72 

-50 -106 22 
63 -76 56 
-29 52 -111 

20 -34 24 
-82 -94 106 
91 -53 -42 

-35 18 115 
98 106 -32 
-92 -107 46 

-113 -79 -28 
-6 68 -73 
-4 -100 108 

-41 68 40 
-91 29 -39 
-34 126 56 


-9 126 -36 
-52 -20 113 
-82 19 91 

71 -81 -2 
101 -120 73 
-72 -53 59 

-125 109 -79 
77 -95 107 
-88 -82 -72 

-50 -106 22 
63 -76 56 
-29 52 -111 

20 -34 24 
-82 -94 106 
91 -53 -42 

-35 18 115 
98 106 -32 
-92 -107 46 

-113 -79 -28 
-6 68 -73 
-4 -100 108 

-41 68 40 
-91 29 -39 
-34 126 56 




-16 -49 -17 
40 -36 -70 
28 87 -64 

93 64 17 
113 42 108 
-82 124 98 

94 -16 20 
-117 -69 83 
-78 2 -127 

-23 -22 -98 
-28 25 39 
-37 28 -53 

122 84 -100 
16 34 -101 
50 -119 -39 

64 -39 127 
-82 -79 -42 
-67 102 -98 

20 51 -114 
114 -79 25 
-37 -72 -77 

-40 -47 -101 
-89 23 38 
63 -46 -77 


-16 -49 -17 
40 -36 -70 
28 87 -64 

93 64 17 
113 42 108 
-82 124 98 

94 -16 20 
-117 -69 83 
-78 2 -127 

-23 -22 -98 
-28 25 39 
-37 28 -53 

122 84 -100 
16 34 -101 
50 -119 -39 

64 -39 127 
-82 -79 -42 
-67 102 -98 

20 51 -114 
114 -79 25 
-37 -72 -77 

-40 -47 -101 
-89 23 38 
63 -46 -77 


-16 -49 -17 
40 -36 -70 
28 87 -64 

93 64 17 
113 42 108 
-82 124 98 

94 -16 20 
-117 -69 83 
-78 2 -127 

-23 -22 -98 
-28 25 39 
-37 28 -53 

122 84 -100 
16 34 -101 
50 -119 -39 

64 -39 127 
-82 -79 -42 
-67 102 -98 

20 51 -114 
114 -79 25 
-37 -72 -77 

-40 -47 -101 
-89 23 38 
63 -46 -77 


-16 -49 -17 
40 -36 -70 
28 87 -64 

93 64 17 
113 42 108 
-82 124 98 

94 -16 20 
-117 -69 83 
-78 2 -127 

-23 -22 -98 
-28 25 39 
-37 28 -53 

122 84 -100 
16 34 -101 
50 -119 -39 

64 -39 127 
-82 -79 -42 
-67 102 -98 

20 51 -114 
114 -79 25 
-37 -72 -77 

-40 -47 -101 
-89 23 38 
63 -46 -77 



-16 -49 -17 
40 -36 -70 
28 87 -64 

93 64 17 
113 42 108 
-82 124 98 

94 -16 20 
-117 -69 83 
-78 2 -127 

-23 -22 -98 
-28 25 39 
-37 28 -53 

122 84 -100 
16 34 -101 
50 -119 -39 

64 -39 127 
-82 -79 -42 
-67 102 -98 

20 51 -114 
114 -79 25 
-37 -72 -77 

-40 -47 -101 
-89 23 38 
63 -46 -77 


-16 -49 -17 
40 -36 -70 
28 87 -64 

93 64 17 
113 42 108 
-82 124 98 

94 -16 20 
-117 -69 83 
-78 2 -127 

-23 -22 -98 
-28 25 39 
-37 28 -53 

122 84 -100 
16 34 -101 
50 -119 -39 

64 -39 127 
-82 -79 -42 
-67 102 -98 

20 51 -114 
114 -79 25 
-37 -72 -77 

-40 -47 -101 
-89 23 38 
63 -46 -77 


-16 -49 -17 
40 -36 -70 
28 87 -64 

93 64 17 
113 42 108 
-82 124 98 

94 -16 20 
-117 -69 83 
-78 2 -127 

-23 -22 -98 
-28 25 39 
-37 28 -53 

122 84 -100 
16 34 -101 
50 -119 -39 

64 -39 127 
-82 -79 -42 
-67 102 -98 

20 51 -114 
114 -79 25 
-37 -72 -77 

-40 -47 -101 
-89 23 38 
63 -46 -77 


-16 -49 -17 
40 -36 -70 
28 87 -64 

93 64 17 
113 42 108 
-82 124 98 

94 -16 20 
-117 -69 83 
-78 2 -127 

-23 -22 -98 
-28 25 39 
-37 28 -53 

122 84 -100 
16 34 -101 
50 -119 -39 

64 -39 127 
-82 -79 -42 
-67 102 -98 

20 51 -114 
114 -79 25 
-37 -72 -77 

-40 -47 -101 
-89 23 38 
63 -46 -77 



-16 -49 -17 
40 -36 -70 
28 87 -64 

93 64 17 
113 42 108 
-82 124 98 

94 -16 20 
-117 -69 83 
-78 2 -127 

-23 -22 -98 
-28 25 39 
-37 28 -53 

122 84 -100 
16 34 -101 
50 -119 -39 

64 -39 127 
-82 -79 -42 
-67 102 -98 

20 51 -114 
114 -79 25 
-37 -72 -77 

-40 -47 -101 
-89 23 38 
63 -46 -77 


-16 -49 -17 
40 -36 -70 
28 87 -64 

93 64 17 
113 42 108 
-82 124 98 

94 -16 20 
-117 -69 83 
-78 2 -127 

-23 -22 -98 
-28 25 39 
-37 28 -53 

122 84 -100 
16 34 -101 
50 -119 -39 

64 -39 127 
-82 -79 -42 
-67 102 -98 

20 51 -114 
114 -79 25 
-37 -72 -77 

-40 -47 -101 
-89 23 38 
63 -46 -77 


-16 -49 -17 
40 -36 -70 
28 87 -64 

93 64 17 
113 42 108 
-82 124 98 

94 -16 20 
-117 -69 83 
-78 2 -127 

-23 -22 -98 
-28 25 39 
-37 28 -53 

122 84 -100 
16 34 -101 
50 -119 -39 

64 -39 127 
-82 -79 -42 
-67 102 -98 

20 51 -114 
114 -79 25 
-37 -72 -77 

-40 -47 -101 
-89 23 38 
63 -46 -77 


-16 -49 -17 
40 -36 -70 
28 87 -64 

93 64 17 
113 42 108 
-82 124 98 

94 -16 20 
-117 -69 83 
-78 2 -127 

-23 -22 -98 
-28 25 39 
-37 28 -53 

122 84 -100 
16 34 -101 
50 -119 -39 

64 -39 127 
-82 -79 -42 
-67 102 -98 

20 51 -114 
114 -79 25 
-37 -72 -77 

-40 -47 -101 
-89 23 38 
63 -46 -77 



-16 -49 -17 
40 -36 -70 
28 87 -64 

93 64 17 
113 42 108 
-82 124 98 

94 -16 20 
-117 -69 83 
-78 2 -127 

-23 -22 -98 
-28 25 39 
-37 28 -53 

122 84 -100 
16 34 -101 
50 -119 -39 

64 -39 127 
-82 -79 -42 
-67 102 -98 

20 51 -114 
114 -79 25 
-37 -72 -77 

-40 -47 -101 
-89 23 38 
63 -46 -77 


-16 -49 -17 
40 -36 -70 
28 87 -64 

93 64 17 
113 42 108 
-82 124 98 

94 -16 20 
-117 -69 83 
-78 2 -127 

-23 -22 -98 
-28 25 39 
-37 28 -53 

122 84 -100 
16 34 -101 
50 -119 -39 

64 -39 127 
-82 -79 -42 
-67 102 -98 

20 51 -114 
114 -79 25 
-37 -72 -77 

-40 -47 -101 
-89 23 38 
63 -46 -77 


-16 -49 -17 
40 -36 -70 
28 87 -64 

93 64 17 
113 42 108 
-82 124 98 

94 -16 20 
-117 -69 83 
-78 2 -127 

-23 -22 -98 
-28 25 39 
-37 28 -53 

122 84 -100 
16 34 -101 
50 -119 -39 

64 -39 127 
-82 -79 -42 
-67 102 -98 

20 51 -114 
114 -79 25 
-37 -72 -77 

-40 -47 -101 
-89 23 38 
63 -46 -77 


-16 -49 -17 
40 -36 -70 
28 87 -64 

93 64 17 
113 42 108 
-82 124 98 

94 -16 20 
-117 -69 83 
-78 2 -127 

-23 -22 -98 
-28 25 39 
-37 28 -53 

122 84 -100 
16 34 -101 
50 -119 -39 

64 -39 127 
-82 -79 -42 
-67 102 -98 

20 51 -114 
114 -79 25 
-37 -72 -77 

-40 -47 -101 
-89 23 38 
63 -46 -77 



-16 -49 -17 
40 -36 -70 
28 87 -64 

93 64 17 
113 42 108 
-82 124 98 

94 -16 20 
-117 -69 83 
-78 2 -127 

-23 -22 -98 
-28 25 39 
-37 28 -53 

122 84 -100 
16 34 -101 
50 -119 -39 

64 -39 127 
-82 -79 -42 
-67 102 -98 

20 51 -114 
114 -79 25 
-37 -72 -77 

-40 -47 -101 
-89 23 38 
63 -46 -77 


-16 -49 -17 
40 -36 -70 
28 87 -64 

93 64 17 
113 42 108 
-82 124 98 

94 -16 20 
-117 -69 83 
-78 2 -127 

-23 -22 -98 
-28 25 39 
-37 28 -53 

122 84 -100 
16 34 -101 
50 -119 -39 

64 -39 127 
-82 -79 -42 
-67 102 -98 

20 51 -114 
114 -79 25 
-37 -72 -77 

-40 -47 -101 
-89 23 38 
63 -46 -77 


-16 -49 -17 
40 -36 -70 
28 87 -64 

93 64 17 
113 42 108 
-82 124 98 

94 -16 20 
-117 -69 83 
-78 2 -127 

-23 -22 -98 
-28 25 39 
-37 28 -53 

122 84 -100 
16 34 -101 
50 -119 -39 

64 -39 127 
-82 -79 -42 
-67 102 -98 

20 51 -114 
114 -79 25 
-37 -72 -77 

-40 -47 -101 
-89 23 38 
63 -46 -77 


-16 -49 -17 
40 -36 -70 
28 87 -64 

93 64 17 
113 42 108 
-82 124 98 

94 -16 20 
-117 -69 83 
-78 2 -127 

-23 -22 -98 
-28 25 39 
-37 28 -53 

122 84 -100 
16 34 -101 
50 -119 -39 

64 -39 127 
-82 -79 -42 
-67 102 -98 

20 51 -114 
114 -79 25 
-37 -72 -77 

-40 -47 -101 
-89 23 38 
63 -46 -77 



-16 -49 -17 
40 -36 -70 
28 87 -64 

93 64 17 
113 42 108 
-82 124 98 

94 -16 20 
-117 -69 83 
-78 2 -127 

-23 -22 -98 
-28 25 39 
-37 28 -53 

122 84 -100 
16 34 -101 
50 -119 -39 

64 -39 127 
-82 -79 -42 
-67 102 -98 

20 51 -114 
114 -79 25 
-37 -72 -77 

-40 -47 -101 
-89 23 38 
63 -46 -77 


-16 -49 -17 
40 -36 -70 
28 87 -64 

93 64 17 
113 42 108 
-82 124 98 

94 -16 20 
-117 -69 83 
-78 2 -127 

-23 -22 -98 
-28 25 39 
-37 28 -53 

122 84 -100 
16 34 -101 
50 -119 -39 

64 -39 127 
-82 -79 -42 
-67 102 -98 

20 51 -114 
114 -79 25 
-37 -72 -77 

-40 -47 -101 
-89 23 38 
63 -46 -77 


-16 -49 -17 
40 -36 -70 
28 87 -64 

93 64 17 
113 42 108 
-82 124 98 

94 -16 20 
-117 -69 83 
-78 2 -127 

-23 -22 -98 
-28 25 39 
-37 28 -53 

122 84 -100 
16 34 -101 
50 -119 -39 

64 -39 127 
-82 -79 -42 
-67 102 -98 

20 51 -114 
114 -79 25 
-37 -72 -77 

-40 -47 -101 
-89 23 38 
63 -46 -77 


-16 -49 -17 
40 -36 -70 
28 87 -64 

93 64 17 
113 42 108 
-82 124 98 

94 -16 20 
-117 -69 83 
-78 2 -127 

-23 -22 -98 
-28 25 39 
-37 28 -53 

122 84 -100 
16 34 -101 
50 -119 -39 

64 -39 127 
-82 -79 -42 
-67 102 -98 

20 51 -114 
114 -79 25 
-37 -72 -77 

-40 -47 -101 
-89 23 38 
63 -46 -77 



-16 -49 -17 
40 -36 -70 
28 87 -64 

93 64 17 
113 42 108 
-82 124 98 

94 -16 20 
-117 -69 83 
-78 2 -127 

-23 -22 -98 
-28 25 39 
-37 28 -53 

122 84 -100 
16 34 -101 
50 -119 -39 

64 -39 127 
-82 -79 -42 
-67 102 -98 

20 51 -114 
114 -79 25 
-37 -72 -77 

-40 -47 -101 
-89 23 38 
63 -46 -77 


-16 -49 -17 
40 -36 -70 
28 87 -64 

93 64 17 
113 42 108 
-82 124 98 

94 -16 20 
-117 -69 83 
-78 2 -127 

-23 -22 -98 
-28 25 39 
-37 28 -53 

122 84 -100 
16 34 -101 
50 -119 -39 

64 -39 127 
-82 -79 -42 
-67 102 -98 

20 51 -114 
114 -79 25 
-37 -72 -77 

-40 -47 -101 
-89 23 38 
63 -46 -77 


-16 -49 -17 
40 -36 -70 
28 87 -64 

93 64 17 
113 42 108 
-82 124 98 

94 -16 20 
-117 -69 83 
-78 2 -127 

-23 -22 -98 
-28 25 39 
-37 28 -53 

122 84 -100 
16 34 -101 
50 -119 -39 

64 -39 127 
-82 -79 -42 
-67 102 -98 

20 51 -114 
114 -79 25 
-37 -72 -77 

-40 -47 -101 
-89 23 38 
63 -46 -77 


-16 -49 -17 
40 -36 -70 
28 87 -64 

93 64 17 
113 42 108 
-82 124 98 

94 -16 20 
-117 -69 83 
-78 2 -127 

-23 -22 -98 
-28 25 39 
-37 28 -53 

122 84 -100 
16 34 -101 
50 -119 -39 

64 -39 127 
-82 -79 -42 
-67 102 -98 

20 51 -114 
114 -79 25 
-37 -72 -77 

-40 -47 -101 
-89 23 38 
63 -46 -77 



-16 -49 -17 
40 -36 -70 
28 87 -64 

93 64 17 
113 42 108 
-82 124 98 

94 -16 20 
-117 -69 83 
-78 2 -127 

-23 -22 -98 
-28 25 39 
-37 28 -53 

122 84 -100 
16 34 -101 
50 -119 -39 

64 -39 127 
-82 -79 -42 
-67 102 -98 

20 51 -114 
114 -79 25 
-37 -72 -77 

-40 -47 -101 
-89 23 38 
63 -46 -77 


-16 -49 -17 
40 -36 -70 
28 87 -64 

93 64 17 
113 42 108 
-82 124 98 

94 -16 20 
-117 -69 83 
-78 2 -127 

-23 -22 -98 
-28 25 39 
-37 28 -53 

122 84 -100 
16 34 -101 
50 -119 -39 

64 -39 127 
-82 -79 -42 
-67 102 -98 

20 51 -114 
114 -79 25 
-37 -72 -77 

-40 -47 -101 
-89 23 38 
63 -46 -77 


-16 -49 -17 
40 -36 -70 
28 87 -64 

93 64 17 
113 42 108 
-82 124 98 

94 -16 20 
-117 -69 83 
-78 2 -127 

-23 -22 -98 
-28 25 39 
-37 28 -53 

122 84 -100 
16 34 -101 
50 -119 -39 

64 -39 127 
-82 -79 -42 
-67 102 -98 

20 51 -114 
114 -79 25 
-37 -72 -77 

-40 -47 -101 
-89 23 38 
63 -46 -77 


-16 -49 -17 
40 -36 -70 
28 87 -64 

93 64 17 
113 42 108 
-82 124 98 

94 -16 20 
-117 -69 83 
-78 2 -127 

-23 -22 -98 
-28 25 39 
-37 28 -53 

122 84 -100 
16 34 -101 
50 -119 -39 

64 -39 127 
-82 -79 -42 
-67 102 -98 

20 51 -114 
114 -79 25 
-37 -72 -77 

-40 -47 -101 
-89 23 38 
63 -46 -77 



-16 -49 -17 
40 -36 -70 
28 87 -64 

93 64 17 
113 42 108 
-82 124 98 

94 -16 20 
-117 -69 83 
-78 2 -127 

-23 -22 -98 
-28 25 39 
-37 28 -53 

122 84 -100 
16 34 -101 
50 -119 -39 

64 -39 127 
-82 -79 -42 
-67 102 -98 

20 51 -114 
114 -79 25 
-37 -72 -77 

-40 -47 -101 
-89 23 38 
63 -46 -77 


-16 -49 -17 
40 -36 -70 
28 87 -64 

93 64 17 
113 42 108 
-82 124 98 

94 -16 20 
-117 -69 83 
-78 2 -127 

-23 -22 -98 
-28 25 39 
-37 28 -53 

122 84 -100 
16 34 -101 
50 -119 -39 

64 -39 127 
-82 -79 -42 
-67 102 -98 

20 51 -114 
114 -79 25 
-37 -72 -77 

-40 -47 -101 
-89 23 38 
63 -46 -77 


-16 -49 -17 
40 -36 -70 
28 87 -64 

93 64 17 
113 42 108 
-82 124 98 

94 -16 20 
-117 -69 83 
-78 2 -127 

-23 -22 -98 
-28 25 39 
-37 28 -53 

122 84 -100 
16 34 -101 
50 -119 -39 

64 -39 127 
-82 -79 -42 
-67 102 -98 

20 51 -114 
114 -79 25 
-37 -72 -77 

-40 -47 -101 
-89 23 38 
63 -46 -77 


-16 -49 -17 
40 -36 -70 
28 87 -64 

93 64 17 
113 42 108 
-82 124 98 

94 -16 20 
-117 -69 83 
-78 2 -127 

-23 -22 -98 
-28 25 39 
-37 28 -53 

122 84 -100 
16 34 -101 
50 -119 -39 

64 -39 127 
-82 -79 -42 
-67 102 -98 

20 51 -114 
114 -79 25 
-37 -72 -77 

-40 -47 -101 
-89 23 38 
63 -46 -77 



-16 -49 -17 
40 -36 -70 
28 87 -64 

93 64 17 
113 42 108 
-82 124 98 

94 -16 20 
-117 -69 83 
-78 2 -127 

-23 -22 -98 
-28 25 39 
-37 28 -53 

122 84 -100 
16 34 -101 
50 -119 -39 

64 -39 127 
-82 -79 -42 
-67 102 -98 

20 51 -114 
114 -79 25 
-37 -72 -77 

-40 -47 -101 
-89 23 38 
63 -46 -77 


-16 -49 -17 
40 -36 -70 
28 87 -64 

93 64 17 
113 42 108 
-82 124 98 

94 -16 20 
-117 -69 83 
-78 2 -127 

-23 -22 -98 
-28 25 39 
-37 28 -53 

122 84 -100 
16 34 -101 
50 -119 -39 

64 -39 127 
-82 -79 -42 
-67 102 -98 

20 51 -114 
114 -79 25 
-37 -72 -77 

-40 -47 -101 
-89 23 38 
63 -46 -77 


-16 -49 -17 
40 -36 -70 
28 87 -64 

93 64 17 
113 42 108 
-82 124 98 

94 -16 20 
-117 -69 83 
-78 2 -127 

-23 -22 -98 
-28 25 39 
-37 28 -53 

122 84 -100 
16 34 -101 
50 -119 -39 

64 -39 127 
-82 -79 -42 
-67 102 -98 

20 51 -114 
114 -79 25 
-37 -72 -77 

-40 -47 -101 
-89 23 38 
63 -46 -77 


-16 -49 -17 
40 -36 -70 
28 87 -64 

93 64 17 
113 42 108 
-82 124 98 

94 -16 20 
-117 -69 83 
-78 2 -127 

-23 -22 -98 
-28 25 39 
-37 28 -53 

122 84 -100 
16 34 -101 
50 -119 -39 

64 -39 127 
-82 -79 -42 
-67 102 -98 

20 51 -114 
114 -79 25 
-37 -72 -77 

-40 -47 -101 
-89 23 38 
63 -46 -77 



-16 -49 -17 
40 -36 -70 
28 87 -64 

93 64 17 
113 42 108 
-82 124 98 

94 -16 20 
-117 -69 83 
-78 2 -127 

-23 -22 -98 
-28 25 39 
-37 28 -53 

122 84 -100 
16 34 -101 
50 -119 -39 

64 -39 127 
-82 -79 -42 
-67 102 -98 

20 51 -114 
114 -79 25 
-37 -72 -77 

-40 -47 -101 
-89 23 38 
63 -46 -77 


-16 -49 -17 
40 -36 -70 
28 87 -64 

93 64 17 
113 42 108 
-82 124 98 

94 -16 20 
-117 -69 83 
-78 2 -127 

-23 -22 -98 
-28 25 39 
-37 28 -53 

122 84 -100 
16 34 -101 
50 -119 -39 

64 -39 127 
-82 -79 -42 
-67 102 -98 

20 51 -114 
114 -79 25 
-37 -72 -77 

-40 -47 -101 
-89 23 38 
63 -46 -77 


-16 -49 -17 
40 -36 -70 
28 87 -64 

93 64 17 
113 42 108 
-82 124 98 

94 -16 20 
-117 -69 83 
-78 2 -127 

-23 -22 -98 
-28 25 39 
-37 28 -53 

122 84 -100 
16 34 -101 
50 -119 -39 

64 -39 127 
-82 -79 -42 
-67 102 -98 

20 51 -114 
114 -79 25 
-37 -72 -77 

-40 -47 -101 
-89 23 38 
63 -46 -77 


-16 -49 -17 
40 -36 -70 
28 87 -64 

93 64 17 
113 42 108 
-82 124 98 

94 -16 20 
-117 -69 83 
-78 2 -127 

-23 -22 -98 
-28 25 39 
-37 28 -53 

122 84 -100 
16 34 -101 
50 -119 -39 

64 -39 127 
-82 -79 -42 
-67 102 -98 

20 51 -114 
114 -79 25 
-37 -72 -77 

-40 -47 -101 
-89 23 38 
63 -46 -77 



-16 -49 -17 
40 -36 -70 
28 87 -64 

93 64 17 
113 42 108 
-82 124 98 

94 -16 20 
-117 -69 83 
-78 2 -127 

-23 -22 -98 
-28 25 39 
-37 28 -53 

122 84 -100 
16 34 -101 
50 -119 -39 

64 -39 127 
-82 -79 -42 
-67 102 -98 

20 51 -114 
114 -79 25 
-37 -72 -77 

-40 -47 -101 
-89 23 38 
63 -46 -77 


-16 -49 -17 
40 -36 -70 
28 87 -64 

93 64 17 
113 42 108 
-82 124 98 

94 -16 20 
-117 -69 83 
-78 2 -127 

-23 -22 -98 
-28 25 39 
-37 28 -53 

122 84 -100 
16 34 -101 
50 -119 -39 

64 -39 127 
-82 -79 -42 
-67 102 -98 

20 51 -114 
114 -79 25 
-37 -72 -77 

-40 -47 -101 
-89 23 38 
63 -46 -77 


-16 -49 -17 
40 -36 -70 
28 87 -64 

93 64 17 
113 42 108 
-82 124 98 

94 -16 20 
-117 -69 83 
-78 2 -127 

-23 -22 -98 
-28 25 39 
-37 28 -53 

122 84 -100 
16 34 -101 
50 -119 -39 

64 -39 127 
-82 -79 -42 
-67 102 -98 

20 51 -114 
114 -79 25 
-37 -72 -77 

-40 -47 -101 
-89 23 38 
63 -46 -77 


-16 -49 -17 
40 -36 -70 
28 87 -64 

93 64 17 
113 42 108 
-82 124 98 

94 -16 20 
-117 -69 83 
-78 2 -127 

-23 -22 -98 
-28 25 39 
-37 28 -53 

122 84 -100 
16 34 -101 
50 -119 -39 

64 -39 127 
-82 -79 -42 
-67 102 -98 

20 51 -114 
114 -79 25 
-37 -72 -77 

-40 -47 -101 
-89 23 38 
63 -46 -77 



-16 -49 -17 
40 -36 -70 
28 87 -64 

93 64 17 
113 42 108 
-82 124 98 

94 -16 20 
-117 -69 83 
-78 2 -127 

-23 -22 -98 
-28 25 39 
-37 28 -53 

122 84 -100 
16 34 -101 
50 -119 -39 

64 -39 127 
-82 -79 -42 
-67 102 -98 

20 51 -114 
114 -79 25 
-37 -72 -77 

-40 -47 -101 
-89 23 38 
63 -46 -77 


-16 -49 -17 
40 -36 -70 
28 87 -64 

93 64 17 
113 42 108 
-82 124 98 

94 -16 20 
-117 -69 83 
-78 2 -127 

-23 -22 -98 
-28 25 39 
-37 28 -53 

122 84 -100 
16 34 -101 
50 -119 -39 

64 -39 127 
-82 -79 -42 
-67 102 -98 

20 51 -114 
114 -79 25 
-37 -72 -77 

-40 -47 -101 
-89 23 38 
63 -46 -77 


-16 -49 -17 
40 -36 -70 
28 87 -64 

93 64 17 
113 42 108 
-82 124 98 

94 -16 20 
-117 -69 83 
-78 2 -127 

-23 -22 -98 
-28 25 39 
-37 28 -53 

122 84 -100 
16 34 -101 
50 -119 -39 

64 -39 127 
-82 -79 -42 
-67 102 -98 

20 51 -114 
114 -79 25 
-37 -72 -77 

-40 -47 -101 
-89 23 38 
63 -46 -77 


-16 -49 -17 
40 -36 -70 
28 87 -64 

93 64 17 
113 42 108 
-82 124 98 

94 -16 20 
-117 -69 83 
-78 2 -127 

-23 -22 -98 
-28 25 39 
-37 28 -53 

122 84 -100 
16 34 -101 
50 -119 -39 

64 -39 127 
-82 -79 -42 
-67 102 -98 

20 51 -114 
114 -79 25 
-37 -72 -77 

-40 -47 -101 
-89 23 38 
63 -46 -77 




38 -44 -15 
-15 -10 -71 
27 62 83 

115 -23 33 
96 -82 -127 
-11 -124 25 

-10 14 44 
-28 2 -78 
-57 -30 -32 

-85 94 -126 
76 102 -83 
-29 114 65 

91 3 -109 
-22 -116 -59 
-21 41 -58 

87 51 15 
-61 -99 -76 
-65 95 14 

-67 118 28 
-79 61 -119 
5 -113 -18 

-87 -74 74 
-72 -80 109 
-42 125 36 


38 -44 -15 
-15 -10 -71 
27 62 83 

115 -23 33 
96 -82 -127 
-11 -124 25 

-10 14 44 
-28 2 -78 
-57 -30 -32 

-85 94 -126 
76 102 -83 
-29 114 65 

91 3 -109 
-22 -116 -59 
-21 41 -58 

87 51 15 
-61 -99 -76 
-65 95 14 

-67 118 28 
-79 61 -119 
5 -113 -18 

-87 -74 74 
-72 -80 109 
-42 125 36 


38 -44 -15 
-15 -10 -71 
27 62 83 

115 -23 33 
96 -82 -127 
-11 -124 25 

-10 14 44 
-28 2 -78 
-57 -30 -32 

-85 94 -126 
76 102 -83 
-29 114 65 

91 3 -109 
-22 -116 -59 
-21 41 -58 

87 51 15 
-61 -99 -76 
-65 95 14 

-67 118 28 
-79 61 -119 
5 -113 -18 

-87 -74 74 
-72 -80 109 
-42 125 36 


38 -44 -15 
-15 -10 -71 
27 62 83 

115 -23 33 
96 -82 -127 
-11 -124 25 

-10 14 44 
-28 2 -78 
-57 -30 -32 

-85 94 -126 
76 102 -83 
-29 114 65 

91 3 -109 
-22 -116 -59 
-21 41 -58 

87 51 15 
-61 -99 -76 
-65 95 14 

-67 118 28 
-79 61 -119 
5 -113 -18 

-87 -74 74 
-72 -80 109 
-42 125 36 



38 -44 -15 
-15 -10 -71 
27 62 83 

115 -23 33 
96 -82 -127 
-11 -124 25 

-10 14 44 
-28 2 -78 
-57 -30 -32 

-85 94 -126 
76 102 -83 
-29 114 65 

91 3 -109 
-22 -116 -59 
-21 41 -58 

87 51 15 
-61 -99 -76 
-65 95 14 

-67 118 28 
-79 61 -119 
5 -113 -18 

-87 -74 74 
-72 -80 109 
-42 125 36 


38 -44 -15 
-15 -10 -71 
27 62 83 

115 -23 33 
96 -82 -127 
-11 -124 25 

-10 14 44 
-28 2 -78 
-57 -30 -32 

-85 94 -126 
76 102 -83 
-29 114 65 

91 3 -109 
-22 -116 -59 
-21 41 -58 

87 51 15 
-61 -99 -76 
-65 95 14 

-67 118 28 
-79 61 -119 
5 -113 -18 

-87 -74 74 
-72 -80 109 
-42 125 36 


38 -44 -15 
-15 -10 -71 
27 62 83 

115 -23 33 
96 -82 -127 
-11 -124 25 

-10 14 44 
-28 2 -78 
-57 -30 -32 

-85 94 -126 
76 102 -83 
-29 114 65 

91 3 -109 
-22 -116 -59 
-21 41 -58 

87 51 15 
-61 -99 -76 
-65 95 14 

-67 118 28 
-79 61 -119 
5 -113 -18 

-87 -74 74 
-72 -80 109 
-42 125 36 


38 -44 -15 
-15 -10 -71 
27 62 83 

115 -23 33 
96 -82 -127 
-11 -124 25 

-10 14 44 
-28 2 -78 
-57 -30 -32 

-85 94 -126 
76 102 -83 
-29 114 65 

91 3 -109 
-22 -116 -59 
-21 41 -58 

87 51 15 
-61 -99 -76 
-65 95 14 

-67 118 28 
-79 61 -119 
5 -113 -18 

-87 -74 74 
-72 -80 109 
-42 125 36 



38 -44 -15 
-15 -10 -71 
27 62 83 

115 -23 33 
96 -82 -127 
-11 -124 25 

-10 14 44 
-28 2 -78 
-57 -30 -32 

-85 94 -126 
76 102 -83 
-29 114 65 

91 3 -109 
-22 -116 -59 
-21 41 -58 

87 51 15 
-61 -99 -76 
-65 95 14 

-67 118 28 
-79 61 -119 
5 -113 -18 

-87 -74 74 
-72 -80 109 
-42 125 36 


38 -44 -15 
-15 -10 -71 
27 62 83 

115 -23 33 
96 -82 -127 
-11 -124 25 

-10 14 44 
-28 2 -78 
-57 -30 -32 

-85 94 -126 
76 102 -83 
-29 114 65 

91 3 -109 
-22 -116 -59 
-21 41 -58 

87 51 15 
-61 -99 -76 
-65 95 14 

-67 118 28 
-79 61 -119 
5 -113 -18 

-87 -74 74 
-72 -80 109 
-42 125 36 


38 -44 -15 
-15 -10 -71 
27 62 83 

115 -23 33 
96 -82 -127 
-11 -124 25 

-10 14 44 
-28 2 -78 
-57 -30 -32 

-85 94 -126 
76 102 -83 
-29 114 65 

91 3 -109 
-22 -116 -59 
-21 41 -58 

87 51 15 
-61 -99 -76 
-65 95 14 

-67 118 28 
-79 61 -119 
5 -113 -18 

-87 -74 74 
-72 -80 109 
-42 125 36 


38 -44 -15 
-15 -10 -71 
27 62 83 

115 -23 33 
96 -82 -127 
-11 -124 25 

-10 14 44 
-28 2 -78 
-57 -30 -32 

-85 94 -126 
76 102 -83 
-29 114 65 

91 3 -109 
-22 -116 -59 
-21 41 -58 

87 51 15 
-61 -99 -76 
-65 95 14 

-67 118 28 
-79 61 -119 
5 -113 -18 

-87 -74 74 
-72 -80 109 
-42 125 36 



38 -44 -15 
-15 -10 -71 
27 62 83 

115 -23 33 
96 -82 -127 
-11 -124 25 

-10 14 44 
-28 2 -78 
-57 -30 -32 

-85 94 -126 
76 102 -83 
-29 114 65 

91 3 -109 
-22 -116 -59 
-21 41 -58 

87 51 15 
-61 -99 -76 
-65 95 14 

-67 118 28 
-79 61 -119 
5 -113 -18 

-87 -74 74 
-72 -80 109 
-42 125 36 


38 -44 -15 
-15 -10 -71 
27 62 83 

115 -23 33 
96 -82 -127 
-11 -124 25 

-10 14 44 
-28 2 -78 
-57 -30 -32 

-85 94 -126 
76 102 -83 
-29 114 65 

91 3 -109 
-22 -116 -59 
-21 41 -58 

87 51 15 
-61 -99 -76 
-65 95 14 

-67 118 28 
-79 61 -119 
5 -113 -18 

-87 -74 74 
-72 -80 109 
-42 125 36 


38 -44 -15 
-15 -10 -71 
27 62 83 

115 -23 33 
96 -82 -127 
-11 -124 25 

-10 14 44 
-28 2 -78 
-57 -30 -32 

-85 94 -126 
76 102 -83 
-29 114 65 

91 3 -109 
-22 -116 -59 
-21 41 -58 

87 51 15 
-61 -99 -76 
-65 95 14 

-67 118 28 
-79 61 -119 
5 -113 -18 

-87 -74 74 
-72 -80 109 
-42 125 36 


38 -44 -15 
-15 -10 -71 
27 62 83 

115 -23 33 
96 -82 -127 
-11 -124 25 

-10 14 44 
-28 2 -78 
-57 -30 -32 

-85 94 -126 
76 102 -83 
-29 114 65 

91 3 -109 
-22 -116 -59 
-21 41 -58 

87 51 15 
-61 -99 -76 
-65 95 14 

-67 118 28 
-79 61 -119 
5 -113 -18 

-87 -74 74 
-72 -80 109 
-42 125 36 



38 -44 -15 
-15 -10 -71 
27 62 83 

115 -23 33 
96 -82 -127 
-11 -124 25 

-10 14 44 
-28 2 -78 
-57 -30 -32 

-85 94 -126 
76 102 -83 
-29 114 65 

91 3 -109 
-22 -116 -59 
-21 41 -58 

87 51 15 
-61 -99 -76 
-65 95 14 

-67 118 28 
-79 61 -119 
5 -113 -18 

-87 -74 74 
-72 -80 109 
-42 125 36 


38 -44 -15 
-15 -10 -71 
27 62 83 

115 -23 33 
96 -82 -127 
-11 -124 25 

-10 14 44 
-28 2 -78 
-57 -30 -32 

-85 94 -126 
76 102 -83 
-29 114 65 

91 3 -109 
-22 -116 -59 
-21 41 -58 

87 51 15 
-61 -99 -76 
-65 95 14 

-67 118 28 
-79 61 -119 
5 -113 -18 

-87 -74 74 
-72 -80 109 
-42 125 36 


38 -44 -15 
-15 -10 -71 
27 62 83 

115 -23 33 
96 -82 -127 
-11 -124 25 

-10 14 44 
-28 2 -78 
-57 -30 -32 

-85 94 -126 
76 102 -83 
-29 114 65 

91 3 -109 
-22 -116 -59 
-21 41 -58 

87 51 15 
-61 -99 -76 
-65 95 14 

-67 118 28 
-79 61 -119 
5 -113 -18 

-87 -74 74 
-72 -80 109 
-42 125 36 


38 -44 -15 
-15 -10 -71 
27 62 83 

115 -23 33 
96 -82 -127 
-11 -124 25 

-10 14 44 
-28 2 -78 
-57 -30 -32 

-85 94 -126 
76 102 -83 
-29 114 65 

91 3 -109 
-22 -116 -59 
-21 41 -58 

87 51 15 
-61 -99 -76 
-65 95 14 

-67 118 28 
-79 61 -119 
5 -113 -18 

-87 -74 74 
-72 -80 109 
-42 125 36 



38 -44 -15 
-15 -10 -71 
27 62 83 

115 -23 33 
96 -82 -127 
-11 -124 25 

-10 14 44 
-28 2 -78 
-57 -30 -32 

-85 94 -126 
76 102 -83 
-29 114 65 

91 3 -109 
-22 -116 -59 
-21 41 -58 

87 51 15 
-61 -99 -76 
-65 95 14 

-67 118 28 
-79 61 -119 
5 -113 -18 

-87 -74 74 
-72 -80 109 
-42 125 36 


38 -44 -15 
-15 -10 -71 
27 62 83 

115 -23 33 
96 -82 -127 
-11 -124 25 

-10 14 44 
-28 2 -78 
-57 -30 -32 

-85 94 -126 
76 102 -83 
-29 114 65 

91 3 -109 
-22 -116 -59 
-21 41 -58 

87 51 15 
-61 -99 -76 
-65 95 14 

-67 118 28 
-79 61 -119 
5 -113 -18 

-87 -74 74 
-72 -80 109 
-42 125 36 


38 -44 -15 
-15 -10 -71 
27 62 83 

115 -23 33 
96 -82 -127 
-11 -124 25 

-10 14 44 
-28 2 -78 
-57 -30 -32 

-85 94 -126 
76 102 -83 
-29 114 65 

91 3 -109 
-22 -116 -59 
-21 41 -58 

87 51 15 
-61 -99 -76 
-65 95 14 

-67 118 28 
-79 61 -119 
5 -113 -18 

-87 -74 74 
-72 -80 109 
-42 125 36 


38 -44 -15 
-15 -10 -71 
27 62 83 

115 -23 33 
96 -82 -127 
-11 -124 25 

-10 14 44 
-28 2 -78 
-57 -30 -32 

-85 94 -126 
76 102 -83 
-29 114 65 

91 3 -109 
-22 -116 -59 
-21 41 -58 

87 51 15 
-61 -99 -76 
-65 95 14 

-67 118 28 
-79 61 -119 
5 -113 -18 

-87 -74 74 
-72 -80 109 
-42 125 36 



38 -44 -15 
-15 -10 -71 
27 62 83 

115 -23 33 
96 -82 -127 
-11 -124 25 

-10 14 44 
-28 2 -78 
-57 -30 -32 

-85 94 -126 
76 102 -83 
-29 114 65 

91 3 -109 
-22 -116 -59 
-21 41 -58 

87 51 15 
-61 -99 -76 
-65 95 14 

-67 118 28 
-79 61 -119 
5 -113 -18 

-87 -74 74 
-72 -80 109 
-42 125 36 


38 -44 -15 
-15 -10 -71 
27 62 83 

115 -23 33 
96 -82 -127 
-11 -124 25 

-10 14 44 
-28 2 -78 
-57 -30 -32 

-85 94 -126 
76 102 -83 
-29 114 65 

91 3 -109 
-22 -116 -59 
-21 41 -58 

87 51 15 
-61 -99 -76 
-65 95 14 

-67 118 28 
-79 61 -119 
5 -113 -18 

-87 -74 74 
-72 -80 109 
-42 125 36 


38 -44 -15 
-15 -10 -71 
27 62 83 

115 -23 33 
96 -82 -127 
-11 -124 25 

-10 14 44 
