119 47 -5 
30 -40 15 
-92 -9 -116 

50 120 -18 
-20 86 36 
-94 89 64 

54 -20 32 
-40 -52 2 
-58 125 34 

-113 -98 83 
-35 -62 52 
31 -102 -66 

-71 69 -49 
43 -85 82 
-55 121 71 

-108 3 12 
38 2 -78 
-109 102 6 

-113 -34 89 
-36 -104 12 
56 -119 119 

43 -84 -16 
43 15 98 
7 -71 94 


93 -29 115 
1 66 -83 
42 14 52 

-4 92 108 
27 68 -8 
38 100 -49 

-110 -116 -25 
94 49 -96 
37 -20 -49 

-71 -3 8 
-19 -80 -30 
-48 -42 124 

5 -42 -75 
124 -41 7 
-88 87 -120 

-101 -3 -15 
-90 24 -90 
126 71 -58 

-74 57 -76 
63 69 107 
16 98 98 

-112 -127 80 
43 116 -99 
46 42 28 


-34 -103 -3 
86 120 111 
-91 10 -42 

-93 70 58 
-44 -75 58 
-17 -86 98 

-93 19 50 
-124 -56 -86 
-108 20 76 

62 89 24 
26 104 -54 
92 29 -80 

73 -40 -28 
-49 97 -56 
-67 88 -122 

-114 5 42 
-6 -27 38 
1 91 -117 

-98 78 71 
21 -24 125 
-28 90 118 

-74 -86 -110 
16 -6 -108 
0 -42 91 


10 85 53 
-47 -65 121 
-59 56 -35 

-27 -112 -1 
1 -56 115 
-77 8 33 

4 -124 -56 
124 -91 -86 
-22 -34 -44 

-125 -45 -127 
84 114 93 
46 102 -82 

97 31 -118 
51 -34 124 
58 -61 -15 

7 -32 108 
-78 120 65 
-70 76 42 

-30 -12 43 
116 110 59 
-104 -48 3 

-75 88 81 
-8 -54 -74 
-124 12 -61 


-9 -52 -82 
126 -20 19 
-36 113 91 

71 101 -72 
-81 -120 -53 
-2 73 59 

-125 77 -88 
109 -95 -82 
-79 107 -72 

-50 63 -29 
-106 -76 52 
22 56 -111 

20 -82 91 
-34 -94 -53 
24 106 -42 

-35 98 -92 
18 106 -107 
115 -32 46 

-113 -6 -4 
-79 68 -100 
-28 -73 108 

-41 -91 -34 
68 29 126 
40 -39 56 


-16 40 28 
-49 -36 87 
-17 -70 -64 

93 113 -82 
64 42 124 
17 108 98 

94 -117 -78 
-16 -69 2 
20 83 -127 

-23 -28 -37 
-22 25 28 
-98 39 -53 

122 16 50 
84 34 -119 
-100 -101 -39 

64 -82 -67 
-39 -79 102 
127 -42 -98 

20 114 -37 
51 -79 -72 
-114 25 -77 

-40 -89 63 
-47 23 -46 
-101 38 -77 


38 -15 27 
-44 -10 62 
-15 -71 83 

115 96 -11 
-23 -82 -124 
33 -127 25 

-10 -28 -57 
14 2 -30 
44 -78 -32 

-85 76 -29 
94 102 114 
-126 -83 65 

91 -22 -21 
3 -116 41 
-109 -59 -58 

87 -61 -65 
51 -99 95 
15 -76 14 

-67 -79 5 
118 61 -113 
28 -119 -18 

-87 -72 -42 
-74 -80 125 
74 109 36 


90 9 -1 
-76 82 -10 
-115 -5 119 

28 116 66 
54 -86 -41 
2 -84 -62 

-20 -34 112 
-22 3 -96 
-60 -60 100 

100 86 57 
23 -114 -11 
-89 79 -58 

6 -103 -16 
-113 -42 -61 
-48 101 -118 

-54 -127 -56 
27 6 47 
-67 -95 -73 

51 94 -12 
-89 -29 93 
60 107 109 

-60 -21 -121 
-123 38 36 
-93 92 -94 


