-17 -27 93 116 44 
35 -8 -52 -88 -81 
-94 -36 67 121 -87 
-63 -17 97 10 109 
-38 81 -2 90 123 

-111 118 -102 -116 107 
-111 -95 62 33 20 
22 -72 -57 81 -14 
29 6 -77 56 120 
-29 62 -92 -122 30 

114 122 -56 52 -12 
59 -77 44 0 -104 
-89 72 67 100 124 
78 34 3 43 -94 
-22 57 27 -65 14 

9 -76 -96 -44 32 
27 38 8 -114 -125 
-1 61 -20 -16 -39 
-68 86 -15 88 36 
-80 -79 -80 10 5 

-86 -61 -21 -112 -2 
114 -2 49 53 57 
0 -96 -72 -6 -15 
95 56 29 -120 -20 
13 -74 12 -71 -38 

32 -98 30 -48 -64 
66 -79 -16 63 58 
-58 44 113 -36 -50 
-11 -6 37 -13 -20 
113 -105 -3 25 68 

-126 75 -41 120 84 
30 47 -76 -107 -70 
-44 62 80 43 73 
47 -58 -78 59 -88 
-34 -13 -94 58 91 

57 -93 106 61 -80 
-79 31 -101 43 -25 
-123 -100 -58 63 -80 
-117 8 -106 63 28 
-12 -50 41 -44 -123 


-25 -40 83 125 57 
76 76 94 19 20 
88 -83 -87 -2 -121 
-115 -93 115 99 -24 
-97 107 -109 -115 44 

62 72 124 34 -18 
72 83 10 -10 -118 
46 -113 -51 109 93 
40 -64 -88 54 60 
-118 88 -30 -41 -51 

25 22 27 2 61 
-124 -64 -19 -52 -124 
-36 -115 -77 -81 32 
-4 -9 61 33 66 
96 1 10 -122 34 

86 -90 3 -36 3 
103 -111 60 -46 -23 
15 -18 30 13 87 
-106 -73 23 16 123 
42 -47 76 33 109 

-68 99 -51 -60 88 
66 -115 50 76 37 
-92 -40 67 -13 5 
-84 18 -91 116 -6 
-20 83 89 -113 -55 

-28 88 84 -28 -89 
15 4 -37 18 -11 
-95 -74 -59 -123 -115 
-47 115 -14 -17 104 
18 123 106 -9 -117 

71 -9 -43 -77 93 
-70 34 4 26 81 
34 -73 -54 57 70 
-15 -117 41 21 117 
42 -55 6 -32 -96 

11 8 8 -59 -24 
-26 -75 -80 68 -65 
-75 15 76 -88 -117 
17 92 76 124 38 
94 73 -80 77 60 


-62 12 -84 94 13 
-103 52 -48 -120 118 
62 5 -66 114 51 
90 71 22 61 -45 
-63 11 -108 106 -8 

66 -77 72 -121 -111 
-48 74 19 -1 4 
59 123 24 -92 -15 
-74 30 2 -42 -39 
18 -127 114 20 -90 

-71 8 40 28 57 
-6 -118 -61 4 -39 
99 10 -123 49 -46 
37 -65 -104 -81 -9 
-55 -41 -58 -51 12 

24 -127 -21 45 118 
28 110 -77 104 96 
60 -74 37 45 -53 
-126 65 -97 -36 -12 
58 47 -10 -72 -47 

-89 0 -123 91 40 
87 73 24 100 63 
46 -109 -95 -12 -7 
-71 81 60 -128 -66 
6 -69 -65 49 -86 

-39 -66 -115 -26 116 
49 -90 84 126 34 
-31 3 39 53 62 
90 57 70 35 -98 
-22 -32 112 -104 126 

49 88 -11 -43 123 
-76 -85 -14 -117 102 
-49 -97 -2 87 87 
-126 -31 -43 106 -88 
14 -24 -65 -3 -93 

21 25 -21 -107 8 
31 5 19 86 -36 
14 -55 3 62 -57 
121 3 18 -68 13 
-68 -100 -109 -79 -93 


11 50 -126 -33 113 
10 90 58 59 31 
96 90 -112 29 -19 
31 2 6 -99 19 
-91 -6 -76 9 -16 

41 -124 -47 -120 58 
-84 32 -51 65 71 
48 -17 44 -83 -80 
53 -104 89 -80 -67 
87 68 49 -75 -72 

-5 -98 -97 -25 -124 
-20 35 0 -103 40 
-11 -1 22 -18 -118 
101 63 -68 -84 -127 
-50 12 -117 -90 116 

23 106 51 22 55 
-5 112 -14 20 -123 
86 -15 21 -105 -68 
-107 66 59 112 7 
-120 -87 107 -2 -92 

-86 -91 116 47 -90 
118 123 126 -38 8 
41 37 25 -95 -4 
92 89 -40 -53 -52 
114 35 -98 -8 90 

38 84 105 90 -105 
83 101 41 -52 5 
96 -127 11 -121 124 
79 63 -116 -3 -52 
-62 48 94 85 -52 

-38 -80 -6 95 96 
49 57 -74 -71 96 
14 124 8 69 123 
-117 62 -108 43 -46 
20 104 -77 48 34 

74 -79 40 -95 -104 
-102 -17 106 -2 15 
55 10 -91 18 -2 
-76 -82 -60 6 -114 
-67 100 -42 -14 -127 


21 -86 126 -87 -17 
-47 -56 109 62 120 
-33 -33 93 6 73 
-47 31 -76 -98 0 
40 7 120 -81 -101 

-3 -56 63 122 91 
50 -108 119 28 26 
35 -24 -95 74 -25 
-115 -86 -3 -32 -73 
-41 71 -103 -37 -11 

-53 100 49 -90 -37 
124 17 48 12 -74 
14 40 86 64 -61 
-79 117 5 30 38 
-67 34 -50 -66 -18 

11 -71 20 -52 -23 
52 101 -16 -36 5 
4 76 -39 89 -61 
95 122 86 67 117 
-126 82 105 72 -5 

-50 -42 3 42 12 
10 11 -58 -63 -20 
86 86 -95 13 -57 
38 -127 66 -13 -33 
-16 -30 55 54 89 

82 69 -37 -43 -79 
126 75 1 -30 48 
102 112 -126 10 -94 
24 119 74 19 13 
122 10 -77 -75 96 

4 22 -81 -7 -122 
64 -41 -104 108 -104 
-30 101 -87 4 59 
82 41 104 -64 -96 
-75 -66 85 -45 11 

50 122 70 -72 -62 
65 -61 122 122 120 
79 -46 -120 54 -21 
-61 -115 -121 -31 59 
-116 -21 57 -23 -34 


108 -25 -39 -67 -5 
41 44 -91 -90 -72 
-55 -83 80 94 26 
42 -61 -101 1 -128 
-83 -55 25 33 -81 

86 92 7 111 -121 
56 -53 -119 -74 54 
18 66 -111 126 -75 
-68 -45 83 -118 27 
69 -74 12 -3 41 

-48 116 -84 -16 5 
-7 6 -46 91 111 
-38 100 98 61 14 
-80 -102 -35 -37 -36 
-88 -115 -88 86 108 

97 -111 23 38 -117 
-86 52 -71 -26 109 
-67 -65 -39 -107 29 
-123 -2 54 -12 20 
-114 55 -25 -44 -60 

2 75 4 39 -50 
113 -31 115 -21 68 
-99 -72 -49 -115 87 
-10 -65 -19 13 -28 
117 -126 105 39 56 

43 116 -95 16 95 
3 -11 -118 118 -44 
-114 109 -64 -73 68 
46 -100 -63 68 18 
-126 -118 75 65 13 

-119 82 81 -78 -92 
49 110 -56 95 105 
30 67 20 115 -44 
73 -17 45 92 -19 
7 100 80 -67 41 

21 70 -80 -122 95 
104 -73 81 40 -16 
-39 22 -18 -50 103 
-47 61 36 -37 50 
-125 17 -94 58 -72 


-82 -45 -97 100 65 
-6 -97 81 65 89 
113 -118 -92 -64 64 
100 -41 -65 -9 98 
24 61 96 -75 -21 

-32 112 -21 77 115 
-102 98 111 85 -126 
4 62 -123 122 78 
53 -104 96 -31 107 
-49 3 121 116 -73 

34 111 -42 -109 -79 
-64 81 -51 -25 -68 
-27 56 -92 78 1 
-15 80 40 102 114 
75 -100 47 -16 77 

-68 39 -91 107 4 
123 -70 -14 -46 -119 
-106 -9 31 70 -82 
-6 84 79 -78 -108 
-38 -69 18 120 33 

110 -21 33 -75 100 
29 108 103 -89 -35 
59 -71 -74 115 58 
46 117 -36 55 -2 
27 117 -120 21 -28 

-27 -24 -65 -114 -72 
-67 110 -47 -69 6 
112 -40 -27 -3 21 
-1 -11 102 29 110 
18 107 -3 113 -64 

-109 71 -123 -78 -72 
-82 77 18 -68 -69 
-42 -54 35 -19 -107 
-109 62 -18 70 73 
-68 29 43 -108 118 

109 -126 69 -122 98 
-9 78 50 1 125 
111 -109 -84 119 -32 
117 -35 63 -121 68 
46 -69 10 -56 -22 


92 35 104 -27 107 
-54 -108 74 -115 102 
91 47 5 29 11 
80 3 113 121 33 
86 60 91 -71 -70 

-111 -114 -74 -38 85 
106 -20 7 -44 43 
-127 99 -26 -24 -38 
48 -1 54 106 112 
-82 -107 -57 -35 -124 

-84 -20 34 -107 104 
-11 66 -47 -105 108 
-70 -35 -44 56 -21 
-10 -108 -82 25 50 
-63 12 -124 -9 -12 

58 36 -43 68 -121 
57 36 118 38 70 
-36 77 107 44 10 
105 -81 -96 58 60 
-117 35 -45 -26 -56 

-64 16 -48 -97 7 
95 86 12 24 -46 
18 -119 42 91 1 
-128 35 19 -42 110 
-15 15 -115 71 85 

-36 -87 102 126 -72 
64 95 112 124 31 
-19 -14 87 -83 31 
-64 -69 -106 -91 -84 
119 -62 -59 -5 -51 

107 41 -75 87 -101 
110 60 -1 12 26 
-15 64 87 -18 48 
-63 -103 -112 -1 -96 
59 -43 -94 -23 -110 

-69 -116 65 -119 -26 
105 79 -86 35 -43 
-118 54 -113 119 -24 
54 108 30 -47 -106 
68 -107 83 -81 -1 


